tree
version=v4
num_class=5
num_tree_per_iteration=5
label_index=0
max_feature_idx=5
objective=multiclass num_class:5
feature_names=Column_0 Column_1 Column_2 Column_3 Column_4 Column_5
feature_infos=[0:2] [295.29998779296875:304.39999389648438] [305.70001220703125:313.79998779296875] [1168:2886] [3.7999999523162842:75.400001525878906] [0:251]
tree_sizes=2182 5458 2827 1667 2716 6844 6485 6831 6822 6751

Tree=0
num_leaves=20
num_cat=0
split_feature=3 1 2 2 1 2 1 4 1 1 4 4 1 0 1 1 1 4 0
split_gain=383.634 1302.31 863.083 348.052 970.487 265.151 419.755 109.257 4.6482 2.90072 3.86979 1.42916 5.55231 7.10543e-15 1.77636e-15 1.77636e-15 1.77636e-15 1.77636e-15 5.55112e-17
threshold=1380.5000000000002 301.65000915527349 310.44999694824224 312.15000915527349 302.65000915527349 311.05000305175787 302.05000305175787 49.350000381469734 303.05000305175787 301.44999694824224 50.549999237060554 62.250000000000007 300.65000915527349 1.5000000000000002 297.15000915527349 297.55000305175787 299.84999084472662 46.549999237060554 1.5000000000000002
decision_type=2 2 2 2 2 2 2 2 2 2 2 2 2 2 2 2 2 2 2
left_child=1 9 -3 4 5 6 -4 -8 -6 11 -11 17 -13 -2 -15 -16 -17 -1 -7
right_child=13 2 3 -5 8 18 7 -9 -10 10 -12 12 -14 14 15 16 -18 -19 -20
leaf_value=-4.6354398882410432 -4.6354398882410424 9.5538034668312193 -4.6354398882410415 -4.6354398882410424 8.134879131323931 -4.6354398882410424 9.5538034668311482 2.4591817892950623 9.5538034668311838 -3.2165155527338305 -4.6354398882410415 -4.6354398882410415 -3.2165155527338234 -4.6354398882410424 -4.6354398882410424 -4.6354398882410424 -4.6354398882410424 -4.6354398882410424 -4.6354398882410415
leaf_weight=1.0712340138852541 54.802076920866966 0.35237960983067695 0.29599887225776933 0.74704477284103621 0.14095184393227089 0.43695071619004011 0.1550470283254981 0.19733258150517941 0.26780850347131491 0.14095184393227178 0.1691422127187252 0.50742663815617639 0.140951843932271 1.1417099358513976 1.6773269427940274 8.0906358417123574 12.460143003612755 7.1180681185796857 0.29599887225776911
leaf_count=76 3888 25 21 53 10 31 11 14 19 10 12 36 10 81 119 574 884 505 21
internal_value=-4.47359 -3.42254 0.278883 -1.0093 0.503971 -2.02925 0.916873 5.58082 9.06452 -4.59171 -3.99047 -4.61281 -4.32698 -4.63544 -4.63544 -4.63544 -4.63544 -4.63544 -4.63544
internal_weight=90.2092 12.0373 2.88951 2.53713 1.79009 1.38133 0.648378 0.35238 0.40876 9.14777 0.310094 8.83768 0.648378 78.1719 23.3698 22.2281 20.5508 8.1893 0.73295
internal_count=6400 854 205 180 127 98 46 25 29 649 22 627 46 5546 1658 1577 1458 581 52
is_linear=0
shrinkage=1


Tree=1
num_leaves=52
num_cat=0
split_feature=4 3 4 5 5 4 3 1 2 1 2 1 2 0 2 4 5 4 4 5 4 3 1 3 4 3 1 1 3 4 3 5 0 1 2 2 3 5 5 5 1 3 1 2 4 1 5 2 1 1 1
split_gain=806.274 271.487 251.333 330.045 155.616 265.59 90.884 297.08 221.419 75.3917 91.4658 69.8231 261.837 52.8352 52.4549 55.2338 21.13 29.9774 40.3873 22.9853 20.6629 34.1136 20.0741 18.655 39.4977 18.2492 17.4373 32.8754 13.8882 13.3013 9.55911 21.0301 8.31502 7.92356 7.57456 6.17666 3.47366 2.22438 2.09106 3.29341 3.26218 2.03582 1.41828 1.31438 0.905169 1.57991 0.570881 3.42441 5.10978 4.44089e-16 1.11022e-16
threshold=65.200000762939467 2460.5000000000005 56.750000000000007 186.50000000000003 204.50000000000003 52.649999618530281 1380.5000000000002 301.84999084472662 311.05000305175787 300.75000000000006 310.44999694824224 302.94999694824224 312.25000000000006 1.5000000000000002 310.55000305175787 49.350000381469734 215.50000000000003 30.849999427795414 45.250000000000007 221.50000000000003 58.850000381469734 1351.5000000000002 301.44999694824224 1376.5000000000002 60.45000076293946 2637.5000000000005 301.75000000000006 302.25000000000006 1523.5000000000002 61.850000381469734 1296.5000000000002 147.50000000000003 1.0000000180025095e-35 301.55000305175787 308.55000305175787 310.75000000000006 1576.5000000000002 198.50000000000003 209.50000000000003 206.50000000000003 298.94999694824224 1422.5000000000002 302.25000000000006 310.25000000000006 15.84999990463257 298.84999084472662 197.50000000000003 308.44999694824224 298.05000305175787 302.15000915527349 303.84999084472662
decision_type=2 2 2 2 2 2 2 2 2 2 2 2 2 2 2 2 2 2 2 2 2 2 2 2 2 2 2 2 2 2 2 2 2 2 2 2 2 2 2 2 2 2 2 2 2 2 2 2 2 2 2
left_child=1 2 4 9 6 16 7 33 14 23 -11 -10 -13 35 -9 -16 26 22 34 -20 42 29 -18 -4 -25 -3 32 -28 -29 -22 31 -2 -6 37 -19 -5 41 -1 39 -34 -41 -36 -12 -42 45 -8 -46 48 -48 -49 -14
right_child=30 25 3 13 5 -7 44 8 11 10 20 12 50 -15 15 -17 17 18 19 -21 21 -23 -24 24 -26 -27 27 28 -30 -31 -32 -33 38 -35 36 -37 -38 -39 -40 40 43 -43 -44 -45 46 -47 47 49 -50 -51 -52
leaf_value=0.13193035980828849 -2.8791907860090475 -2.6054525000256525 0.13193035980828863 -4.8866048832206044 -0.70449218069652919 -4.8866048832205884 -0.36992316449460072 -4.8866048832206044 0.13193035980828846 -3.9741439299426107 0.13193035980828816 -4.8866048832205964 0.13193035980828843 -1.959125991453746 -4.3847513589177032 -1.3019368524856783 -2.8791907860090404 -0.87177668879748793 -0.78053059346969023 -2.8791907860090395 -0.16327759566399902 -2.8791907860090404 -0.87177668879748771 0.13193035980828841 -2.3773372617061517 -4.4303744065816026 -2.3773372617061521 -1.2367610701086797 0.13193035980828841 -1.540914721201339 -4.8866048832205982 -4.8866048832205919 0.13193035980828841 -0.70449218069652675 -0.36992316449459911 -3.8828978346148157 -0.4953865455703223 -0.32430011683070159 0.13193035980828854 -0.78053059346969045 0.13193035980828824 0.13193035980828852 -0.36992316449459978 -0.36992316449459978 0.1319303598082886 0.13193035980828835 0.1319303598082886 0.13193035980828857 -0.78053059346969 0.13193035980828846 0.13193035980828818
leaf_weight=17.176326330751191 0.39852265268564113 0.43837491795420547 4.3837491795420629 0.63763624429702648 0.71734077483415237 0.55793171375989992 0.39852265268564113 0.6774885095655907 1.8332042023539545 0.4383749179542068 0.51807944849133525 0.63763624429702748 0.79704530537128426 0.47822718322277058 0.39852265268564224 0.55793171375989914 0.39852265268564213 0.5977839790284637 0.43837491795420636 0.39852265268564224 0.67748850956559159 0.39852265268564213 0.39852265268564224 0.67748850956559159 0.39852265268564224 0.43837491795420647 0.39852265268564213 0.43837491795420624 0.91660210117697716 0.47822718322277069 0.83689757063984871 0.43837491795420647 1.1158634275197985 0.47822718322276969 0.39852265268564302 0.39852265268564224 0.63763624429702748 0.43837491795420547 2.9889198951423168 0.43837491795420624 0.43837491795420647 1.7136474065482614 0.39852265268564224 0.39852265268564224 197.98605385422707 0.67748850956559181 0.55793171375989814 4.6627150364220142 0.43837491795420647 1.1158634275197981 0.39852265268564224
leaf_count=431 10 11 110 16 18 14 10 17 46 11 13 16 20 12 10 14 10 15 11 10 17 10 10 17 10 11 10 11 23 12 21 11 28 12 10 10 16 11 75 11 11 43 10 10 4968 17 14 117 11 28 10
internal_value=-0.0335245 -0.00462305 0.00757587 -0.981051 0.0478485 -0.614875 0.0865611 -0.286993 -1.6038 -0.489412 -1.31176 -0.740858 -1.61365 -3.698 -3.54017 -2.58644 -0.429148 -0.751332 -0.537208 -1.77989 -0.839399 -1.28355 -1.87548 -0.0512279 -0.797428 -3.51791 -0.224717 -0.780531 -0.310882 -0.733334 -4.40865 -3.93069 -0.0648749 0.0987682 -0.226536 -4.50056 -0.0862668 0.120576 0.0204074 -0.118996 -0.338557 0.037241 -0.0862668 -0.107048 0.129015 -0.0539413 0.129977 0.0728888 -0.269552 0.13193 0.13193
internal_weight=255.054 253.381 252.504 9.88336 242.621 13.3904 229.23 23.3933 5.30035 8.36898 2.90922 3.66641 1.8332 1.51439 1.63394 0.956454 12.8324 4.98153 4.18449 0.836898 2.47084 1.55424 0.797045 5.45976 1.07601 0.87675 7.8509 1.7535 1.35498 1.15572 1.6738 0.836898 6.0974 18.0929 3.34759 1.03616 2.74981 17.6147 5.38006 2.39114 1.27527 2.11217 0.916602 0.836898 205.837 1.07601 204.761 6.77489 0.996307 5.77858 1.19557
internal_count=6400 6358 6336 248 6088 336 5752 587 133 210 73 92 46 38 41 24 322 125 105 21 62 39 20 137 27 22 197 44 34 29 42 21 153 454 84 26 69 442 135 60 32 53 23 21 5165 27 5138 170 25 145 30
is_linear=0
shrinkage=1


Tree=2
num_leaves=26
num_cat=0
split_feature=4 5 5 1 5 4 1 5 5 4 2 0 1 1 1 1 1 1 1 1 4 4 0 4 2
split_gain=308.964 1560.86 159.894 106.137 86.3321 508.399 46.4428 36.1849 14.3078 243.272 9.29879 7.10543e-15 3.55271e-15 1.77636e-15 1.77636e-15 1.77636e-15 8.88178e-16 8.88178e-16 8.88178e-16 8.88178e-16 8.88178e-16 8.88178e-16 1.11022e-16 1.11022e-16 2.77556e-17
threshold=55.250000000000007 186.50000000000003 201.50000000000003 300.65000915527349 217.50000000000003 49.750000000000007 298.94999694824224 176.50000000000003 206.50000000000003 50.95000076293946 311.84999084472662 1.5000000000000002 301.34999084472662 303.55000305175787 303.44999694824224 303.05000305175787 304.15000915527349 304.05000305175787 303.94999694824224 303.55000305175787 53.850000381469734 52.750000000000007 1.0000000180025095e-35 35.649999618530281 311.75000000000006
decision_type=2 2 2 2 2 2 2 2 2 2 2 2 2 2 2 2 2 2 2 2 2 2 2 2 2
left_child=4 7 6 -4 8 10 -3 -2 11 -10 22 12 -1 14 15 -13 17 18 19 20 21 -14 -6 -21 -17
right_child=1 2 3 -5 5 -7 -8 -9 9 -11 -12 13 16 -15 -16 24 -18 -19 -20 23 -22 -23 -24 -25 -26
leaf_value=-5.0132901064393023 -5.0132901064393023 0.14702485419058142 13.199586225195606 5.3073398148204545 -5.0132901064393023 8.2560912208946853 5.3073398148204829 -1.2603337714357528 -5.0132901064393023 5.3073398148204491 -2.9491641221873532 -5.0132901064393023 -5.0132901064393023 -5.0132901064393014 -5.0132901064393005 -5.0132901064392996 -5.0132901064393005 -5.0132901064393005 -5.0132901064392996 -5.0132901064393014 -5.0132901064393005 -5.0132901064392996 -5.0132901064393014 -5.0132901064393014 -5.0132901064393014
leaf_weight=28.690109252929688 2.8680419921875 0.11627197265624989 0.1647186279296875 0.11627197265625 0.09689331054687389 0.135650634765625 0.174407958984375 0.10658264160156239 1.5987396240234364 0.096893310546874889 0.096893310546875 15.522308349609371 8.0809020996093626 0.83328247070312578 0.16471862792968828 0.11627197265625078 0.22285461425781328 0.19378662109375078 0.13565063476562578 0.38757324218750067 0.19378662109375078 0.13565063476562578 0.7848358154296875 0.7848358154296875 0.19378662109375
leaf_count=2961 296 12 17 12 10 14 18 11 165 10 10 1602 834 86 17 12 23 20 14 40 20 14 81 81 20
internal_value=-4.85203 -3.0394 6.53182 9.93383 -4.96198 -3.2184 3.24321 -4.87882 -4.99585 -4.42354 -4.80892 -5.01329 -5.01329 -5.01329 -5.01329 -5.01329 -5.01329 -5.01329 -5.01329 -5.01329 -5.01329 -5.01329 -5.01329 -5.01329 -5.01329
internal_weight=62.0117 3.5463 0.571671 0.280991 58.4654 1.11427 0.29068 2.97462 57.3512 1.69563 0.978622 55.6555 38.8251 16.8304 15.9971 15.8324 10.135 9.91219 9.7184 9.58275 8.41034 8.21655 0.881729 1.17241 0.310059
internal_count=6400 366 59 29 6034 115 30 307 5919 175 101 5744 4007 1737 1651 1634 1046 1023 1003 989 868 848 91 121 32
is_linear=0
shrinkage=1


Tree=3
num_leaves=15
num_cat=0
split_feature=4 3 3 4 3 3 4 1 3 4 2 3 1 1
split_gain=1401.34 1025.86 216.365 109.837 503.616 85.5472 101.231 73.4202 64.7878 12.2297 9.98346 1.42109e-14 1.11022e-16 2.77556e-17
threshold=65.200000762939467 2460.5000000000005 1287.5000000000002 58.850000381469734 1401.5000000000002 1367.5000000000002 60.750000000000007 300.65000915527349 2637.5000000000005 15.84999990463257 310.44999694824224 1409.5000000000002 300.94999694824224 302.55000305175787
decision_type=2 2 2 2 2 2 2 2 2 2 2 2 2 2
left_child=1 3 -2 9 5 12 -7 -4 -3 10 -1 -11 -5 -14
right_child=2 8 7 4 -6 6 -8 -9 -10 11 -12 -13 13 -15
leaf_value=-2.6379941117040882 0.70262499413873414 4.8530911559434546 12.951561715562288 -4.8650735155993035 8.4974029077719013 -4.8650735155993026 3.2333970440195969 6.5884777044331599 11.331867603638496 -4.8650735155993035 -4.8650735155993026 -4.8650735155993035 -4.8650735155993026 -4.8650735155993026
leaf_weight=0.17960742115974326 0.17960742115974326 0.12348010204732318 0.1347055658698082 0.97661535255610832 0.13470556586980809 0.12348010204732407 0.12348010204732418 0.15715649351477623 0.12348010204732418 12.819479685276745 0.14593102969229221 56.250799214467406 0.22450927644968033 0.14593102969229221
leaf_count=16 16 11 12 87 12 11 11 14 11 1142 13 5011 20 13
internal_value=-4.70361 -4.7754 6.16427 -4.82008 -3.24538 -4.23773 -0.815838 9.52529 8.09248 -4.85931 -3.63634 -4.86507 -4.86507 -4.86507
internal_weight=71.843 71.3715 0.471469 71.1245 1.72872 1.59402 0.24696 0.291862 0.24696 69.3958 0.325538 69.0703 1.34706 0.37044
internal_count=6400 6358 42 6336 154 142 22 26 22 6182 29 6153 120 33
is_linear=0
shrinkage=1


Tree=4
num_leaves=25
num_cat=0
split_feature=5 5 5 4 3 4 5 3 3 2 2 2 4 5 5 0 5 2 0 1 1 3 2 1
split_gain=330.255 91.4698 194.853 55.0495 103.15 55.5523 81.891 190.072 91.3129 99.2207 85.5513 33.1635 15.0559 12.2479 10.6605 31.9806 1.20495 14.3546 3.55271e-15 4.44089e-16 4.44089e-16 1.11022e-16 5.55112e-17 1.38778e-17
threshold=204.50000000000003 231.50000000000003 235.50000000000003 46.95000076293946 1405.5000000000002 41.350000381469734 215.50000000000003 1627.5000000000002 1572.5000000000002 310.84999084472662 309.15000915527349 309.05000305175787 60.45000076293946 226.50000000000003 202.50000000000003 1.5000000000000002 197.50000000000003 308.15000915527349 1.0000000180025095e-35 303.94999694824224 297.25000000000006 1725.5000000000002 310.94999694824224 301.44999694824224
decision_type=2 2 2 2 2 2 2 2 2 2 2 2 2 2 2 2 2 2 2 2 2 2 2 2
left_child=14 3 -3 4 -2 6 8 10 9 11 -8 -6 22 23 16 -16 18 -18 19 20 -1 -19 -5 -12
right_child=1 2 -4 12 5 -7 7 -9 -10 -11 13 -13 -14 -15 15 -17 17 21 -20 -21 -22 -23 -24 -25
leaf_value=-5.5236094211211988 4.2747009175663653 10.064611572245251 -5.523609421121197 -5.5236094211211988 -0.24759616182791966 -5.5236094211211988 3.829323174898656 8.1940250530413117 -5.5236094211211988 4.0025256303805623 -5.523609421121197 -5.5236094211211979 -2.0942008025805894 -2.0942008025805894 -5.5236094211211988 -1.2368486479454113 -2.4059652224478665 -5.5236094211211988 -5.5236094211211988 -5.523609421121197 -5.5236094211211988 -5.5236094211211979 -5.5236094211211979 -5.5236094211211961
leaf_weight=0.27409974019974459 0.081646731123327654 0.064151003025472053 0.064151003025472164 0.32075501512736071 0.075814821757375972 0.28576355893164862 0.064151003025472164 0.087478640489280224 0.41989747434854507 0.10497436858713627 0.087478640489280224 0.12830200605094433 0.058319093659520149 0.058319093659520149 0.2740997401997437 0.093310549855232239 0.064151003025471165 0.64151003025472164 30.635019899345934 0.069982912391424068 3.108407692052424 0.10497436858713627 0.099142459221184254 0.058319093659520149
leaf_count=47 14 11 11 55 13 49 11 15 72 18 15 22 10 10 47 16 11 110 5253 12 533 18 17 10
internal_value=-5.36286 -2.90055 2.2705 -3.24424 -2.63134 -3.04276 -2.3892 0.0983719 -3.60314 -0.994202 -2.54151 -3.56395 -5.10539 -4.54378 -5.5066 -4.43491 -5.51788 -5.27689 -5.52361 -5.52361 -5.52361 -5.52361 -5.52361 -5.52361
internal_weight=37.3242 2.05866 0.128302 1.93036 1.45215 1.3705 1.08474 0.355746 0.728989 0.309091 0.268268 0.204117 0.478217 0.204117 35.2656 0.36741 34.8981 0.810635 34.0875 3.45249 3.38251 0.746484 0.419897 0.145798
internal_count=6400 353 22 331 249 235 186 61 125 53 46 35 82 35 6047 63 5984 139 5845 592 580 128 72 25
is_linear=0
shrinkage=1


Tree=5
num_leaves=63
num_cat=0
split_feature=1 3 1 4 2 3 5 3 1 2 2 3 2 4 4 4 3 4 3 5 4 5 1 2 3 2 1 5 2 4 4 3 1 4 5 3 3 1 3 1 1 0 5 0 4 5 2 1 3 3 3 1 5 5 5 5 4 1 5 3 2 3
split_gain=1.39552 9.78574 18.1071 18.9975 44.0866 4.75544 7.07114 0.74668 1.30725 5.19936 0.604307 0.0887824 0.122083 0.0479327 0.00653148 0.00446023 0.00430051 0.00398139 0.00347661 0.00115834 0.000901798 0.00086163 0.000764868 0.000668121 0.000458477 0.00108215 0.000401498 0.000240154 0.000139676 8.55329e-05 9.31094e-05 7.79383e-05 0.000384031 0.000168822 2.83212e-05 2.27537e-05 2.06948e-05 8.0919e-06 7.83938e-06 7.6098e-06 6.20942e-06 4.63819e-06 4.84314e-06 2.77289e-06 2.7353e-06 2.30501e-06 8.22463e-06 6.52003e-06 1.7725e-06 2.00271e-06 1.7377e-06 1.6681e-06 1.46444e-06 1.01036e-06 1.94394e-06 8.72183e-07 8.4288e-07 8.47159e-07 6.95456e-07 4.80825e-07 2.28505e-07 2.5421e-07
threshold=302.05000305175787 1351.5000000000002 302.44999694824224 57.549999237060554 311.05000305175787 1332.5000000000002 134.50000000000003 1342.5000000000002 300.75000000000006 310.15000915527349 312.05000305175787 1365.5000000000002 311.44999694824224 62.95000076293946 48.149999618530281 57.95000076293946 1455.5000000000002 57.250000000000007 1320.5000000000002 204.50000000000003 47.649999618530281 222.50000000000003 301.75000000000006 312.34999084472662 1376.5000000000002 311.75000000000006 301.75000000000006 242.50000000000003 308.55000305175787 62.250000000000007 50.850000381469734 1380.5000000000002 301.44999694824224 47.850000381469734 204.50000000000003 1495.5000000000002 1287.5000000000002 301.65000915527349 1349.5000000000002 297.05000305175787 300.65000915527349 1.0000000180025095e-35 217.50000000000003 1.0000000180025095e-35 44.850000381469734 197.50000000000003 308.44999694824224 298.05000305175787 1576.5000000000002 1445.5000000000002 1362.5000000000002 298.25000000000006 198.50000000000003 209.50000000000003 207.50000000000003 197.50000000000003 15.84999990463257 298.84999084472662 225.50000000000003 1339.5000000000002 310.55000305175787 1619.5000000000002
decision_type=2 2 2 2 2 2 2 2 2 2 2 2 2 2 2 2 2 2 2 2 2 2 2 2 2 2 2 2 2 2 2 2 2 2 2 2 2 2 2 2 2 2 2 2 2 2 2 2 2 2 2 2 2 2 2 2 2 2 2 2 2 2
left_child=7 2 3 4 -2 10 -7 8 40 -10 18 12 -3 15 -11 19 23 24 -4 31 22 26 39 28 25 -13 43 34 -17 30 -16 32 55 -34 -26 -36 -12 -32 -30 -21 52 -41 53 -22 48 56 47 -47 49 -44 -35 -45 -1 54 -43 -9 57 -33 -37 -54 -55 -62
right_child=1 11 5 -5 -6 6 -8 13 9 14 36 17 -14 -15 29 16 -18 -19 -20 20 21 -23 -24 -25 27 -27 -28 -29 38 -31 37 45 33 50 35 58 -38 -39 -40 41 -42 42 44 51 -46 46 -48 -49 -50 -51 -52 -53 59 60 -56 -57 -58 -59 -60 -61 61 -63
leaf_value=-0.16132620904047082 -5.02860718354155 0.13240529142420945 0.16324768704310844 -0.52393772802019389 -0.16133890477014634 -2.3358941849411781 -0.12798493368695196 -0.16133661127133311 0.62715596966473852 -0.20043425728069192 -0.16611338907135359 -0.13133047520895144 -0.16132787015062625 -0.24252938602139162 -0.16764278192530957 -0.16949438125537988 -0.20178731354538476 -0.1812392613338816 0.19546309949766541 -0.16303451002378547 -0.16302761949073702 -0.18082669060195006 -0.17178175591422079 -0.18075300790864093 -0.16133950276568448 -0.16166659076189693 -0.17396588258761894 -0.17078837089832455 -0.16373287156453023 -0.16869414358091034 -0.16147699770797808 -0.16200339708143621 -0.17059152410156794 -0.16437071352483981 -0.16421940227680112 -0.16132058764822255 -0.16293756994967024 -0.16352306808130349 -0.16131644108259263 -0.16274988549217861 -0.16262806043218173 -0.16137342820477807 -0.16231052709014659 -0.16250730149225889 -0.16315217482283723 -0.16129761738434198 -0.16131933949190291 -0.16301105893101159 -0.16256813332490111 -0.16130585168201625 -0.16348786519822364 -0.16133547987379282 -0.16168375113495154 -0.16127493936141071 -0.16218314353958907 -0.1619365644155136 -0.16133890477014745 -0.16131257905997123 -0.16214437225226086 -0.16251126225285975 -0.16132946198133266 -0.1617672872635991
leaf_weight=2.2244553085775394 0.15406985939557571 0.098126208031770967 0.25864323528912769 0.3642007699502301 0.14402167499065399 0.091926333584979147 0.15731230164328736 2.8128398181870367 0.4688880446992697 0.29080282337963559 0.16041896503520547 0.068063690546520728 0.13373900501846947 0.29667122417438818 0.17590885981917381 0.14225962568941497 0.20525562038191403 0.41737716486386567 0.27803787028483384 0.27615066847566749 0.11391445063054551 0.25478615306138863 0.37954495556203927 0.12784666943480261 9.7033310303842715 0.15224718710715024 0.18458662927150726 0.11051063920172133 0.070135881927853916 0.19751920546264046 0.26743461188016227 0.15341254495271428 0.26940269916713067 0.19730217812684714 0.25251338985981497 0.18779446624375851 0.1680579296007636 0.10875831923704027 0.22919353318310876 0.23160307554644521 0.16592737181417749 0.24978684232337378 0.14744463068200264 0.07999991847954746 0.10982110444456339 0.13920829455157147 1.1217849180102346 0.24547825381159782 0.17067927310262121 0.1718848684159866 0.16273279747247216 0.12376546074762906 0.061125572048327359 0.3838348421588762 0.22581517430080567 0.10038333173724812 41.982318259775639 0.13219009882271848 0.052438778584303236 0.051963129181158862 0.11401160362584051 0.099200771906225782
leaf_count=230 11 8 14 11 14 12 14 274 6 3 6 11 15 8 7 11 3 12 7 18 5 5 14 2 953 15 2 3 5 12 26 16 5 8 11 32 14 9 38 16 15 30 11 14 5 15 111 11 20 21 12 24 17 45 16 9 4081 23 8 4 13 9
internal_value=-0.169666 -0.228798 -0.664797 -1.49301 -2.67701 -0.172583 -0.942325 -0.155919 -0.0728111 0.0742059 0.0491683 -0.159487 -0.0370189 -0.162369 -0.174992 -0.161907 -0.176967 -0.162082 0.179937 -0.161676 -0.165289 -0.171353 -0.163496 -0.168021 -0.161322 -0.152294 -0.166548 -0.161515 -0.164335 -0.165122 -0.163845 -0.161423 -0.162325 -0.166805 -0.161415 -0.162894 -0.164489 -0.162069 -0.161883 -0.162053 -0.161446 -0.161911 -0.161795 -0.162237 -0.16225 -0.16135 -0.161593 -0.162391 -0.162048 -0.16177 -0.163972 -0.161796 -0.161362 -0.16154 -0.161758 -0.161357 -0.161341 -0.161684 -0.1615 -0.162064 -0.161367 -0.161533
internal_weight=68.6709 12.9528 1.77669 0.662292 0.298092 1.1144 0.249239 55.718 4.01278 1.50931 0.865158 11.1761 0.231865 51.7052 1.04042 51.4086 0.774691 10.9443 0.536681 50.6339 3.31683 0.757053 2.55978 0.569436 10.5269 0.220311 0.502266 10.3066 0.441589 0.749621 0.552102 47.3171 3.54266 0.629438 10.1961 0.492747 0.328477 0.376193 0.299329 2.18023 2.50347 1.90408 1.67248 0.31768 0.59983 43.7744 1.50647 0.384687 0.490009 0.319329 0.360035 0.203765 2.33754 1.07265 0.475602 2.91322 42.2679 0.285603 0.240233 0.113089 0.597047 0.213212
internal_count=6400 1171 103 36 25 67 26 5229 329 63 41 1068 23 4900 57 4892 59 1045 21 4833 268 50 218 56 1033 26 45 1007 54 54 42 4565 308 25 1004 51 20 35 43 204 266 186 170 43 57 4257 137 26 52 32 20 38 251 113 46 283 4120 39 40 21 67 22
is_linear=0
shrinkage=0.2


Tree=6
num_leaves=63
num_cat=0
split_feature=5 3 5 2 4 0 1 4 5 1 5 4 5 2 3 4 3 3 3 4 0 4 2 2 5 5 2 3 1 2 4 1 2 5 4 5 3 3 3 1 1 1 4 4 2 2 0 1 5 2 5 5 2 4 4 5 0 5 4 5 1 2
split_gain=127.436 264.474 459.882 353.376 118.954 94.9494 52.1501 38.8439 74.6468 79.6622 36.4217 57.2424 33.79 61.4962 55.53 160.893 47.8055 26.9582 22.021 90.8413 18.3488 10.9742 39.6794 21.2357 6.82304 5.91457 15.4644 4.64549 31.3495 37.9963 10.27 4.63433 3.5586 1.9592 1.77107 1.06032 0.822065 0.8927 0.855175 0.700201 0.672286 1.9042 0.552779 0.44641 0.55017 0.26843 0.230907 0.330401 0.229823 0.139867 0.1277 0.125691 0.956659 1.30673 0.0906824 0.0362029 0.027862 0.0203596 0.00627694 0.00936686 0.00382321 0.00313664
threshold=214.50000000000003 1627.5000000000002 235.50000000000003 310.25000000000006 13.84999990463257 1.5000000000000002 298.25000000000006 56.95000076293946 186.50000000000003 298.15000915527349 215.50000000000003 40.149999618530281 204.50000000000003 310.84999084472662 1566.5000000000002 41.95000076293946 1395.5000000000002 1409.5000000000002 1369.5000000000002 59.149999618530281 1.5000000000000002 63.95000076293946 310.84999084472662 310.15000915527349 207.50000000000003 219.50000000000003 311.15000915527349 1351.5000000000002 301.94999694824224 311.05000305175787 54.250000000000007 300.65000915527349 310.84999084472662 26.500000000000004 15.84999990463257 178.50000000000003 1438.5000000000002 1455.5000000000002 1546.5000000000002 302.75000000000006 301.84999084472662 301.55000305175787 35.750000000000007 15.84999990463257 309.25000000000006 309.05000305175787 1.5000000000000002 300.75000000000006 144.50000000000003 310.84999084472662 188.50000000000003 197.50000000000003 308.44999694824224 37.45000076293946 62.95000076293946 202.50000000000003 1.5000000000000002 176.50000000000003 56.049999237060554 178.50000000000003 301.25000000000006 311.75000000000006
decision_type=2 2 2 2 2 2 2 2 2 2 2 2 2 2 2 2 2 2 2 2 2 2 2 2 2 2 2 2 2 2 2 2 2 2 2 2 2 2 2 2 2 2 2 2 2 2 2 2 2 2 2 2 2 2 2 2 2 2 2 2 2 2
left_child=4 6 3 -3 5 -1 10 12 18 -10 -2 -12 27 16 15 -15 24 20 21 33 -8 35 23 -23 -14 26 -19 28 40 32 -31 -27 -30 -20 -18 46 -36 -38 45 49 41 50 60 44 -29 -39 54 -48 -35 -33 -6 58 53 -53 57 -54 -57 61 -45 -60 -40 -9
right_child=1 2 -4 -5 7 -7 17 8 9 -11 11 -13 13 14 -16 -17 34 25 19 -21 -22 22 -24 -25 -26 31 -28 43 29 30 -32 39 -34 48 36 -37 37 38 42 -41 -42 -43 -44 51 -46 -47 47 -49 -50 -51 -52 52 55 -55 -56 56 -58 -59 59 -61 -62 -63
leaf_value=7.3943845674844937 0.63477061041451888 4.7080552295764511 0.18270000818944512 22.56809928436239 0.1640566601344513 0.1793843056044237 2.8893914380582282 0.16060760439178323 1.4862825348750768 6.8830318553442114 5.1676848265520041 1.4847571756704829 1.3512981846670846 5.9242670012342638 0.16304452765437602 0.73768436930036096 -0.21474835848756157 0.16635624148469041 0.78912033077414367 3.4505907177476041 0.75846768059345671 1.3306975336626483 -0.11194905218304048 4.8574497369911311 2.6510802015809034 0.49724054968327797 1.7856454409858875 0.17950846967887396 2.5085151485889381 0.16392831369745076 1.6316884876700382 -0.13248295832354112 3.8604034022247817 0.19123128797463629 0.39236457909327316 0.39093796074694021 -0.048741431206477552 0.29549198469072496 0.16610753673396611 0.18009377024397139 0.42220047728705573 -0.23396035791699366 -0.060871449733363336 0.16392952331963329 -0.046262180760524477 0.17664269148473774 0.16417492220624502 -0.021704886960325537 0.34459178373357391 -0.0060508489959365825 0.2491427732294747 0.18682356103030526 0.16365175348045533 -0.10353803356067873 0.2561576756241945 0.16480596805296072 0.20408087985286785 0.21067518912866029 0.16412385339065261 0.20276335698950626 0.18878105125906078 0.17563878917313733
leaf_weight=0.16595270390862893 0.49077471345661716 0.088012544600814979 0.23299423605203629 0.08924854997849252 6.028910566121338 0.13020000482021032 0.28971291010016553 1.9771855175020001 0.48056598525931171 0.14165826224759748 0.27050045098803821 0.4490218834184212 0.33274284557714295 0.36551447072997578 0.63449882948771108 0.69250202208604605 0.39867679774761011 0.65680796348897252 0.35382549443147615 0.47616878313594124 0.3656142191739491 0.15305749774425681 0.47309090802372111 0.12331528628423349 0.31398609486677742 1.3022609761198967 0.36813196980801877 0.81976735591888317 0.16317795929069212 0.64407076165298349 0.27088605302230917 0.641963693477692 0.14900761483409042 0.781285078980545 0.94444748860769312 0.90933161228895176 0.55959200672805298 3.1940122321248055 1.173736644908786 0.70868444202142189 0.37224124287240545 0.49049567116526294 0.55143816210329522 153.61404090094652 0.91211386770009995 0.99755576811730851 1.0240300726145504 0.61057191365398455 0.78217609785497189 0.76953951083123684 0.79907512851059426 1.1775327231734976 3.231777086853981 1.3093200363218782 0.59766627120552573 1.0097025111317637 2.5401352643966675 0.45102272927761067 0.63238772749900707 0.41605699062347412 0.39846197888255108 0.77219079638598476
leaf_count=18 7 7 2 19 203 7 18 70 11 33 11 13 8 16 22 15 2 17 4 23 5 15 11 10 14 19 11 7 14 32 12 12 6 18 18 5 7 15 31 10 3 7 8 5251 17 19 34 11 7 8 8 12 109 15 5 32 12 2 21 2 7 12
internal_value=0.246548 1.10269 6.02334 13.7003 0.217111 4.2224 0.782916 0.211036 0.592835 2.71493 1.96322 2.86933 0.190193 0.53765 1.64235 2.5295 0.326731 0.502963 0.453623 0.978172 1.70053 0.276581 1.00033 2.90431 1.98234 0.326501 0.747963 0.169181 0.309796 1.24855 0.59848 0.200284 3.15378 0.364134 0.196438 0.191052 0.217403 0.193368 0.214821 0.0178871 0.160007 0.146671 0.111423 0.161612 0.0606039 0.267207 0.157595 0.0947433 0.267955 -0.0635533 0.174014 0.162679 0.140057 0.0339491 0.184645 0.178967 0.19291 0.17129 0.164035 0.179457 0.171854 0.164829
internal_weight=202.264 6.72327 0.410255 0.177261 195.541 0.296153 6.31301 195.245 10.1071 0.622224 1.2103 0.719522 185.138 10.5572 1.69252 1.05802 8.86465 5.10272 9.48492 2.39346 0.655327 7.09146 0.749464 0.276373 0.646729 4.44739 1.02494 174.581 8.91786 1.22714 0.914957 3.42245 0.312186 1.91729 8.21792 6.342 7.81924 6.8748 6.3152 2.12019 7.69072 7.31848 2.12364 165.663 1.73188 4.19157 5.43267 1.6346 1.56346 1.4115 6.82799 163.931 9.26847 2.48685 3.79807 6.78161 3.54984 3.2004 154.662 1.04844 1.5722 2.74938
internal_count=6400 159 28 26 6241 25 131 6216 271 44 31 24 5945 182 53 31 129 100 227 52 23 175 36 25 22 77 28 5763 285 64 44 49 20 29 107 139 105 87 80 30 221 218 46 5478 24 34 134 45 25 20 211 5454 180 27 89 153 44 84 5274 23 38 82
is_linear=0
shrinkage=0.2


Tree=7
num_leaves=63
num_cat=0
split_feature=5 4 4 5 4 1 5 3 4 4 5 5 4 4 5 3 5 2 3 4 4 1 3 3 3 1 1 1 3 2 3 4 4 5 3 2 0 5 2 5 5 3 1 2 1 1 3 4 3 1 5 3 5 5 4 1 5 2 2 1 5 2
split_gain=29.0452 74.2349 212.285 677.271 43.7641 42.4454 140.329 126.337 9.28952 6.09162 2.25801 2.21115 1.41923 0.0352654 0.0260464 0.00197453 0.00171117 0.00121446 0.00114297 0.0021379 0.000443641 0.000318243 0.000302934 0.00107669 0.000253863 0.000132614 0.000257625 0.000127742 0.000181684 7.83094e-05 4.08243e-05 2.74332e-05 1.88845e-05 7.66498e-06 9.20445e-06 2.658e-06 2.29202e-06 2.41987e-06 9.95939e-07 1.46441e-06 1.49815e-06 9.78892e-07 4.14833e-06 9.39179e-06 2.55456e-06 1.28856e-06 8.11195e-07 7.72638e-07 1.06489e-06 6.79512e-07 1.06007e-06 4.48059e-07 4.07468e-07 6.18161e-07 2.59072e-07 2.80185e-07 2.41944e-07 1.40774e-07 1.23954e-07 1.01058e-07 7.91463e-08 7.48377e-08
threshold=186.50000000000003 50.149999618530281 52.149999618530281 205.50000000000003 60.149999618530281 300.65000915527349 207.50000000000003 1346.5000000000002 56.95000076293946 65.200000762939467 248.50000000000003 193.50000000000003 63.95000076293946 56.049999237060554 176.50000000000003 1403.5000000000002 217.50000000000003 312.25000000000006 1310.5000000000002 48.45000076293946 47.750000000000007 300.75000000000006 1405.5000000000002 1455.5000000000002 1339.5000000000002 301.75000000000006 302.05000305175787 301.25000000000006 1393.5000000000002 311.84999084472662 1380.5000000000002 62.250000000000007 40.350000381469734 204.50000000000003 1497.5000000000002 308.65000915527349 1.0000000180025095e-35 203.50000000000003 308.44999694824224 197.50000000000003 209.50000000000003 1380.5000000000002 301.55000305175787 311.05000305175787 301.84999084472662 301.84999084472662 1346.5000000000002 45.149999618530281 1576.5000000000002 298.05000305175787 205.50000000000003 1422.5000000000002 206.50000000000003 209.50000000000003 15.84999990463257 298.84999084472662 196.50000000000003 309.84999084472662 308.44999694824224 301.44999694824224 214.50000000000003 310.94999694824224
decision_type=2 2 2 2 2 2 2 2 2 2 2 2 2 2 2 2 2 2 2 2 2 2 2 2 2 2 2 2 2 2 2 2 2 2 2 2 2 2 2 2 2 2 2 2 2 2 2 2 2 2 2 2 2 2 2 2 2 2 2 2 2 2
left_child=9 10 3 56 5 8 7 -7 -4 12 16 -6 13 18 15 21 25 20 19 -1 29 30 -17 61 31 36 32 -26 -29 35 -15 -23 -27 -28 -35 -18 37 58 39 -38 49 42 -20 44 -44 -45 -40 48 51 50 -41 -37 -48 57 55 -43 -3 -54 -2 -50 -55 -24
right_child=1 2 4 -5 11 6 -8 -9 -10 -11 -12 -13 -14 14 -16 22 17 -19 41 -21 -22 24 23 -25 27 26 33 28 -30 -31 -32 -33 -34 34 -36 47 38 -39 46 40 -42 54 43 45 -46 -47 52 -49 59 -51 -52 -53 53 60 -56 -57 -58 -59 -60 -61 -62 -63
leaf_value=-0.18609350734675917 -0.16121707478383304 -0.16091518742349986 -0.27446093816854095 -21.694028891357505 0.14169504438876443 -14.406750357255099 -0.20262383749364121 -2.7101105732300081 -1.4535977291885758 1.0828070902987688 0.39697464562297391 -0.32064801133618553 0.22497884449664879 -0.16091349937106905 -0.20029481239238001 -0.18646342598780757 -0.16240004839741518 -0.17644985779225511 -0.16091492594304391 -0.16091367970488019 -0.17366571509148959 -0.16113983931030396 -0.16091513256901882 -0.18646342598780744 -0.17287855806964503 -0.16599108579511576 -0.16091068967582373 -0.16124117855135517 -0.17278845548427951 -0.16677674129362649 -0.16451049409236915 -0.16450245553803791 -0.16851953428411998 -0.16340867807539952 -0.16090028172743065 -0.16148883554963822 -0.16091518742350097 -0.1619423701803257 -0.16166577578357083 -0.16093061073447165 -0.16084365825269575 -0.161367606633774 -0.16200685604535336 -0.16202579736261052 -0.16353669782249389 -0.16091515032107659 -0.16091497676581529 -0.16205850675365091 -0.16161871536367456 -0.161983401920966 -0.16190737736961602 -0.16089812002362869 -0.16118159383287656 -0.16089691980738749 -0.16091518742350164 -0.16089794391156631 -0.16136950857129137 -0.16152298905662751 -0.16091518742350042 -0.16199067584761007 -0.16110250939980394 -0.16123249238422688
leaf_weight=0.20837178453803673 0.091446507722137915 0.12016902677714858 0.42083894921822229 0.083052831834720564 0.62089051275370355 0.069946998293744289 0.21127585535396065 0.078270420325907253 0.7323064565777031 0.15852003519890345 0.30075049400329579 1.2402818426377775 0.38071611193436083 0.75745858054142423 1.6380214039236305 0.15222884385673285 0.12950181397945904 0.59113103151321411 2.4592182189226146 0.3824106348697569 0.18178627919098744 0.16567735452736088 0.056553520746547292 0.15222884385673296 0.26458878628909588 0.25834592776664045 0.58463286410119508 0.1228744606391956 0.097949137911200523 0.14589176326990128 0.15144643016083137 0.23427688153537929 0.21774247288703918 0.12795212738205919 0.10782513754384127 0.068959365526097827 0.32516324892640147 0.24814595771022141 0.067015384553883783 0.08966572443023324 0.11353594534840283 0.10555295087598793 0.091681960970163234 0.046267492696642876 0.08335384926772349 0.43121222947479509 1.8603260477611914 0.05764932521310584 0.086310502593590854 0.15943944361060858 0.088123760186135769 0.20126741823756333 0.079592727590352186 0.26747370513476199 33.067688662558794 0.09796209148851176 0.076884886249899864 0.12293767303344794 0.13430655933916569 0.044168479449012921 0.10403395327102771 0.062645323019864918
leaf_count=5 11 17 28 16 8 13 5 13 10 30 1 19 8 111 9 2 14 6 348 59 4 25 10 2 4 16 85 19 2 3 19 11 5 9 27 8 46 20 9 13 21 16 6 3 30 75 269 6 17 11 7 31 10 41 4678 29 8 13 19 12 18 10
internal_value=-0.230049 -0.526963 -1.25505 -6.5457 -0.815795 -1.61481 -3.51228 -8.23001 -1.02327 -0.154623 -0.13888 -0.16641 -0.159382 -0.162966 -0.181168 -0.167041 -0.163468 -0.169383 -0.161068 -0.169795 -0.164821 -0.164142 -0.179322 -0.175317 -0.16684 -0.161703 -0.163447 -0.169915 -0.166363 -0.162629 -0.161513 -0.16311 -0.167147 -0.161299 -0.162262 -0.1616 -0.1611 -0.161511 -0.161041 -0.161239 -0.161472 -0.160927 -0.161034 -0.161482 -0.162735 -0.161023 -0.160979 -0.161374 -0.161275 -0.161684 -0.161415 -0.161049 -0.16096 -0.161108 -0.160917 -0.161142 -0.161092 -0.161389 -0.161037 -0.161745 -0.160954 -0.161082
internal_weight=51.8779 10.509 3.65392 0.280107 3.37381 1.51264 0.359493 0.148217 1.15315 41.3689 6.85512 1.86117 41.2104 40.8297 3.85595 2.21793 6.55437 1.50667 36.9737 0.590782 0.915535 1.79427 0.423657 0.271428 0.885367 5.04771 1.2965 0.485412 0.220824 0.733749 0.908905 0.399954 0.476088 0.82041 0.235777 0.587857 3.75121 0.473899 3.27731 0.775928 0.450765 36.3829 3.11173 0.652516 0.175036 0.47748 2.50138 0.458355 0.400706 0.337229 0.177789 0.270227 2.43436 0.574038 33.2712 0.203515 0.197054 0.20253 0.225753 0.130479 0.371508 0.119199
internal_count=6400 889 137 41 96 69 31 26 38 5511 752 27 5481 5473 224 215 751 101 5249 64 95 191 24 22 61 650 142 25 21 91 130 36 21 121 36 88 508 50 458 98 52 5185 462 114 36 78 360 74 68 31 20 39 351 82 4723 45 25 23 30 29 59 20
is_linear=0
shrinkage=0.2


Tree=8
num_leaves=63
num_cat=0
split_feature=4 0 4 3 1 2 5 5 5 3 4 5 4 2 3 5 4 3 4 3 1 5 5 1 4 5 3 1 2 1 1 4 1 1 5 3 5 2 1 0 4 3 1 2 1 1 3 4 5 3 5 3 5 1 5 3 4 3 3 1 5 2
split_gain=156.712 137.109 30.8031 71.206 60.4336 116.863 8.79884 38.3553 3.63542 12.961 6.37914 3.23415 1.95916 2.52586 0.0503371 0.0247986 0.00327463 0.00305315 0.00176101 0.00152664 0.00348117 0.000642515 0.000481402 0.000597039 0.000442557 0.000443534 0.000258119 0.00014946 0.000241509 0.000124338 2.88474e-05 6.94504e-06 6.36428e-06 4.3664e-06 3.4965e-06 5.33939e-06 2.38777e-06 2.71709e-06 3.15658e-06 1.91388e-06 1.93449e-06 1.44158e-06 6.36217e-06 1.46772e-05 3.7557e-06 1.98349e-06 1.34356e-06 1.26808e-06 9.35042e-07 1.17791e-06 9.23327e-07 8.89012e-07 7.67e-07 6.52066e-07 6.50373e-07 4.58645e-07 4.32703e-07 1.998e-07 1.26039e-07 1.0724e-07 3.96045e-08 3.22345e-08
threshold=13.84999990463257 1.5000000000000002 58.850000381469734 1369.5000000000002 300.55000305175787 308.84999084472662 65.500000000000014 56.500000000000007 186.50000000000003 1257.0000000000002 65.850002288818374 177.50000000000003 15.84999990463257 309.34999084472662 1275.5000000000002 198.50000000000003 57.250000000000007 1403.5000000000002 67.549999237060561 1310.5000000000002 301.84999084472662 205.50000000000003 100.50000000000001 301.55000305175787 46.250000000000007 222.50000000000003 1339.5000000000002 301.75000000000006 310.44999694824224 301.75000000000006 301.84999084472662 41.95000076293946 301.65000915527349 297.05000305175787 193.50000000000003 1367.5000000000002 204.50000000000003 308.44999694824224 298.05000305175787 1.0000000180025095e-35 45.149999618530281 1380.5000000000002 301.55000305175787 311.05000305175787 301.84999084472662 301.84999084472662 1497.5000000000002 49.549999237060554 215.50000000000003 1576.5000000000002 209.50000000000003 1445.5000000000002 225.50000000000003 302.25000000000006 207.50000000000003 1310.5000000000002 49.750000000000007 1387.5000000000002 1369.5000000000002 301.15000915527349 8.5000000000000018 308.84999084472662
decision_type=2 2 2 2 2 2 2 2 2 2 2 2 2 2 2 2 2 2 2 2 2 2 2 2 2 2 2 2 2 2 2 2 2 2 2 2 2 2 2 2 2 2 2 2 2 2 2 2 2 2 2 2 2 2 2 2 2 2 2 2 2 2
left_child=1 -1 12 6 5 -5 7 32 9 -8 15 14 13 -2 -11 -10 19 53 22 20 56 34 23 -16 27 29 30 33 -29 47 -24 52 55 -23 41 -36 37 38 -37 -35 48 42 -21 44 -44 -45 -38 -26 50 51 54 -50 -30 -18 -41 -4 -14 -39 -46 -51 -47 -52
right_child=2 -3 3 4 -6 -7 8 -9 10 11 -12 -13 16 -15 18 -17 17 -19 -20 21 -22 24 26 -25 25 -27 -28 28 31 -31 -32 -33 -34 39 35 36 46 57 -40 40 -42 -43 43 45 58 60 -48 -49 49 59 61 -53 -54 -55 -56 -57 -58 -59 -60 -61 -62 -63
leaf_value=-10.055377370525957 -0.17454389193113101 -0.17313319153903894 -0.16106143414132687 -1.6026366494388313 -1.1524807300253961 -10.865022202487056 -2.0026576816762973 -5.365955479259644 -0.67879875384734378 -0.052025122449365913 0.22816265014845036 -1.1148915319540651 -0.16151257894996252 0.33418801874246684 -0.14541802693086445 -0.59116757369360406 -0.16104088313111306 -0.18607128837060641 -0.18703481709295419 -0.16106022820170651 -0.19007180344488725 -0.1625101955845405 -0.16110567247538532 -0.16544919712143738 -0.16202437643577511 -0.17460744536370437 -0.17182657773558094 -0.17026002694031331 -0.16104900174868053 -0.16797449940582179 -0.16498331943497968 -0.16317019368419047 -0.16316779333914566 -0.16215578698790212 -0.16228166602171953 -0.16104568741018499 -0.16242530358423146 -0.16133359654553903 -0.16208477500380844 -0.16112998629268641 -0.16246514438911086 -0.1610625914754816 -0.1623321377913346 -0.16235420550884666 -0.1637476076845284 -0.16125619945292116 -0.16132664263217555 -0.1610552667694235 -0.16173447634782095 -0.16186183138416027 -0.16093608442652302 -0.16103761113397064 -0.16185822670713346 -0.16173248130901755 -0.16173036439372818 -0.16041230801521639 -0.16108069306414641 -0.16105325950682858 -0.1642199729835403 -0.16218324593710443 -0.16106232327486517 -0.16106137795521891
leaf_weight=0.1211413643944742 0.82750334590672625 0.10469085433425107 0.10647823333854756 0.13547728393859859 0.35724321920979385 0.09114360349573758 0.19864348393457509 0.074080087671234196 0.2361536199969122 0.1787806339561937 1.0270545468915768 0.15812336915405456 0.11959505826236139 0.73902574181556702 0.10900955705798765 0.28513956365497251 0.30458620630865496 0.41943907551467419 0.15666336246783885 3.1116910236887558 0.24261478704039519 0.2039641570590901 0.14287143805995584 0.13109474089981177 0.19836716756981321 0.27768886762453349 0.25080081738963145 0.23964345063410508 0.14935001096614542 0.24419062192180263 0.16579674230888486 0.12568011961917591 0.060437203112485349 0.16642112311092194 0.20722932484204593 0.21730823643638153 0.098662277683615573 0.10769978180906026 0.25319982971996069 0.12048668594798051 0.068569485214538761 39.893343075178564 0.10611705863834675 0.053550835698843002 0.03535562917761581 0.04602846980577624 0.081139506684849039 0.074214287172658544 0.13374751136871055 0.085213589263162248 0.11644577281549573 0.16182735218262678 0.068265586065194839 0.066422925381289133 0.17998596459801774 0.073657749820910112 0.41404161415994167 1.8236550427973268 0.062602438965086549 0.080985581502318382 0.49964813447166989 0.27874463917396497
leaf_count=18 9 7 15 11 12 11 14 6 6 9 8 4 12 17 15 14 48 10 8 381 13 15 17 9 17 9 10 7 32 9 6 9 7 14 19 28 7 12 18 19 5 4870 7 3 24 6 13 32 14 20 17 26 11 8 16 14 50 225 10 5 76 36
internal_value=-0.216141 -5.47419 -0.195178 -0.734693 -2.7731 -5.32783 -0.37993 -1.38672 -0.275727 -0.49854 -0.0610525 -0.267488 -0.154859 0.0654555 -0.149433 -0.630866 -0.161608 -0.174381 -0.167645 -0.161407 -0.170208 -0.16127 -0.163846 -0.156355 -0.16412 -0.168161 -0.167061 -0.162647 -0.165388 -0.164697 -0.163188 -0.161986 -0.161392 -0.161646 -0.161088 -0.161305 -0.161227 -0.161174 -0.161605 -0.161519 -0.161433 -0.161074 -0.16119 -0.161692 -0.163156 -0.161193 -0.16193 -0.161761 -0.161372 -0.161592 -0.161225 -0.161353 -0.161303 -0.161165 -0.16149 -0.160796 -0.161177 -0.161069 -0.164049 -0.162018 -0.161079 -0.161024
internal_weight=56.8687 0.225832 56.6429 3.93865 0.583864 0.226621 3.35479 0.314653 3.04013 1.49178 1.54835 1.29314 52.7043 1.56653 1.13502 0.521293 51.1377 0.790448 0.956237 50.3473 0.776251 49.571 0.799573 0.240104 2.97379 0.794461 0.559469 2.17933 0.582939 0.516772 0.308668 0.343296 0.240573 1.59639 46.5972 2.78889 2.58166 2.40186 0.470508 1.39243 1.22601 43.8083 3.91499 0.803303 0.204075 0.599227 0.179802 0.272581 1.15744 0.461774 0.695663 0.295575 0.217616 0.371009 0.300473 0.180136 0.533637 1.93135 0.0979581 0.166199 0.545677 0.39519
internal_count=6400 25 6375 196 34 22 162 42 120 92 28 78 6179 26 74 20 6153 66 65 6087 75 6012 57 24 313 67 33 246 59 58 23 52 36 187 5699 322 303 283 46 172 158 5377 507 126 41 85 20 49 153 65 88 40 43 56 35 29 62 237 34 25 82 53
is_linear=0
shrinkage=0.2


Tree=9
num_leaves=63
num_cat=0
split_feature=5 2 5 4 5 5 1 3 0 5 2 4 4 1 3 3 3 5 3 4 1 5 3 3 1 2 1 5 5 5 3 5 3 4 1 2 3 3 4 3 3 4 3 4 3 5 4 2 3 1 2 1 1 1 5 2 4 1 2 4 5 1
split_gain=336.567 442.29 163.36 245.57 668.413 563.065 140.92 55.6647 59.7138 40.8765 209.987 33.3814 60.6807 40.8159 52.9429 32.0308 54.3165 21.5217 8.05898 2.58314 16.9236 43.3772 1.58309 1.24131 0.971103 0.46679 2.82844 3.55869 0.0938309 0.0793536 0.198968 0.0114846 0.0100057 0.0129147 0.00436589 0.00534502 0.00104308 0.00102562 0.000418129 0.000430861 0.000250218 0.000412033 8.57141e-05 7.87574e-05 3.65057e-05 2.94194e-06 1.4704e-06 1.04706e-06 5.03353e-07 1.42856e-06 3.08823e-06 6.98569e-07 3.62503e-07 7.06662e-08 4.0806e-08 3.95173e-08 3.08622e-08 5.11103e-08 1.30874e-08 1.10549e-08 5.62556e-09 5.35299e-09
threshold=231.50000000000003 311.65000915527349 214.50000000000003 34.350000381469734 229.50000000000003 217.50000000000003 297.44999694824224 1397.5000000000002 1.5000000000000002 204.50000000000003 310.55000305175787 31.849999427795414 40.95000076293946 301.55000305175787 1417.5000000000002 1367.5000000000002 1395.5000000000002 217.50000000000003 1538.5000000000002 62.250000000000007 300.05000305175787 160.50000000000003 1570.5000000000002 1455.5000000000002 297.05000305175787 308.44999694824224 298.34999084472662 197.50000000000003 202.50000000000003 208.50000000000003 1525.5000000000002 197.50000000000003 1479.5000000000002 43.350000381469734 298.05000305175787 308.34999084472662 1434.5000000000002 1586.5000000000002 57.250000000000007 1403.5000000000002 1310.5000000000002 48.45000076293946 1376.5000000000002 35.850000381469734 1339.5000000000002 33.500000000000007 63.95000076293946 312.84999084472662 1380.5000000000002 301.55000305175787 310.94999694824224 301.84999084472662 301.84999084472662 300.84999084472662 197.50000000000003 311.05000305175787 15.84999990463257 298.84999084472662 311.05000305175787 17.10000038146973 8.5000000000000018 301.94999694824224
decision_type=2 2 2 2 2 2 2 2 2 2 2 2 2 2 2 2 2 2 2 2 2 2 2 2 2 2 2 2 2 2 2 2 2 2 2 2 2 2 2 2 2 2 2 2 2 2 2 2 2 2 2 2 2 2 2 2 2 2 2 2 2 2
left_child=2 -2 9 4 5 -4 -5 8 -8 19 15 -12 18 14 -14 -11 -17 -9 -13 25 21 -21 32 -18 -25 26 31 -28 38 30 -26 59 33 -19 -31 -36 -30 -33 40 42 41 -27 53 -38 46 -44 -22 55 49 54 51 -51 -52 -40 -42 -48 57 -50 -55 -1 -54 -53
right_child=1 -3 3 6 -6 -7 7 17 -10 10 11 12 13 -15 -16 16 23 22 -20 20 44 -23 -24 24 29 28 27 -29 36 34 -32 37 -34 -35 35 -37 43 -39 39 -41 48 -43 45 -45 -46 -47 47 -49 56 50 52 61 60 58 -56 -57 -58 -59 -60 -61 -62 -63
leaf_value=-0.1606796370931376 -26.513179329749342 -0.16359559550224714 -0.16012276947148341 -6.5518780249696764 -0.19111313793439016 -32.394372236391156 -8.8038950418938366 -1.6877648804400296 -0.16743595645638484 5.9570884363147485 -0.16060636546314611 -7.0743440062463057 -8.7110488498349525 -0.16270513630283467 -0.16068942063744504 -5.9726587737551391 0.11288743419909655 -0.060514211979161493 -5.1334238113802781 -0.16050651181996212 -0.16261107775283354 12.437366204311679 0.31007974105007263 -0.0093438254068872583 -0.39863905296915769 -0.17470546985958013 -0.16055121357411795 0.5890159226316134 -0.206672496277719 -0.26449452206507518 -0.22756205258482334 -0.17622293178197576 -0.17532371697739524 -0.16416637330266784 -0.26571932047363916 -0.23148157853115037 -0.19585379123274629 -0.18769612066570118 -0.16053994116226306 -0.17251090289665774 -0.16054739508502347 -0.160556526039386 -0.1667707265659692 -0.19848047780926664 -0.166735333630047 -0.1651519914025717 -0.16042358772581 -0.16242663902255838 -0.16082017915100277 -0.16119870863959249 -0.16121552270150707 -0.16215698649344001 -0.16064777231226141 -0.1606344632437148 -0.16075449087271432 -0.16087209748226555 -0.16054827765481705 -0.16054037806825872 -0.16077436207893722 -0.16054772808559248 -0.16054661207090101 -0.16205423909144767
leaf_weight=0.025599931092026629 0.045534947692430161 0.057858617214151309 0.033352730275510445 0.18113943561911616 0.17036984860897064 0.061915792606669129 0.06777671269042862 0.40297254074189659 0.060704868120637911 0.033124946573502956 0.081854093819856533 0.19412674009799957 0.067927378769465641 0.15935100759594434 0.050503006217695656 0.06614861618982093 0.46144563922098303 0.077101099304854648 0.15302254585549235 0.035112932168521627 0.14647225860409208 0.015875729906157154 0.40676613828691188 0.63415215835443239 0.62298000308583945 0.13324004504830611 0.52500239759683587 0.48964731395244598 0.67692123664528425 1.2326526278629897 0.48257776582613587 0.54891824908463316 0.71064833559285034 0.12775387975730457 0.30455558467656363 0.4546892698854208 0.66684262454509768 0.72104023303836584 0.26416232590431832 0.23417761235930357 1.2909157767880994 0.21545301093692615 0.067579871974885464 1.448220696300268 0.11631763307616438 0.13387782802885795 0.015992829934276642 0.022689815144985914 0.044397259787681942 0.05531330963270864 0.037392573431134224 0.049220563814856177 0.023914964859955035 0.040889798989383053 0.039213689291500375 0.015447990604002371 18.074109146371484 0.063411398339269454 0.077336590069251088 3.4920982551694806 0.27304390449813809 0.034497471771146593
leaf_count=10 16 6 9 15 1 19 18 16 5 12 18 12 9 16 11 7 20 12 13 23 12 9 7 7 9 5 123 5 12 10 24 17 21 14 2 24 19 9 69 17 305 56 3 19 10 18 15 2 8 7 4 6 6 16 8 7 4249 30 15 823 83 27
internal_value=-0.372912 -11.7681 -0.341421 -1.97414 -7.69325 -21.1094 -1.22755 -0.707273 -4.72335 -0.234451 -0.764079 -3.95843 -4.45587 -2.25271 -5.06487 -0.238089 -0.286271 -0.408189 -6.21879 -0.146531 0.38017 3.76194 -0.0182279 -0.196564 -0.23483 -0.153045 -0.102151 0.201173 -0.165379 -0.280995 -0.323964 -0.166434 -0.164098 -0.125155 -0.257146 -0.245215 -0.199839 -0.182737 -0.16083 -0.165263 -0.160652 -0.165963 -0.162356 -0.197652 -0.163916 -0.165695 -0.162282 -0.161391 -0.160559 -0.16066 -0.160958 -0.16175 -0.160629 -0.160597 -0.160554 -0.160644 -0.160549 -0.160656 -0.160726 -0.160549 -0.160555 -0.162115
internal_weight=37.5174 0.103394 37.414 2.3005 0.265638 0.0952685 2.03486 1.85372 0.128482 35.1135 4.99911 0.706785 0.624931 0.277781 0.11843 4.29233 4.2592 1.72524 0.347149 30.1143 0.367909 0.0509887 1.32227 4.19305 3.73161 29.7464 5.80231 1.01465 23.9441 3.09746 1.10556 4.78766 0.915503 0.204855 1.9919 0.759245 2.79198 1.26996 21.1521 0.818024 20.3341 0.348693 0.583846 2.11506 0.316921 0.201458 0.200603 0.0541306 19.9854 1.80351 0.473383 0.139031 0.334351 0.382389 1.33013 0.0314408 18.1819 0.107809 0.118226 3.5177 0.296959 0.083718
internal_count=6400 22 6378 137 29 28 108 93 23 6241 194 79 61 36 20 115 103 70 25 6047 78 32 54 96 76 5969 987 128 4982 69 33 859 47 26 36 26 50 26 4932 138 4794 61 121 38 46 21 36 24 4733 446 133 40 93 100 313 22 4287 38 31 833 89 33
is_linear=0
shrinkage=0.2


end of trees

feature_importances:
Column_1=96
Column_5=93
Column_3=88
Column_4=86
Column_2=62
Column_0=18

parameters:
[boosting: gbdt]
[objective: multiclass]
[metric: multi_logloss]
[tree_learner: serial]
[device_type: cpu]
[data_sample_strategy: bagging]
[data: ]
[valid: ]
[num_iterations: 10000]
[learning_rate: 0.2]
[num_leaves: 63]
[num_threads: 0]
[seed: 51]
[deterministic: 0]
[force_col_wise: 0]
[force_row_wise: 0]
[histogram_pool_size: -1]
[max_depth: -1]
[min_data_in_leaf: 10]
[min_sum_hessian_in_leaf: 0.001]
[bagging_fraction: 0.9]
[pos_bagging_fraction: 1]
[neg_bagging_fraction: 1]
[bagging_freq: 0]
[bagging_seed: 31600]
[bagging_by_query: 0]
[feature_fraction: 1]
[feature_fraction_bynode: 1]
[feature_fraction_seed: 17250]
[extra_trees: 0]
[extra_seed: 15452]
[early_stopping_round: 0]
[early_stopping_min_delta: 0]
[first_metric_only: 0]
[max_delta_step: 0]
[lambda_l1: 0]
[lambda_l2: 0]
[linear_lambda: 0]
[min_gain_to_split: 0]
[drop_rate: 0.1]
[max_drop: 50]
[skip_drop: 0.5]
[xgboost_dart_mode: 0]
[uniform_drop: 0]
[drop_seed: 14807]
[top_rate: 0.2]
[other_rate: 0.1]
[min_data_per_group: 100]
[max_cat_threshold: 32]
[cat_l2: 10]
[cat_smooth: 10]
[max_cat_to_onehot: 4]
[top_k: 20]
[monotone_constraints: ]
[monotone_constraints_method: basic]
[monotone_penalty: 0]
[feature_contri: ]
[forcedsplits_filename: ]
[refit_decay_rate: 0.9]
[cegb_tradeoff: 1]
[cegb_penalty_split: 0]
[cegb_penalty_feature_lazy: ]
[cegb_penalty_feature_coupled: ]
[path_smooth: 0]
[interaction_constraints: ]
[verbosity: -1]
[saved_feature_importance_type: 0]
[use_quantized_grad: 0]
[num_grad_quant_bins: 4]
[quant_train_renew_leaf: 0]
[stochastic_rounding: 1]
[linear_tree: 0]
[max_bin: 255]
[max_bin_by_feature: ]
[min_data_in_bin: 3]
[bin_construct_sample_cnt: 200000]
[data_random_seed: 205]
[is_enable_sparse: 1]
[enable_bundle: 1]
[use_missing: 1]
[zero_as_missing: 0]
[feature_pre_filter: 1]
[pre_partition: 0]
[two_round: 0]
[header: 0]
[label_column: ]
[weight_column: ]
[group_column: ]
[ignore_column: ]
[categorical_feature: ]
[forcedbins_filename: ]
[precise_float_parser: 0]
[parser_config_file: ]
[objective_seed: 10610]
[num_class: 5]
[is_unbalance: 0]
[scale_pos_weight: 1]
[sigmoid: 1]
[boost_from_average: 1]
[reg_sqrt: 0]
[alpha: 0.9]
[fair_c: 1]
[poisson_max_delta_step: 0.7]
[tweedie_variance_power: 1.5]
[lambdarank_truncation_level: 30]
[lambdarank_norm: 1]
[label_gain: ]
[lambdarank_position_bias_regularization: 0]
[eval_at: ]
[multi_error_top_k: 1]
[auc_mu_weights: ]
[num_machines: 1]
[local_listen_port: 12400]
[time_out: 120]
[machine_list_filename: ]
[machines: ]
[gpu_platform_id: -1]
[gpu_device_id: -1]
[gpu_use_dp: 0]
[num_gpu: 1]

end of parameters

pandas_categorical:null
