{"learner":{"attributes":{"best_iteration":"130","best_score":"0.04910685565268068"},"feature_names":[],"feature_types":[],"gradient_booster":{"model":{"cats":{"enc":[],"feature_segments":[],"sorted_idx":[]},"gbtree_model_param":{"num_parallel_tree":"1","num_trees":"905"},"iteration_indptr":[0,5,10,15,20,25,30,35,40,45,50,55,60,65,70,75,80,85,90,95,100,105,110,115,120,125,130,135,140,145,150,155,160,165,170,175,180,185,190,195,200,205,210,215,220,225,230,235,240,245,250,255,260,265,270,275,280,285,290,295,300,305,310,315,320,325,330,335,340,345,350,355,360,365,370,375,380,385,390,395,400,405,410,415,420,425,430,435,440,445,450,455,460,465,470,475,480,485,490,495,500,505,510,515,520,525,530,535,540,545,550,555,560,565,570,575,580,585,590,595,600,605,610,615,620,625,630,635,640,645,650,655,660,665,670,675,680,685,690,695,700,705,710,715,720,725,730,735,740,745,750,755,760,765,770,775,780,785,790,795,800,805,810,815,820,825,830,835,840,845,850,855,860,865,870,875,880,885,890,895,900,905],"tree_info":[0,1,2,3,4,0,1,2,3,4,0,1,2,3,4,0,1,2,3,4,0,1,2,3,4,0,1,2,3,4,0,1,2,3,4,0,1,2,3,4,0,1,2,3,4,0,1,2,3,4,0,1,2,3,4,0,1,2,3,4,0,1,2,3,4,0,1,2,3,4,0,1,2,3,4,0,1,2,3,4,0,1,2,3,4,0,1,2,3,4,0,1,2,3,4,0,1,2,3,4,0,1,2,3,4,0,1,2,3,4,0,1,2,3,4,0,1,2,3,4,0,1,2,3,4,0,1,2,3,4,0,1,2,3,4,0,1,2,3,4,0,1,2,3,4,0,1,2,3,4,0,1,2,3,4,0,1,2,3,4,0,1,2,3,4,0,1,2,3,4,0,1,2,3,4,0,1,2,3,4,0,1,2,3,4,0,1,2,3,4,0,1,2,3,4,0,1,2,3,4,0,1,2,3,4,0,1,2,3,4,0,1,2,3,4,0,1,2,3,4,0,1,2,3,4,0,1,2,3,4,0,1,2,3,4,0,1,2,3,4,0,1,2,3,4,0,1,2,3,4,0,1,2,3,4,0,1,2,3,4,0,1,2,3,4,0,1,2,3,4,0,1,2,3,4,0,1,2,3,4,0,1,2,3,4,0,1,2,3,4,0,1,2,3,4,0,1,2,3,4,0,1,2,3,4,0,1,2,3,4,0,1,2,3,4,0,1,2,3,4,0,1,2,3,4,0,1,2,3,4,0,1,2,3,4,0,1,2,3,4,0,1,2,3,4,0,1,2,3,4,0,1,2,3,4,0,1,2,3,4,0,1,2,3,4,0,1,2,3,4,0,1,2,3,4,0,1,2,3,4,0,1,2,3,4,0,1,2,3,4,0,1,2,3,4,0,1,2,3,4,0,1,2,3,4,0,1,2,3,4,0,1,2,3,4,0,1,2,3,4,0,1,2,3,4,0,1,2,3,4,0,1,2,3,4,0,1,2,3,4,0,1,2,3,4,0,1,2,3,4,0,1,2,3,4,0,1,2,3,4,0,1,2,3,4,0,1,2,3,4,0,1,2,3,4,0,1,2,3,4,0,1,2,3,4,0,1,2,3,4,0,1,2,3,4,0,1,2,3,4,0,1,2,3,4,0,1,2,3,4,0,1,2,3,4,0,1,2,3,4,0,1,2,3,4,0,1,2,3,4,0,1,2,3,4,0,1,2,3,4,0,1,2,3,4,0,1,2,3,4,0,1,2,3,4,0,1,2,3,4,0,1,2,3,4,0,1,2,3,4,0,1,2,3,4,0,1,2,3,4,0,1,2,3,4,0,1,2,3,4,0,1,2,3,4,0,1,2,3,4,0,1,2,3,4,0,1,2,3,4,0,1,2,3,4,0,1,2,3,4,0,1,2,3,4,0,1,2,3,4,0,1,2,3,4,0,1,2,3,4,0,1,2,3,4,0,1,2,3,4,0,1,2,3,4,0,1,2,3,4,0,1,2,3,4,0,1,2,3,4,0,1,2,3,4,0,1,2,3,4,0,1,2,3,4,0,1,2,3,4,0,1,2,3,4,0,1,2,3,4,0,1,2,3,4,0,1,2,3,4,0,1,2,3,4,0,1,2,3,4,0,1,2,3,4,0,1,2,3,4,0,1,2,3,4,0,1,2,3,4,0,1,2,3,4,0,1,2,3,4,0,1,2,3,4,0,1,2,3,4,0,1,2,3,4,0,1,2,3,4,0,1,2,3,4,0,1,2,3,4,0,1,2,3,4,0,1,2,3,4,0,1,2,3,4,0,1,2,3,4,0,1,2,3,4,0,1,2,3,4,0,1,2,3,4,0,1,2,3,4,0,1,2,3,4,0,1,2,3,4,0,1,2,3,4,0,1,2,3,4,0,1,2,3,4,0,1,2,3,4,0,1,2,3,4,0,1,2,3,4,0,1,2,3,4,0,1,2,3,4,0,1,2,3,4,0,1,2,3,4,0,1,2,3,4,0,1,2,3,4,0,1,2,3,4,0,1,2,3,4,0,1,2,3,4],"trees":[{"base_weights":[-4.094547E-5,3.1409388E0,-2.5094671E-2,-3.4386852E-1,1.1658536E1,-2.3486769E-2,2.5577283E-2,7.976157E-1,3.874555E-2],"categories":[],"categories_nodes":[],"categories_segments":[],"categories_sizes":[],"default_left":[0,0,0,0,0,0,0,0,0],"id":0,"left_children":[1,3,-1,5,7,-1,-1,-1,-1],"loss_changes":[2.3376747E2,6.104321E2,0E0,1.9059241E0,2.6618384E2,0E0,0E0,0E0,0E0],"parents":[2147483647,0,0,1,1,3,3,4,4],"right_children":[2,4,-1,6,8,-1,-1,-1,-1],"split_conditions":[4.449807E0,3.016E2,-2.5094671E-2,6.15E1,3.119E2,-2.3486769E-2,2.5577283E-2,7.976157E-1,3.874555E-2],"split_indices":[10,0,0,3,1,0,0,0,0],"split_type":[0,0,0,0,0,0,0,0,0],"sum_hessian":[1.4630054E2,1.943054E1,1.2687E2,1.4470038E1,4.9605026E0,1.3007032E1,1.4630054E0,3.2231839E0,1.737319E0],"tree_param":{"num_deleted":"0","num_feature":"18","num_nodes":"9","size_leaf_vector":"1"}},{"base_weights":[5.982188E-5,1.0925104E-1,-5.211098E-1,-1.4927683E0,3.540585E-1,-3.0845582E-1,-5.1366563E0,-3.5030457E-1,4.0740472E-1,3.449107E-1,-5.239567E0,-4.52553E-1,-2.8226252E0,4.7196048E-1,-2.3711987E0,4.7321224E-1,-7.803757E-1,-9.379822E-1,-4.0436903E-1,-7.8180015E-1,-4.1195803E0,5.063325E-1,-2.2173907E-1,-1.4332719E0,-2.1191292E-1,2.5082706E-2,-1.1692107E-2,1.9106638E-3,-8.251671E-2,1.3447843E-2,-8.593732E-2,-7.114138E-2,1.61263E-2,-4.081243E-1,-2.8902767E-2,2.5620183E-2,-2.2659285E-2,-8.931391E-4,-8.593732E-2,-1.6793959E-3,-1.4555681E-1],"categories":[],"categories_nodes":[],"categories_segments":[],"categories_sizes":[],"default_left":[0,0,0,0,0,0,0,0,0,0,0,0,0,0,0,0,0,0,0,0,0,0,0,0,0,0,0,0,0,0,0,0,0,0,0,0,0,0,0,0,0],"id":1,"left_children":[1,3,-1,5,7,9,11,-1,13,15,17,-1,19,21,23,25,27,29,-1,31,33,35,37,39,-1,-1,-1,-1,-1,-1,-1,-1,-1,-1,-1,-1,-1,-1,-1,-1,-1],"loss_changes":[4.667396E2,1.5970932E2,0E0,2.3142468E2,1.4141058E2,1.3652219E2,9.3839294E1,0E0,6.41322E1,5.8352847E0,5.3098618E1,0E0,2.2550697E1,8.318146E0,8.183983E0,8.1325626E-1,3.0912974E0,3.3876858E0,0E0,4.010844E0,7.71671E1,2.1441498E0,5.1402807E0,1.4238631E1,0E0,0E0,0E0,0E0,0E0,0E0,0E0,0E0,0E0,0E0,0E0,0E0,0E0,0E0,0E0,0E0,0E0],"parents":[2147483647,0,0,1,1,3,3,4,4,5,5,6,6,8,8,9,9,10,10,12,12,13,13,14,14,15,15,16,16,17,17,19,19,20,20,21,21,22,22,23,23],"right_children":[2,4,-1,6,8,10,12,-1,14,16,18,-1,20,22,24,26,28,30,-1,32,34,36,38,40,-1,-1,-1,-1,-1,-1,-1,-1,-1,-1,-1,-1,-1,-1,-1,-1,-1],"split_conditions":[8.56314E4,1.381E3,-5.211098E-1,3.016E2,3.3782E4,1.94E2,3.108E2,-3.5030457E-1,2.16E2,6.07E1,5.26E1,-4.52553E-1,3.026E2,2.03E2,4.53E1,1.89E2,1.412E3,2.1E2,-4.0436903E-1,1E0,3.121E2,5.76E1,2.2067E-1,1.803E3,-2.1191292E-1,2.5082706E-2,-1.1692107E-2,1.9106638E-3,-8.251671E-2,1.3447843E-2,-8.593732E-2,-7.114138E-2,1.61263E-2,-4.081243E-1,-2.8902767E-2,2.5620183E-2,-2.2659285E-2,-8.931391E-4,-8.593732E-2,-1.6793959E-3,-1.4555681E-1],"split_indices":[8,2,0,0,8,4,1,0,4,3,3,0,0,4,3,4,5,4,0,17,1,3,9,5,0,0,0,0,0,0,0,0,0,0,0,0,0,0,0,0,0],"split_type":[0,0,0,0,0,0,0,0,0,0,0,0,0,0,0,0,0,0,0,0,0,0,0,0,0,0,0,0,0,0,0,0,0,0,0,0,0,0,0,0,0],"sum_hessian":[4.0813287E2,4.0488058E2,3.2523088E0,5.2993504E1,3.518871E2,4.081329E1,1.2180216E1,1.594269E0,3.5029282E2,3.68595E1,3.9537873E0,3.4436212E0,8.736594E0,3.4315048E2,7.1423254E0,3.3607193E1,3.2523088E0,2.1044352E0,1.8493521E0,4.017558E0,4.7190366E0,3.272078E2,1.5942691E1,5.930681E0,1.2116445E0,3.258686E1,1.0203322E0,2.168206E0,1.084103E0,1.084103E0,1.0203322E0,2.3595183E0,1.6580398E0,1.594269E0,3.1247673E0,3.2561353E2,1.594269E0,1.49223585E1,1.0203322E0,3.5711627E0,2.3595183E0],"tree_param":{"num_deleted":"0","num_feature":"18","num_nodes":"41","size_leaf_vector":"1"}},{"base_weights":[-6.2528816E-5,4.050983E0,-3.6649528E-1,-2.8385776E-1,7.3589456E-1,-2.4902677E-2,1.8893123E0,-2.087365E-2,1.2347008E-2,-1.9225566E-2,2.8693345E-1],"categories":[],"categories_nodes":[],"categories_segments":[],"categories_sizes":[],"default_left":[0,0,0,0,0,0,0,0,0,0,0],"id":2,"left_children":[1,3,5,7,-1,-1,9,-1,-1,-1,-1],"loss_changes":[1.4734796E2,3.849054E2,2.795535E1,5.878976E-1,0E0,0E0,4.793807E1,0E0,0E0,0E0,0E0],"parents":[2147483647,0,0,1,1,2,2,3,3,6,6],"right_children":[2,4,6,8,-1,-1,10,-1,-1,-1,-1],"split_conditions":[9.98E1,4.87E1,5.68E1,6.40976E4,7.3589456E-1,-2.4902677E-2,1.53E2,-2.087365E-2,1.2347008E-2,-1.9225566E-2,2.8693345E-1],"split_indices":[13,3,3,8,0,0,4,0,0,0,0],"split_type":[0,0,0,0,0,0,0,0,0,0,0],"sum_hessian":[9.726179E1,7.233845E0,9.002794E1,5.835707E0,1.3981382E0,8.580313E1,4.2248087E0,4.832695E0,1.0030122E0,3.2217968E0,1.0030122E0],"tree_param":{"num_deleted":"0","num_feature":"18","num_nodes":"11","size_leaf_vector":"1"}},{"base_weights":[-5.148676E-5,-3.3728203E-1,8.226865E-1,3.8622245E-1,-2.501354E-2],"categories":[],"categories_nodes":[],"categories_segments":[],"categories_sizes":[],"default_left":[0,0,0,0,0],"id":3,"left_children":[1,3,-1,-1,-1],"loss_changes":[6.5987714E2,1.569888E2,0E0,0E0,0E0],"parents":[2147483647,0,0,1,1],"right_children":[2,4,-1,-1,-1],"split_conditions":[8.40324E4,1.7E1,8.226865E-1,3.8622245E-1,-2.501354E-2],"split_indices":[8,3,0,0,0],"split_type":[0,0,0,0,0],"sum_hessian":[1.1692411E2,1.1553564E2,1.3884737E0,1.3702043E0,1.1416543E2],"tree_param":{"num_deleted":"0","num_feature":"18","num_nodes":"5","size_leaf_vector":"1"}},{"base_weights":[-1.0645868E-4,-4.7496027E-1,5.4935036E0,-2.4648702E-2,1.2413175E-2,2.3452287E0,3.783811E-1,3.1062106E-2,1.526758E-1],"categories":[],"categories_nodes":[],"categories_segments":[],"categories_sizes":[],"default_left":[0,0,0,0,0,0,0,0,0],"id":4,"left_children":[1,3,5,-1,-1,7,-1,-1,-1],"loss_changes":[1.5586699E2,8.3887386E-1,1.3293503E1,0E0,0E0,2.1778297E0,0E0,0E0,0E0],"parents":[2147483647,0,0,1,1,2,2,5,5],"right_children":[2,4,6,-1,-1,8,-1,-1,-1],"split_conditions":[2.03E2,7.247191E0,2.14E2,-2.4648702E-2,1.2413175E-2,3.004E2,3.783811E-1,3.1062106E-2,1.526758E-1],"split_indices":[4,6,4,0,0,0,0,0,0],"split_type":[0,0,0,0,0,0,0,0,0],"sum_hessian":[5.774958E1,5.3995857E1,3.7537227E0,5.2994263E1,1.0015943E0,2.3370533E0,1.4166694E0,1.2271786E0,1.1098747E0],"tree_param":{"num_deleted":"0","num_feature":"18","num_nodes":"9","size_leaf_vector":"1"}},{"base_weights":[-4.47523E-3,2.282995E0,-2.5075147E-2,-3.456375E-1,5.5001984E0,-2.3445744E-2,1.7861491E-2,4.493621E-1,3.4491894E0,-1.7414425E-2,4.599482E0,5.7468724E0,-1.4360738E-2,1.2925467E-1,3.8358366E-1],"categories":[],"categories_nodes":[],"categories_segments":[],"categories_sizes":[],"default_left":[0,0,0,0,0,0,0,0,0,0,0,0,0,0,0],"id":5,"left_children":[1,3,-1,5,7,-1,-1,-1,9,-1,11,13,-1,-1,-1],"loss_changes":[1.6990028E2,2.2748381E2,0E0,1.5210321E0,5.520813E1,0E0,0E0,0E0,4.184355E1,0E0,4.1689865E1,1.5652679E1,0E0,0E0,0E0],"parents":[2147483647,0,0,1,1,3,3,4,4,8,8,10,10,11,11],"right_children":[2,4,-1,6,8,-1,-1,-1,10,-1,12,14,-1,-1,-1],"split_conditions":[4.449807E0,3.016E2,-2.5075147E-2,6.15E1,3.106E2,-2.3445744E-2,1.7861491E-2,4.493621E-1,3.021E2,-1.7414425E-2,3.123E2,3.026E2,-1.4360738E-2,1.2925467E-1,3.8358366E-1],"split_indices":[10,0,0,3,1,0,0,0,0,0,1,0,0,0,0],"split_type":[0,0,0,0,0,0,0,0,0,0,0,0,0,0,0],"sum_hessian":[1.4742996E2,2.5674576E1,1.2175538E2,1.4620989E1,1.1053588E1,1.272243E1,1.8985591E0,2.8412106E0,8.212377E0,2.0713654E0,6.1410117E0,4.8307366E0,1.3102751E0,2.7146137E0,2.1161227E0],"tree_param":{"num_deleted":"0","num_feature":"18","num_nodes":"15","size_leaf_vector":"1"}},{"base_weights":[5.437333E-4,2.1588919E-1,-2.7639675E0,-2.575328E-1,2.6416185E-1,-5.378057E0,-1.6831574E0,3.3378088E-1,-2.3174534E0,-8.0194645E-2,-2.8753707E-1,-4.9448776E-1,-2.3659062E-1,-7.6474863E-1,4.7503966E-1,-1.2404917E0,-2.0438468E-1,3.9003313E-1,-2.0729175E0,2.920648E-1,-2.834889E0,5.113733E-1,-2.037898E-1,4.719807E-4,-1.2488097E-1,2.3509644E-2,-1.202961E-2,-1.9382757E-1,-7.8741103E-1,2.4852509E-2,-7.621392E-2,-1.883331E-1,-2.6019994E-2,-7.14942E-3,2.5728991E-2,-4.192805E-4,-7.9000235E-2,-3.5114408E-2,1.9085566E-2,1.594982E-2,-6.793442E-2],"categories":[],"categories_nodes":[],"categories_segments":[],"categories_sizes":[],"default_left":[0,0,0,0,0,0,0,0,0,0,0,0,0,0,0,0,0,0,0,0,0,0,0,0,0,0,0,0,0,0,0,0,0,0,0,0,0,0,0,0,0],"id":6,"left_children":[1,3,5,-1,7,9,11,13,15,-1,-1,17,-1,19,21,23,-1,25,27,29,31,33,35,37,-1,-1,-1,-1,39,-1,-1,-1,-1,-1,-1,-1,-1,-1,-1,-1,-1],"loss_changes":[2.440462E2,9.988288E1,7.464842E1,0E0,6.868815E1,2.3246765E0,7.888796E1,5.759607E1,1.4086437E1,0E0,0E0,2.4883265E1,0E0,9.360184E1,8.179718E0,1.1987491E1,0E0,7.143022E-1,1.1673052E1,1.154785E1,2.9149193E1,7.2628784E-1,4.6523037E0,1.5718528E0,0E0,0E0,0E0,0E0,3.5703917E0,0E0,0E0,0E0,0E0,0E0,0E0,0E0,0E0,0E0,0E0,0E0,0E0],"parents":[2147483647,0,0,1,1,2,2,4,4,5,5,6,6,7,7,8,8,11,11,13,13,14,14,15,15,17,17,18,18,19,19,20,20,21,21,22,22,23,23,28,28],"right_children":[2,4,6,-1,8,10,12,14,16,-1,-1,18,-1,20,22,24,-1,26,28,30,32,34,36,38,-1,-1,-1,-1,40,-1,-1,-1,-1,-1,-1,-1,-1,-1,-1,-1,-1],"split_conditions":[5.62E1,3.3782E4,1.7034091E0,-2.575328E-1,2.16E2,7.61286E4,8.56314E4,1.381E3,4.53E1,-8.0194645E-2,-2.8753707E-1,3.014E2,-2.3659062E-1,3.016E2,2.03E2,1.803E3,-2.0438468E-1,3.008E2,3.105E2,2E2,3.115E2,-1.736E2,2.2067E-1,3.089E2,-1.2488097E-1,2.3509644E-2,-1.202961E-2,-1.9382757E-1,3.021E2,2.4852509E-2,-7.621392E-2,-1.883331E-1,-2.6019994E-2,-7.14942E-3,2.5728991E-2,-4.192805E-4,-7.9000235E-2,-3.5114408E-2,1.9085566E-2,1.594982E-2,-6.793442E-2],"split_indices":[3,8,14,0,4,8,8,2,3,0,0,0,0,0,4,5,0,0,1,4,1,12,9,1,0,0,0,0,0,0,0,0,0,0,0,0,0,0,0,0,0],"split_type":[0,0,0,0,0,0,0,0,0,0,0,0,0,0,0,0,0,0,0,0,0,0,0,0,0,0,0,0,0,0,0,0,0,0,0,0,0,0,0,0,0],"sum_hessian":[4.079355E2,3.793105E2,2.8625011E1,2.439223E0,3.7687125E2,7.210197E0,2.1414814E1,3.6782278E2,9.048454E0,1.1246381E0,6.085559E0,1.6243628E1,5.171187E0,4.1406025E1,3.2641678E2,6.6832876E0,2.3651664E0,1.0892552E1,5.351074E0,2.7980701E1,1.3425324E1,3.1006744E2,1.634934E1,3.8663123E0,2.816975E0,9.889842E0,1.0027108E0,1.3880221E0,3.9630523E0,2.5795832E1,2.184871E0,9.124523E0,4.3008003E0,1.2994398E0,3.0876797E2,1.519758E1,1.1517607E0,1.0635996E0,2.8027127E0,1.4998547E0,2.4631977E0],"tree_param":{"num_deleted":"0","num_feature":"18","num_nodes":"41","size_leaf_vector":"1"}},{"base_weights":[2.0032483E-3,3.135516E0,-3.625582E-1,3.9589435E-1,4.8858204E-1,-2.4883548E-2,1.5212166E0,1.3829513E-1,-2.1650707E-2,2.8558186E-1,-2.034729E-2],"categories":[],"categories_nodes":[],"categories_segments":[],"categories_sizes":[],"default_left":[0,0,0,0,0,0,0,0,0,0,0],"id":7,"left_children":[1,3,5,7,-1,-1,9,-1,-1,-1,-1],"loss_changes":[1.1289316E2,1.8337613E2,2.3289982E1,1.7566021E1,0E0,0E0,5.2187607E1,0E0,0E0,0E0,0E0],"parents":[2147483647,0,0,1,1,2,2,3,3,6,6],"right_children":[2,4,6,8,-1,-1,10,-1,-1,-1,-1],"split_conditions":[9.98E1,5.2E1,5.68E1,1.3556561E0,4.8858204E-1,-2.4883548E-2,-1.089E2,1.3829513E-1,-2.1650707E-2,2.8558186E-1,-2.034729E-2],"split_indices":[13,3,3,14,0,0,12,0,0,0,0],"split_type":[0,0,0,0,0,0,0,0,0,0,0],"sum_hessian":[9.6829544E1,9.29922E0,8.753032E1,7.331982E0,1.967238E0,8.235898E1,5.1713424E0,1.2943596E0,6.037623E0,1.0112985E0,4.160044E0],"tree_param":{"num_deleted":"0","num_feature":"18","num_nodes":"11","size_leaf_vector":"1"}},{"base_weights":[-1.7823737E-4,-3.343704E-1,4.426456E-1,3.5673097E-1,-2.5006453E-2],"categories":[],"categories_nodes":[],"categories_segments":[],"categories_sizes":[],"default_left":[0,0,0,0,0],"id":8,"left_children":[1,3,-1,-1,-1],"loss_changes":[3.5169608E2,1.453826E2,0E0,0E0,0E0],"parents":[2147483647,0,0,1,1],"right_children":[2,4,-1,-1,-1],"split_conditions":[8.56314E4,1.59E1,4.426456E-1,3.5673097E-1,-2.5006453E-2],"split_indices":[8,3,0,0,0],"split_type":[0,0,0,0,0],"sum_hessian":[1.1687061E2,1.1354661E2,3.3239996E0,1.5524378E0,1.1199417E2],"tree_param":{"num_deleted":"0","num_feature":"18","num_nodes":"5","size_leaf_vector":"1"}},{"base_weights":[4.5857583E-3,-4.7403583E-1,4.323161E0,-2.4630522E-2,1.1942004E-2,3.1149805E-1,2.1682167E0,1.9475324E-2,1.6477923E-1],"categories":[],"categories_nodes":[],"categories_segments":[],"categories_sizes":[],"default_left":[0,0,0,0,0,0,0,0,0],"id":9,"left_children":[1,3,5,-1,-1,-1,7,-1,-1],"loss_changes":[1.2235356E2,8.2338715E-1,1.0759407E1,0E0,0E0,0E0,7.351654E0,0E0,0E0],"parents":[2147483647,0,0,1,1,2,2,6,6],"right_children":[2,4,6,-1,-1,-1,8,-1,-1],"split_conditions":[2.03E2,7.247191E0,-1.802E2,-2.4630522E-2,1.1942004E-2,3.1149805E-1,3.003E2,1.9475324E-2,1.6477923E-1],"split_indices":[4,6,12,0,0,0,0,0,0],"split_type":[0,0,0,0,0,0,0,0,0],"sum_hessian":[5.720336E1,5.229753E1,4.9058275E0,5.1270615E1,1.026919E0,1.5995026E0,3.3063252E0,1.8046036E0,1.5017216E0],"tree_param":{"num_deleted":"0","num_feature":"18","num_nodes":"9","size_leaf_vector":"1"}},{"base_weights":[-4.1153743E-3,1.8764033E0,-2.5056535E-2,-3.4605184E-1,3.8683069E0,-2.3408916E-2,2.8065407E-1,4.3325415E0,1.6286512E-3,3.5520963E-2,-1.3507768E-2,2.785343E0,2.8622648E-1,2.2207582E-1,5.751366E-2,-1.8117035E-2,3.5890516E-2],"categories":[],"categories_nodes":[],"categories_segments":[],"categories_sizes":[],"default_left":[0,0,0,0,0,0,0,0,0,0,0,0,0,0,0,0,0],"id":10,"left_children":[1,3,-1,5,7,-1,9,11,-1,-1,-1,13,-1,-1,15,-1,-1],"loss_changes":[1.392205E2,1.3918857E2,0E0,1.3281082E0,2.9246124E1,0E0,9.43557E-1,1.5744629E1,0E0,0E0,0E0,4.0025726E1,0E0,0E0,1.474753E0,0E0,0E0],"parents":[2147483647,0,0,1,1,3,3,4,4,6,6,7,7,11,11,14,14],"right_children":[2,4,-1,6,8,-1,10,12,-1,-1,-1,14,-1,-1,16,-1,-1],"split_conditions":[4.449807E0,3.016E2,-2.5056535E-2,6.15E1,3.121E2,-2.3408916E-2,8.56314E4,3.024E2,1.6286512E-3,3.5520963E-2,-1.3507768E-2,3.108E2,2.8622648E-1,2.2207582E-1,1.362E3,-1.8117035E-2,3.5890516E-2],"split_indices":[10,0,0,3,1,0,8,0,0,0,0,1,0,0,2,0,0],"split_type":[0,0,0,0,0,0,0,0,0,0,0,0,0,0,0,0,0],"sum_hessian":[1.4694916E2,3.0139042E1,1.1681012E2,1.4635658E1,1.5503383E1,1.2460441E1,2.1752179E0,1.3714065E1,1.789318E0,1.059094E0,1.1161239E0,7.9161863E0,5.7978787E0,4.5347414E0,3.381445E0,2.3429248E0,1.03852E0],"tree_param":{"num_deleted":"0","num_feature":"18","num_nodes":"17","size_leaf_vector":"1"}},{"base_weights":[-9.6766505E-4,2.617716E-1,-1.772722E0,3.1316507E-1,-1.9437991E-1,-1.2080275E0,-3.7128553E0,-2.3386858E0,3.6734498E-1,-5.8610266E-1,-3.3034317E0,-1.3439325E0,-2.1069029E-1,-1.2089251E0,-1.8964995E-1,-5.1529175E-1,4.597488E-1,3.9788458E-1,-2.0752006E0,-1.7593512E-1,-5.157221E-2,1.4655401E-2,-1.1772523E-1,-1.0154835E-1,1.6598875E-2,4.4211158E-1,-1.9041665E0,5.103134E-1,-2.6003957E-1,2.4472719E-2,-2.7113515E-1,-2.659014E0,1.8541096E-2,2.4454484E-2,-1.1275425E-2,-1.3443641E-1,-7.129331E-3,-8.404852E-3,2.568596E-2,1.2107125E-2,-2.941571E-2,1.4004657E-2,-3.6875453E-2,-1.5165266E-1,-5.0236094E-3],"categories":[],"categories_nodes":[],"categories_segments":[],"categories_sizes":[],"default_left":[0,0,0,0,0,0,0,0,0,0,0,0,0,0,0,0,0,0,0,0,0,0,0,0,0,0,0,0,0,0,0,0,0,0,0,0,0,0,0,0,0,0,0,0,0],"id":11,"left_children":[1,3,5,7,-1,9,11,13,15,17,19,21,-1,23,-1,25,27,29,31,-1,-1,-1,-1,-1,-1,33,35,37,39,-1,41,43,-1,-1,-1,-1,-1,-1,-1,-1,-1,-1,-1,-1,-1],"loss_changes":[1.8959367E2,7.685489E1,5.313945E1,5.1329124E1,0E0,5.3086784E1,7.836258E0,7.193287E0,2.8383354E1,5.0313347E1,9.914856E-1,6.404106E0,0E0,7.6441784E0,0E0,4.4957577E1,1.1521973E1,1.4299462E0,2.0405506E1,0E0,0E0,0E0,0E0,0E0,0E0,7.5169563E-1,1.8587322E1,7.626953E-1,3.637762E0,0E0,1.0273907E0,1.0318802E1,0E0,0E0,0E0,0E0,0E0,0E0,0E0,0E0,0E0,0E0,0E0,0E0,0E0],"parents":[2147483647,0,0,1,1,2,2,3,3,5,5,6,6,7,7,8,8,9,9,10,10,11,11,13,13,15,15,16,16,17,17,18,18,25,25,26,26,27,27,28,28,30,30,31,31],"right_children":[2,4,6,8,-1,10,12,14,16,18,20,22,-1,24,-1,26,28,30,32,-1,-1,-1,-1,-1,-1,34,36,38,40,-1,42,44,-1,-1,-1,-1,-1,-1,-1,-1,-1,-1,-1,-1,-1],"split_conditions":[5.35E1,2.568E3,1.89E2,7.91E1,-1.9437991E-1,8.56314E4,1E0,4.53E1,4.449807E0,3.014E2,2.3577235E0,5.92E1,-2.1069029E-1,5.98444E4,-1.8964995E-1,3.016E2,2.03E2,3.008E2,1.4324E3,-1.7593512E-1,-5.157221E-2,1.4655401E-2,-1.1772523E-1,-1.0154835E-1,1.6598875E-2,2.09E2,3.114E2,-1.736E2,3.096E2,2.4472719E-2,7.80276E4,3.121E2,1.8541096E-2,2.4454484E-2,-1.1275425E-2,-1.3443641E-1,-7.129331E-3,-8.404852E-3,2.568596E-2,1.2107125E-2,-2.941571E-2,1.4004657E-2,-3.6875453E-2,-1.5165266E-1,-5.0236094E-3],"split_indices":[3,5,4,13,0,8,16,3,10,0,6,3,0,8,0,0,4,0,11,0,0,0,0,0,0,4,1,12,1,0,8,1,0,0,0,0,0,0,0,0,0,0,0,0,0],"split_type":[0,0,0,0,0,0,0,0,0,0,0,0,0,0,0,0,0,0,0,0,0,0,0,0,0,0,0,0,0,0,0,0,0,0,0,0,0,0,0,0,0,0,0,0,0],"sum_hessian":[4.0528534E2,3.5368805E2,5.1597305E1,3.5027414E2,3.4139168E0,4.122192E1,1.0375384E1,6.1689305E0,3.441052E2,3.2774128E1,8.44779E0,2.4539192E0,7.9214654E0,4.5025015E0,1.666429E0,3.217687E1,3.119283E2,2.0175245E1,1.2598884E1,7.2153997E0,1.2323911E0,1.2076261E0,1.246293E0,2.728736E0,1.7737653E0,1.9450554E1,1.2726316E1,2.9172583E2,2.0202484E1,1.798237E1,2.1928754E0,1.010093E1,2.4979541E0,1.8421696E1,1.0288577E0,8.440723E0,4.2855935E0,1.2156838E0,2.9051016E2,8.089639E0,1.2112845E1,1.188068E0,1.0048072E0,8.650789E0,1.4501402E0],"tree_param":{"num_deleted":"0","num_feature":"18","num_nodes":"45","size_leaf_vector":"1"}},{"base_weights":[4.6326574E-3,-4.601426E-1,2.1011865E0,-2.4866274E-2,5.045558E-2,1.3360617E-1,6.48594E0,1.1790564E-1,-3.759249E-1,3.3573605E-2,3.9058164E-1,-2.2842074E-2,1.1728644E-2],"categories":[],"categories_nodes":[],"categories_segments":[],"categories_sizes":[],"default_left":[0,0,0,0,0,0,0,0,0,0,0,0,0],"id":12,"left_children":[1,3,5,-1,-1,7,9,-1,11,-1,-1,-1,-1],"loss_changes":[9.569217E1,4.893749E0,1.528685E2,0E0,0E0,1.5985334E1,3.713745E1,0E0,6.851846E-1,0E0,0E0,0E0,0E0],"parents":[2147483647,0,0,1,1,2,2,5,5,6,6,8,8],"right_children":[2,4,6,-1,-1,8,10,-1,12,-1,-1,-1,-1],"split_conditions":[1.89E2,2.418677E-1,5.26E1,-2.4866274E-2,5.045558E-2,1.3556561E0,1E0,1.1790564E-1,7.07505E4,3.3573605E-2,3.9058164E-1,-2.2842074E-2,1.1728644E-2],"split_indices":[4,9,3,0,0,14,16,0,8,0,0,0,0],"split_type":[0,0,0,0,0,0,0,0,0,0,0,0,0],"sum_hessian":[9.621137E1,7.939188E1,1.6819492E1,7.807746E1,1.3144165E0,1.2321093E1,4.4984007E0,1.6200937E0,1.0700998E1,1.1149133E0,3.3834872E0,9.67089E0,1.0301085E0],"tree_param":{"num_deleted":"0","num_feature":"18","num_nodes":"13","size_leaf_vector":"1"}},{"base_weights":[-2.6954082E-4,-3.2973933E-1,2.577101E-1,-2.499634E-2,3.4633186E-1],"categories":[],"categories_nodes":[],"categories_segments":[],"categories_sizes":[],"default_left":[0,0,0,0,0],"id":13,"left_children":[1,3,-1,-1,-1],"loss_changes":[2.0141934E2,1.4113213E2,0E0,0E0,0E0],"parents":[2147483647,0,0,1,1],"right_children":[2,4,-1,-1,-1],"split_conditions":[8.56314E4,2.568E3,2.577101E-1,-2.499634E-2,3.4633186E-1],"split_indices":[8,5,0,0,0],"split_type":[0,0,0,0,0],"sum_hessian":[1.16603806E2,1.1047816E2,6.125649E0,1.088562E2,1.6219541E0],"tree_param":{"num_deleted":"0","num_feature":"18","num_nodes":"5","size_leaf_vector":"1"}},{"base_weights":[1.013552E-2,-4.7297648E-1,3.5064518E0,1.2274613E-2,-2.4610749E-2,4.07073E0,2.8897716E-2,1.7214653E0,2.5985917E-1,1.2775862E-1,8.298962E-3],"categories":[],"categories_nodes":[],"categories_segments":[],"categories_sizes":[],"default_left":[0,0,0,0,0,0,0,0,0,0,0],"id":14,"left_children":[1,3,5,-1,-1,7,-1,9,-1,-1,-1],"loss_changes":[9.889027E1,8.320818E-1,9.391945E0,0E0,0E0,6.384918E0,0E0,3.949976E0,0E0,0E0,0E0],"parents":[2147483647,0,0,1,1,2,2,5,5,7,7],"right_children":[2,4,6,-1,-1,8,-1,10,-1,-1,-1],"split_conditions":[2.03E2,-1.628E2,4.81E1,1.2274613E-2,-2.4610749E-2,2.14E2,2.8897716E-2,1.5862E3,2.5985917E-1,1.2775862E-1,8.298962E-3],"split_indices":[4,12,3,0,0,4,0,11,0,0,0],"split_type":[0,0,0,0,0,0,0,0,0,0,0],"sum_hessian":[5.6563843E1,5.04566E1,6.107242E0,1.0091484E0,4.9447453E1,4.7935543E0,1.313688E0,2.372929E0,2.4206252E0,1.1264774E0,1.2464517E0],"tree_param":{"num_deleted":"0","num_feature":"18","num_nodes":"11","size_leaf_vector":"1"}},{"base_weights":[-4.779354E-3,1.5750215E0,-2.5037972E-2,-2.3646502E-1,3.0004532E0,-2.3388853E-2,4.9512324E-1,3.265177E0,-1.4784611E-2,8.568885E-2,-1.8135335E-2,5.0465204E-2,3.466614E0,2.3499475E0,2.0996797E-1,1.6739805E-1,-1.801582E-2],"categories":[],"categories_nodes":[],"categories_segments":[],"categories_sizes":[],"default_left":[0,0,0,0,0,0,0,0,0,0,0,0,0,0,0,0,0],"id":15,"left_children":[1,3,-1,5,7,-1,9,11,-1,-1,-1,-1,13,15,-1,-1,-1],"loss_changes":[1.1634908E2,9.232514E1,0E0,3.0325081E0,1.835492E1,0E0,5.285986E0,4.921707E0,0E0,0E0,0E0,0E0,3.714981E0,2.5138927E1,0E0,0E0,0E0],"parents":[2147483647,0,0,1,1,3,3,4,4,6,6,7,7,12,12,13,13],"right_children":[2,4,-1,6,8,-1,10,12,-1,-1,-1,-1,14,16,-1,-1,-1],"split_conditions":[4.449807E0,3.017E2,-2.5037972E-2,3.008E2,3.123E2,-2.3388853E-2,3.105E2,1.5592784E0,-1.4784611E-2,8.568885E-2,-1.8135335E-2,5.0465204E-2,3.024E2,3.11E2,2.0996797E-1,1.6739805E-1,-1.801582E-2],"split_indices":[10,0,0,0,1,0,1,14,0,0,0,0,0,1,0,0,0],"split_type":[0,0,0,0,0,0,0,0,0,0,0,0,0,0,0,0,0],"sum_hessian":[1.4648314E2,3.4480362E1,1.12002785E2,1.5551325E1,1.8929037E1,1.2089495E1,3.4618301E0,1.7530504E1,1.3985342E0,1.0179296E0,2.4439006E0,1.929767E0,1.5600737E1,7.847934E0,7.752803E0,5.5638433E0,2.2840903E0],"tree_param":{"num_deleted":"0","num_feature":"18","num_nodes":"17","size_leaf_vector":"1"}},{"base_weights":[-1.8454614E-3,2.5509673E-1,-1.49916E0,-1.4878513E-1,3.0689055E-1,-1.0618768E0,-2.778939E0,-1.9846824E0,3.6211938E-1,-5.38343E-1,-2.5464802E0,-1.1816475E0,-1.5281034E-1,-1.0355095E0,-1.6143815E-1,-4.7496408E-1,4.566767E-1,3.928934E-1,-1.7183169E0,-1.3444728E-1,-4.479176E-2,1.5733218E-2,-1.1050886E-1,-1.7292609E0,1.6992925E-2,4.3867397E-1,-1.5932125E0,5.093083E-1,-2.4454443E-1,2.4384053E-2,-2.7567214E-1,-2.1253395E0,1.8329255E-2,-2.9266447E-2,-1.01305E-1,2.4361756E-2,-1.0615845E-2,-1.276264E-1,-3.1046096E-2,-6.936656E-3,2.5643384E-2,6.887845E-3,-3.2100588E-2,1.3774335E-2,-3.6210187E-2,-1.18170254E-1,-5.145289E-3],"categories":[],"categories_nodes":[],"categories_segments":[],"categories_sizes":[],"default_left":[0,0,0,0,0,0,0,0,0,0,0,0,0,0,0,0,0,0,0,0,0,0,0,0,0,0,0,0,0,0,0,0,0,0,0,0,0,0,0,0,0,0,0,0,0,0,0],"id":16,"left_children":[1,3,5,-1,7,9,11,13,15,17,19,21,-1,23,-1,25,27,29,31,-1,-1,-1,-1,33,-1,35,37,39,41,-1,43,45,-1,-1,-1,-1,-1,-1,-1,-1,-1,-1,-1,-1,-1,-1,-1],"loss_changes":[1.5548383E2,5.863668E1,3.0175598E1,0E0,4.3802578E1,3.4178143E1,2.7910843E0,6.298954E0,2.6594791E1,3.9223938E1,3.3216858E-1,6.495389E0,0E0,6.4118543E0,0E0,3.575664E1,1.1194263E1,1.4285731E0,1.4068455E1,0E0,0E0,0E0,0E0,2.4757004E-1,0E0,7.252352E-1,1.3007885E1,7.154541E-1,3.3731174E0,0E0,9.843166E-1,6.1360397E0,0E0,0E0,0E0,0E0,0E0,0E0,0E0,0E0,0E0,0E0,0E0,0E0,0E0,0E0,0E0],"parents":[2147483647,0,0,1,1,2,2,4,4,5,5,6,6,7,7,8,8,9,9,10,10,11,11,13,13,15,15,16,16,17,17,18,18,23,23,25,25,26,26,27,27,28,28,30,30,31,31],"right_children":[2,4,6,-1,8,10,12,14,16,18,20,22,-1,24,-1,26,28,30,32,-1,-1,-1,-1,34,-1,36,38,40,42,-1,44,46,-1,-1,-1,-1,-1,-1,-1,-1,-1,-1,-1,-1,-1,-1,-1],"split_conditions":[5.35E1,3.3782E4,1.89E2,-1.4878513E-1,7.91E1,8.56314E4,5.54E1,4.53E1,4.449807E0,3.014E2,2.3577235E0,2E2,-1.5281034E-1,5.98444E4,-1.6143815E-1,3.016E2,2.03E2,3.008E2,1.4324E3,-1.3444728E-1,-4.479176E-2,1.5733218E-2,-1.1050886E-1,1.571E3,1.6992925E-2,2.09E2,3.11E2,-1.736E2,3.004E2,2.4384053E-2,7.80276E4,3.121E2,1.8329255E-2,-2.9266447E-2,-1.01305E-1,2.4361756E-2,-1.0615845E-2,-1.276264E-1,-3.1046096E-2,-6.936656E-3,2.5643384E-2,6.887845E-3,-3.2100588E-2,1.3774335E-2,-3.6210187E-2,-1.18170254E-1,-5.145289E-3],"split_indices":[3,8,4,0,13,8,3,3,10,0,6,4,0,8,0,0,4,0,11,0,0,0,0,2,0,4,1,12,0,0,8,1,0,0,0,0,0,0,0,0,0,0,0,0,0,0,0],"split_type":[0,0,0,0,0,0,0,0,0,0,0,0,0,0,0,0,0,0,0,0,0,0,0,0,0,0,0,0,0,0,0,0,0,0,0,0,0,0,0,0,0,0,0,0,0,0,0],"sum_hessian":[4.021505E2,3.439565E2,5.8193996E1,4.536327E0,3.394202E2,4.473752E1,1.3456476E1,7.1656356E0,3.3225455E2,3.4081547E1,1.06559725E1,2.7686296E0,1.0687846E1,5.1039324E0,2.0617032E0,3.331401E1,2.9894052E2,1.9421284E1,1.4660263E1,9.230289E0,1.4256829E0,1.4105768E0,1.3580527E0,3.2216084E0,1.8823241E0,1.8668816E1,1.4645195E1,2.7832404E2,2.0616491E1,1.724665E1,2.174634E0,1.2249477E1,2.410786E0,1.2760301E0,1.9455783E0,1.760696E1,1.0618552E0,6.55369E0,8.091504E0,1.3129046E0,2.7701114E2,1.0841795E1,9.774695E0,1.1487925E0,1.0258414E0,1.0808579E1,1.440898E0],"tree_param":{"num_deleted":"0","num_feature":"18","num_nodes":"47","size_leaf_vector":"1"}},{"base_weights":[5.93547E-3,-4.5840013E-1,1.7778077E0,-2.4848314E-2,4.6159923E-2,-3.686054E-1,3.9444656E0,-2.2703694E-2,1.2282389E-2,2.9012138E-1,4.868567E0,3.657138E-2,-1.3408561E-2,2.6568863E-1,5.635735E-2],"categories":[],"categories_nodes":[],"categories_segments":[],"categories_sizes":[],"default_left":[0,0,0,0,0,0,0,0,0,0,0,0,0,0,0],"id":17,"left_children":[1,3,5,-1,-1,7,9,-1,-1,11,13,-1,-1,-1,-1],"loss_changes":[8.039202E1,4.584652E0,9.5807304E1,0E0,0E0,6.94625E-1,3.2972595E1,0E0,0E0,9.6448064E-1,7.4422455E0,0E0,0E0,0E0,0E0],"parents":[2147483647,0,0,1,1,2,2,5,5,6,6,9,9,10,10],"right_children":[2,4,6,-1,-1,8,10,-1,-1,12,14,-1,-1,-1,-1],"split_conditions":[1.89E2,2.418677E-1,4.87E1,-2.4848314E-2,4.6159923E-2,6.60288E4,1E0,-2.2703694E-2,1.2282389E-2,3.5714285E0,8.2399E4,3.657138E-2,-1.3408561E-2,2.6568863E-1,5.635735E-2],"split_indices":[4,9,3,0,0,8,16,0,0,6,8,0,0,0,0],"split_type":[0,0,0,0,0,0,0,0,0,0,0,0,0,0,0],"sum_hessian":[9.572163E1,7.643295E1,1.9288675E1,7.498024E1,1.4527131E0,1.0106492E1,9.182184E0,9.100939E0,1.0055532E0,2.1185122E0,7.063672E0,1.0100198E0,1.1084924E0,5.9369574E0,1.1267147E0],"tree_param":{"num_deleted":"0","num_feature":"18","num_nodes":"15","size_leaf_vector":"1"}},{"base_weights":[-1.8025935E-4,-3.2517162E-1,1.8323384E-1,2.4596892E-1,-2.4982093E-2],"categories":[],"categories_nodes":[],"categories_segments":[],"categories_sizes":[],"default_left":[0,0,0,0,0],"id":18,"left_children":[1,3,-1,-1,-1],"loss_changes":[1.4063785E2,1.017013E2,0E0,0E0,0E0],"parents":[2147483647,0,0,1,1],"right_children":[2,4,-1,-1,-1],"split_conditions":[8.56314E4,3.3782E4,1.8323384E-1,2.4596892E-1,-2.4982093E-2],"split_indices":[8,8,0,0,0],"split_type":[0,0,0,0,0],"sum_hessian":[1.1607869E2,1.07460594E2,8.6180935E0,2.5841875E0,1.048764E2],"tree_param":{"num_deleted":"0","num_feature":"18","num_nodes":"5","size_leaf_vector":"1"}},{"base_weights":[1.573481E-2,2.8314486E0,-2.4594385E-2,8.880668E-1,3.6548257E0,-1.4981634E-2,8.5475296E-2,8.2701534E-2,2.1340501E-1],"categories":[],"categories_nodes":[],"categories_segments":[],"categories_sizes":[],"default_left":[0,0,0,0,0,0,0,0,0],"id":19,"left_children":[1,3,-1,5,7,-1,-1,-1,-1],"loss_changes":[8.275654E1,1.0904243E1,0E0,4.368487E0,1.6812897E-1,0E0,0E0,0E0,0E0],"parents":[2147483647,0,0,1,1,3,3,4,4],"right_children":[2,4,-1,6,8,-1,-1,-1,-1],"split_conditions":[9.98E1,5.0684934E0,-2.4594385E-2,2.2118403E-1,2.14E2,-1.4981634E-2,8.5475296E-2,8.2701534E-2,2.1340501E-1],"split_indices":[13,6,0,9,4,0,0,0,0],"split_type":[0,0,0,0,0,0,0,0,0],"sum_hessian":[5.5924828E1,7.8429847E0,4.808184E1,2.952617E0,4.8903675E0,1.466898E0,1.485719E0,2.0146527E0,2.8757148E0],"tree_param":{"num_deleted":"0","num_feature":"18","num_nodes":"9","size_leaf_vector":"1"}},{"base_weights":[-4.6576117E-3,1.3629233E0,-2.5019428E-2,-3.4270546E-1,2.3511872E0,-2.335485E-2,2.1808627E-1,2.5239873E0,-1.4905192E-2,3.7135426E-2,-1.50220385E-2,1.6437872E-1,1.9246715E0,-2.0651199E-2,2.6296976E0,7.889602E-2,1.7549114E-1],"categories":[],"categories_nodes":[],"categories_segments":[],"categories_sizes":[],"default_left":[0,0,0,0,0,0,0,0,0,0,0,0,0,0,0,0,0],"id":20,"left_children":[1,3,-1,5,7,-1,9,11,-1,-1,-1,-1,13,-1,15,-1,-1],"loss_changes":[1.000608E2,6.6995865E1,0E0,1.1676462E0,1.219252E1,0E0,1.1631167E0,4.456497E0,0E0,0E0,0E0,0E0,2.6821434E1,0E0,5.6927414E0,0E0,0E0],"parents":[2147483647,0,0,1,1,3,3,4,4,6,6,7,7,12,12,14,14],"right_children":[2,4,-1,6,8,-1,10,12,-1,-1,-1,-1,14,-1,16,-1,-1],"split_conditions":[4.449807E0,3.016E2,-2.5019428E-2,3.008E2,3.123E2,-2.335485E-2,1.8770226E0,3.105E2,-1.4905192E-2,3.7135426E-2,-1.50220385E-2,1.6437872E-1,3.021E2,-2.0651199E-2,3.027E2,7.889602E-2,1.7549114E-1],"split_indices":[10,0,0,0,1,0,6,1,0,0,0,0,0,0,0,0,0],"split_type":[0,0,0,0,0,0,0,0,0,0,0,0,0,0,0,0,0],"sum_hessian":[1.4558676E2,3.8267708E1,1.07319046E2,1.4278281E1,2.3989426E1,1.1822875E1,2.4554057E0,2.2564924E1,1.4245005E0,1.0056211E0,1.4497848E0,7.950134E0,1.4614791E1,3.4823468E0,1.1132444E1,6.3440013E0,4.788443E0],"tree_param":{"num_deleted":"0","num_feature":"18","num_nodes":"17","size_leaf_vector":"1"}},{"base_weights":[-2.8463465E-3,2.4880174E-1,-1.3106952E0,3.0082834E-1,-1.19102955E-1,-2.1268384E0,-8.823803E-1,-1.7452292E0,3.5711086E-1,-9.013323E-1,-2.3679988E0,-4.2340752E-1,-2.035018E0,-9.34627E-1,-1.379147E-1,-4.3684128E-1,4.536203E-1,1.0370757E-1,-9.482264E-2,-1.2840886E0,-2.6094575E0,4.3022987E-1,-1.3547549E0,-1.083596E-1,-2.6419088E-2,-1.5431812E0,1.7127605E-2,4.3593228E-1,-1.3689921E0,5.0836664E-1,-2.2832958E-1,-1.0509388E-2,1.6081018E-2,1.4083202E-2,-8.9954905E-2,-3.55308E-2,-1.3535024E-1,2.4140373E-2,-9.0330385E-4,-1.6504629E0,1.7743742E-2,-2.6972935E-2,-9.015279E-2,2.4290321E-2,-1.0780852E-2,-8.473858E-2,1.866735E-2,-8.777389E-3,2.5605068E-2,1.2177618E-2,-2.6024152E-2,-1.2004389E-1,-4.8473846E-2],"categories":[],"categories_nodes":[],"categories_segments":[],"categories_sizes":[],"default_left":[0,0,0,0,0,0,0,0,0,0,0,0,0,0,0,0,0,0,0,0,0,0,0,0,0,0,0,0,0,0,0,0,0,0,0,0,0,0,0,0,0,0,0,0,0,0,0,0,0,0,0,0,0],"id":21,"left_children":[1,3,5,7,-1,9,11,13,15,17,19,21,23,25,-1,27,29,31,-1,33,35,37,39,-1,-1,41,-1,43,45,47,49,-1,-1,-1,-1,-1,-1,-1,-1,51,-1,-1,-1,-1,-1,-1,-1,-1,-1,-1,-1,-1,-1],"loss_changes":[1.3172052E2,4.6658707E1,2.0698875E1,3.862856E1,0E0,4.2253036E0,2.2449047E1,4.8170395E0,2.4872929E1,5.3501577E0,1.1941757E0,2.6641691E1,1.3015213E0,5.592276E0,0E0,2.940554E1,1.0853901E1,3.078117E-1,0E0,4.6455383E0,5.2749634E-1,4.2971182E-1,8.6320915E0,0E0,0E0,2.2567463E-1,0E0,7.236688E-1,1.0489151E1,7.7072906E-1,3.1684911E0,0E0,0E0,0E0,0E0,0E0,0E0,0E0,0E0,4.6969376E0,0E0,0E0,0E0,0E0,0E0,0E0,0E0,0E0,0E0,0E0,0E0,0E0,0E0],"parents":[2147483647,0,0,1,1,2,2,3,3,5,5,6,6,7,7,8,8,9,9,10,10,11,11,12,12,13,13,15,15,16,16,17,17,19,19,20,20,21,21,22,22,25,25,27,27,28,28,29,29,30,30,39,39],"right_children":[2,4,6,8,-1,10,12,14,16,18,20,22,24,26,-1,28,30,32,-1,34,36,38,40,-1,-1,42,-1,44,46,48,50,-1,-1,-1,-1,-1,-1,-1,-1,52,-1,-1,-1,-1,-1,-1,-1,-1,-1,-1,-1,-1,-1],"split_conditions":[5.35E1,2.568E3,1.7034091E0,7.91E1,-1.19102955E-1,5.54E1,8.56314E4,4.53E1,4.449807E0,2E2,1E0,3.014E2,2.3577235E0,5.98444E4,-1.379147E-1,3.016E2,2.03E2,1.88E2,-9.482264E-2,7.8957E4,2.978E2,3.008E2,1.4324E3,-1.083596E-1,-2.6419088E-2,1.571E3,1.7127605E-2,2.1E2,3.12E2,-1.736E2,3.096E2,-1.0509388E-2,1.6081018E-2,1.4083202E-2,-8.9954905E-2,-3.55308E-2,-1.3535024E-1,2.4140373E-2,-9.0330385E-4,3.105E2,1.7743742E-2,-2.6972935E-2,-9.015279E-2,2.4290321E-2,-1.0780852E-2,-8.473858E-2,1.866735E-2,-8.777389E-3,2.5605068E-2,1.2177618E-2,-2.6024152E-2,-1.2004389E-1,-4.8473846E-2],"split_indices":[3,5,14,13,0,3,8,3,10,4,16,0,6,8,0,0,4,4,0,8,0,0,11,0,0,2,0,4,1,12,1,0,0,0,0,0,0,0,0,1,0,0,0,0,0,0,0,0,0,0,0,0,0],"split_type":[0,0,0,0,0,0,0,0,0,0,0,0,0,0,0,0,0,0,0,0,0,0,0,0,0,0,0,0,0,0,0,0,0,0,0,0,0,0,0,0,0,0,0,0,0,0,0,0,0,0,0,0,0],"sum_hessian":[3.982324E2,3.3465076E2,6.3581642E1,3.2902966E2,5.6210732E0,2.0518517E1,4.3063126E1,8.005211E0,3.2102448E2,4.1527824E0,1.6365734E1,3.177705E1,1.1286076E1,5.5149813E0,2.4902294E0,3.441088E1,2.866136E2,2.5117643E0,1.6410182E0,4.1325803E0,1.2233153E1,1.686098E1,1.4916071E1,9.972756E0,1.3133185E0,3.5941544E0,1.9208268E0,1.8046377E1,1.6364502E1,2.6555002E2,2.1063568E1,1.0437424E0,1.4680219E0,1.1349994E0,2.997581E0,1.0025482E0,1.1230605E1,1.5022148E1,1.83883E0,1.2746046E1,2.1700253E0,1.3717684E0,2.222386E0,1.69995E1,1.0468773E0,1.380969E1,2.554811E0,1.1923915E0,2.6435764E2,8.117943E0,1.2945625E1,4.8623605E0,7.8836856E0],"tree_param":{"num_deleted":"0","num_feature":"18","num_nodes":"53","size_leaf_vector":"1"}},{"base_weights":[6.84393E-3,-4.5656052E-1,1.5299729E0,-2.4829704E-2,4.265219E-2,-3.668504E-1,3.0460615E0,-2.2665305E-2,1.2180316E-2,2.478432E-1,3.634796E0,3.65897E-2,-1.4445707E-2,3.9230201E0,3.2879923E-2,8.186152E-2,2.16622E-1],"categories":[],"categories_nodes":[],"categories_segments":[],"categories_sizes":[],"default_left":[0,0,0,0,0,0,0,0,0,0,0,0,0,0,0,0,0],"id":22,"left_children":[1,3,5,-1,-1,7,9,-1,-1,11,13,-1,-1,15,-1,-1,-1],"loss_changes":[6.8588E1,4.33043E0,6.630239E1,0E0,0E0,6.8895996E-1,2.003006E1,0E0,0E0,1.0638876E0,6.3648224E0,0E0,0E0,1.6122742E0,0E0,0E0,0E0],"parents":[2147483647,0,0,1,1,2,2,5,5,6,6,9,9,10,10,13,13],"right_children":[2,4,6,-1,-1,8,10,-1,-1,12,14,-1,-1,16,-1,-1,-1],"split_conditions":[1.89E2,2.418677E-1,4.87E1,-2.4829704E-2,4.265219E-2,4.62E1,1E0,-2.2665305E-2,1.2180316E-2,1.35E3,8.40324E4,3.65897E-2,-1.4445707E-2,7.19739E4,3.2879923E-2,8.186152E-2,2.16622E-1],"split_indices":[4,9,3,0,0,3,16,0,0,2,8,0,0,8,0,0,0],"split_type":[0,0,0,0,0,0,0,0,0,0,0,0,0,0,0,0,0],"sum_hessian":[9.518461E1,7.351752E1,2.1667091E1,7.19392E1,1.5783182E0,9.961719E0,1.1705373E1,8.95141E0,1.0103087E0,2.2816772E0,9.423696E0,1.0087804E0,1.2728968E0,8.302259E0,1.121436E0,2.0205324E0,6.281728E0],"tree_param":{"num_deleted":"0","num_feature":"18","num_nodes":"17","size_leaf_vector":"1"}},{"base_weights":[-3.1609746E-4,-3.2073078E-1,1.4208572E-1,-2.4968004E-2,1.8479204E-1],"categories":[],"categories_nodes":[],"categories_segments":[],"categories_sizes":[],"default_left":[0,0,0,0,0],"id":23,"left_children":[1,3,-1,-1,-1],"loss_changes":[1.06889565E2,7.752962E1,0E0,0E0,0E0],"parents":[2147483647,0,0,1,1],"right_children":[2,4,-1,-1,-1],"split_conditions":[8.56314E4,2.568E3,1.4208572E-1,-2.4968004E-2,1.8479204E-1],"split_indices":[8,5,0,0,0],"split_type":[0,0,0,0,0],"sum_hessian":[1.1537914E2,1.0448635E2,1.08927965E1,1.0087577E2,3.610581E0],"tree_param":{"num_deleted":"0","num_feature":"18","num_nodes":"5","size_leaf_vector":"1"}},{"base_weights":[2.1271171E-2,2.4164789E0,-2.4571499E-2,2.94558E0,5.2001965E-1,1.2104243E-2,3.320448E0,5.891964E-3,3.7266836E-2,1.8818747E-1,7.086402E-2],"categories":[],"categories_nodes":[],"categories_segments":[],"categories_sizes":[],"default_left":[0,0,0,0,0,0,0,0,0,0,0],"id":24,"left_children":[1,3,-1,5,7,-1,9,-1,-1,-1,-1],"loss_changes":[7.032154E1,8.597603E0,0E0,6.9778824E0,2.2176129E-1,0E0,2.8858948E-1,0E0,0E0,0E0,0E0],"parents":[2147483647,0,0,1,1,3,3,4,4,6,6],"right_children":[2,4,-1,6,8,-1,10,-1,-1,-1,-1],"split_conditions":[9.98E1,6.58812E4,-2.4571499E-2,2.978E2,5.3E1,1.2104243E-2,3.91E1,5.891964E-3,3.7266836E-2,1.8818747E-1,7.086402E-2],"split_indices":[13,8,0,0,3,0,3,0,0,0,0],"split_type":[0,0,0,0,0,0,0,0,0,0,0],"sum_hessian":[5.5296875E1,9.09485E0,4.6202023E1,6.6784115E0,2.416438E0,1.0136801E0,5.6647315E0,1.4145412E0,1.001897E0,3.8016064E0,1.8631253E0],"tree_param":{"num_deleted":"0","num_feature":"18","num_nodes":"11","size_leaf_vector":"1"}},{"base_weights":[-4.1982313E-3,1.2049164E0,-2.5000876E-2,-3.403336E-1,1.977781E0,-2.3313297E-2,2.0583E-1,2.1083748E0,-1.4907313E-2,-1.525027E-2,3.687781E-2,2.1876872E0,8.333121E-3,1.5646424E0,1.3424519E-1,1.1605661E-1,-2.829213E-3],"categories":[],"categories_nodes":[],"categories_segments":[],"categories_sizes":[],"default_left":[0,0,0,0,0,0,0,0,0,0,0,0,0,0,0,0,0],"id":25,"left_children":[1,3,-1,5,7,-1,9,11,-1,-1,-1,13,-1,15,-1,-1,-1],"loss_changes":[8.7755264E1,5.151373E1,0E0,1.1308492E0,9.106613E0,0E0,1.1791781E0,3.8088837E0,0E0,0E0,0E0,3.839386E0,0E0,1.7198727E1,0E0,0E0,0E0],"parents":[2147483647,0,0,1,1,3,3,4,4,6,6,7,7,11,11,13,13],"right_children":[2,4,-1,6,8,-1,10,12,-1,-1,-1,14,-1,16,-1,-1,-1],"split_conditions":[4.449807E0,3.016E2,-2.5000876E-2,3.008E2,3.123E2,-2.3313297E-2,5.1449275E-1,8.76416E4,-1.4907313E-2,-1.525027E-2,3.687781E-2,3.024E2,8.333121E-3,3.108E2,1.3424519E-1,1.1605661E-1,-2.829213E-3],"split_indices":[10,0,0,0,1,0,7,8,0,0,0,0,0,1,0,0,0],"split_type":[0,0,0,0,0,0,0,0,0,0,0,0,0,0,0,0,0],"sum_hessian":[1.4437524E2,4.1570484E1,1.02804756E2,1.4046282E1,2.7524202E1,1.1533273E1,2.5130086E0,2.6100183E1,1.4240205E0,1.4991474E0,1.0138613E0,2.4954208E1,1.1459742E0,1.2916185E1,1.2038023E1,8.512436E0,4.4037495E0],"tree_param":{"num_deleted":"0","num_feature":"18","num_nodes":"17","size_leaf_vector":"1"}},{"base_weights":[-4.0820097E-3,2.4265166E-1,-1.1722833E0,-1.9966172E0,2.9481298E-1,-1.8281623E0,-8.057242E-1,-1.0668069E-1,-3.1860225E-2,-1.5878606E0,3.5222924E-1,-8.1128186E-1,-2.0183492E0,-3.972913E-1,-1.7459769E0,-8.6563414E-1,-1.2306961E-1,-4.0433687E-1,4.5053366E-1,1.1191683E-1,-8.346218E-2,-1.1790073E0,-2.1849284E0,4.2639855E-1,-1.1987226E0,-9.278937E-2,-2.35571E-2,-1.3967075E0,1.7023154E-2,4.3286726E-1,-1.1962891E0,5.0741446E-1,-2.0914201E-1,-1.0780982E-2,1.6390588E-2,1.3944409E-2,-8.111075E-2,-3.248232E-2,-1.1289211E-1,2.404154E-2,-1.064299E-3,-1.4376048E0,1.7538715E-2,-2.568084E-2,-8.050998E-2,2.4239447E-2,-1.02208005E-2,-7.283739E-2,1.8534679E-2,-6.8105618E-3,2.5565544E-2,1.2145387E-2,-2.387737E-2,-1.013659E-1,-4.356518E-2],"categories":[],"categories_nodes":[],"categories_segments":[],"categories_sizes":[],"default_left":[0,0,0,0,0,0,0,0,0,0,0,0,0,0,0,0,0,0,0,0,0,0,0,0,0,0,0,0,0,0,0,0,0,0,0,0,0,0,0,0,0,0,0,0,0,0,0,0,0,0,0,0,0,0,0],"id":26,"left_children":[1,3,5,7,9,11,13,-1,-1,15,17,19,21,23,25,27,-1,29,31,33,-1,35,37,39,41,-1,-1,43,-1,45,47,49,51,-1,-1,-1,-1,-1,-1,-1,-1,53,-1,-1,-1,-1,-1,-1,-1,-1,-1,-1,-1,-1,-1],"loss_changes":[1.1399542E2,3.8729935E1,1.5107498E1,4.8757553E-2,3.514803E1,2.99189E0,1.6982534E1,0E0,0E0,3.958212E0,2.3336964E1,4.4985595E0,1.4945221E-1,2.2548721E1,1.0357513E0,4.8475404E0,0E0,2.460416E1,1.0462517E1,3.2237294E-1,0E0,3.941718E0,2.2277832E-1,4.2939305E-1,6.8644524E0,0E0,0E0,1.0337639E-1,0E0,7.077253E-1,8.267693E0,7.075958E-1,2.860227E0,0E0,0E0,0E0,0E0,0E0,0E0,0E0,0E0,3.2709007E0,0E0,0E0,0E0,0E0,0E0,0E0,0E0,0E0,0E0,0E0,0E0,0E0,0E0],"parents":[2147483647,0,0,1,1,2,2,3,3,4,4,5,5,6,6,9,9,10,10,11,11,12,12,13,13,14,14,15,15,17,17,18,18,19,19,21,21,22,22,23,23,24,24,27,27,29,29,30,30,31,31,32,32,41,41],"right_children":[2,4,6,8,10,12,14,-1,-1,16,18,20,22,24,26,28,-1,30,32,34,-1,36,38,40,42,-1,-1,44,-1,46,48,50,52,-1,-1,-1,-1,-1,-1,-1,-1,54,-1,-1,-1,-1,-1,-1,-1,-1,-1,-1,-1,-1,-1],"split_conditions":[5.35E1,3.3782E4,1.7034091E0,3.117E2,7.91E1,5.54E1,8.56314E4,-1.0668069E-1,-3.1860225E-2,4.53E1,4.449807E0,2E2,1E0,3.014E2,2.3577235E0,5.98444E4,-1.2306961E-1,3.016E2,2.03E2,3.457557E0,-8.346218E-2,7.8957E4,2.978E2,3.008E2,1.4324E3,-9.278937E-2,-2.35571E-2,1.571E3,1.7023154E-2,7.16034E4,3.12E2,-1.736E2,3.096E2,-1.0780982E-2,1.6390588E-2,1.3944409E-2,-8.111075E-2,-3.248232E-2,-1.1289211E-1,2.404154E-2,-1.064299E-3,3.105E2,1.7538715E-2,-2.568084E-2,-8.050998E-2,2.4239447E-2,-1.02208005E-2,-7.283739E-2,1.8534679E-2,-6.8105618E-3,2.5565544E-2,1.2145387E-2,-2.387737E-2,-1.013659E-1,-4.356518E-2],"split_indices":[3,8,14,1,13,3,8,0,0,3,10,4,16,0,6,8,0,0,4,6,0,8,0,0,11,0,0,2,0,8,1,12,1,0,0,0,0,0,0,0,0,1,0,0,0,0,0,0,0,0,0,0,0,0,0],"split_type":[0,0,0,0,0,0,0,0,0,0,0,0,0,0,0,0,0,0,0,0,0,0,0,0,0,0,0,0,0,0,0,0,0,0,0,0,0,0,0,0,0,0,0,0,0,0,0,0,0,0,0,0,0,0,0],"sum_hessian":[3.9350842E2,3.255433E2,6.7965126E1,6.5619774E0,3.1898132E2,2.2936968E1,4.5028152E1,5.443854E0,1.1181233E0,8.651289E0,3.1033005E2,4.443645E0,1.8493322E1,3.2383667E1,1.2644485E1,5.825658E0,2.825631E0,3.5327896E1,2.7500214E2,2.559299E0,1.8843461E0,4.400138E0,1.4093185E1,1.6200832E1,1.6182835E1,1.1222137E1,1.4223483E0,3.9349613E0,1.8906965E0,1.739372E1,1.7934175E1,2.5338475E2,2.1617397E1,1.0172672E0,1.5420318E0,1.1122463E0,3.2878919E0,1.0882672E0,1.3004918E1,1.4378559E1,1.8222737E0,1.4083784E1,2.0990515E0,1.4291598E0,2.5058017E0,1.6304615E1,1.0891057E0,1.5438404E1,2.4957714E0,1.3203772E0,2.5206438E2,8.088947E0,1.352845E1,5.635438E0,8.448346E0],"tree_param":{"num_deleted":"0","num_feature":"18","num_nodes":"55","size_leaf_vector":"1"}},{"base_weights":[8.372017E-3,-4.5464507E-1,1.3514124E0,-2.4810521E-2,3.948806E-2,-3.6511493E-1,2.508318E0,-2.2631815E-2,1.2287294E-2,2.269472E-1,2.921554E0,-1.4790495E-2,3.6508493E-2,1.5624432E-1,2.9601023E-2],"categories":[],"categories_nodes":[],"categories_segments":[],"categories_sizes":[],"default_left":[0,0,0,0,0,0,0,0,0,0,0,0,0,0,0],"id":27,"left_children":[1,3,5,-1,-1,7,9,-1,-1,11,13,-1,-1,-1,-1],"loss_changes":[5.9935432E1,4.0998116E0,4.998222E1,0E0,0E0,6.897528E-1,1.337162E1,0E0,0E0,1.1017903E0,4.0802307E0,0E0,0E0,0E0,0E0],"parents":[2147483647,0,0,1,1,2,2,5,5,6,6,9,9,10,10],"right_children":[2,4,6,-1,-1,8,10,-1,-1,12,14,-1,-1,-1,-1],"split_conditions":[1.89E2,2.418677E-1,4.87E1,-2.4810521E-2,3.948806E-2,6.61284E4,1E0,-2.2631815E-2,1.2287294E-2,5.87E1,8.40324E4,-1.4790495E-2,3.6508493E-2,1.5624432E-1,2.9601023E-2],"split_indices":[4,9,3,0,0,8,16,0,0,3,8,0,0,0,0],"split_type":[0,0,0,0,0,0,0,0,0,0,0,0,0,0,0],"sum_hessian":[9.4394325E1,7.068645E1,2.3707878E1,6.898352E1,1.7029232E0,9.820855E0,1.3887023E1,8.816663E0,1.0041924E0,2.3672473E0,1.1519775E1,1.3632485E0,1.003999E0,1.0280983E1,1.2387927E0],"tree_param":{"num_deleted":"0","num_feature":"18","num_nodes":"15","size_leaf_vector":"1"}},{"base_weights":[-4.6333947E-4,-3.1643778E-1,1.1640854E-1,1.4831372E-1,-2.4952993E-2],"categories":[],"categories_nodes":[],"categories_segments":[],"categories_sizes":[],"default_left":[0,0,0,0,0],"id":28,"left_children":[1,3,-1,-1,-1],"loss_changes":[8.57082E1,6.2968243E1,0E0,0E0,0E0],"parents":[2147483647,0,0,1,1],"right_children":[2,4,-1,-1,-1],"split_conditions":[8.56314E4,3.3782E4,1.1640854E-1,1.4831372E-1,-2.4952993E-2],"split_indices":[8,8,0,0,0],"split_type":[0,0,0,0,0],"sum_hessian":[1.14483505E2,1.01566025E2,1.2917475E1,4.549215E0,9.7016815E1],"tree_param":{"num_deleted":"0","num_feature":"18","num_nodes":"5","size_leaf_vector":"1"}},{"base_weights":[2.6487196E-2,2.0924554E0,-2.4547426E-2,2.4570372E0,3.0958518E-1,1.0597683E-2,1.3662614E-1,-1.3057828E-2,3.7233792E-2],"categories":[],"categories_nodes":[],"categories_segments":[],"categories_sizes":[],"default_left":[0,0,0,0,0,0,0,0,0],"id":29,"left_children":[1,3,-1,5,7,-1,-1,-1,-1],"loss_changes":[6.0581734E1,6.6157837E0,0E0,5.1588707E0,9.5703614E-1,0E0,0E0,0E0,0E0],"parents":[2147483647,0,0,1,1,3,3,4,4],"right_children":[2,4,-1,6,8,-1,-1,-1,-1],"split_conditions":[9.98E1,4.81E1,-2.4547426E-2,2.978E2,5.37E1,1.0597683E-2,1.3662614E-1,-1.3057828E-2,3.7233792E-2],"split_indices":[13,3,0,0,3,0,0,0,0],"split_type":[0,0,0,0,0,0,0,0,0],"sum_hessian":[5.471013E1,1.0348345E1,4.4361786E1,8.277526E0,2.070819E0,1.0980762E0,7.1794496E0,1.068695E0,1.0021238E0],"tree_param":{"num_deleted":"0","num_feature":"18","num_nodes":"9","size_leaf_vector":"1"}},{"base_weights":[-3.953703E-3,1.0776281E0,-2.4982229E-2,-3.9924693E-1,1.6783918E0,-2.3266682E-2,1.947289E-3,1.8015947E0,-3.5157572E-2,1.4214108E0,1.2381654E-1,-1.3821247E-2,1.2019871E-2,1.9536855E0,-2.175949E-2,5.8901425E-2,1.2043299E-1],"categories":[],"categories_nodes":[],"categories_segments":[],"categories_sizes":[],"default_left":[0,0,0,0,0,0,0,0,0,0,0,0,0,0,0,0,0],"id":30,"left_children":[1,3,-1,5,7,-1,-1,9,11,13,-1,-1,-1,15,-1,-1,-1],"loss_changes":[7.775884E1,4.1112972E1,0E0,4.232037E-1,6.9443665E0,0E0,0E0,4.285309E0,2.770112E-1,2.2401981E1,0E0,0E0,0E0,3.2083206E0,0E0,0E0,0E0],"parents":[2147483647,0,0,1,1,3,3,4,4,7,7,8,8,9,9,13,13],"right_children":[2,4,-1,6,8,-1,-1,10,12,14,-1,-1,-1,16,-1,-1,-1],"split_conditions":[4.449807E0,3.014E2,-2.4982229E-2,3.008E2,3.121E2,-2.3266682E-2,1.947289E-3,3.026E2,1.352E3,3.11E2,1.2381654E-1,-1.3821247E-2,1.2019871E-2,3.02E2,-2.175949E-2,5.8901425E-2,1.2043299E-1],"split_indices":[10,0,0,0,1,0,0,0,2,1,0,0,0,0,0,0,0],"split_type":[0,0,0,0,0,0,0,0,0,0,0,0,0,0,0,0,0],"sum_hessian":[1.4303291E2,4.4582127E1,9.845079E1,1.2988225E1,3.1593903E1,1.1232274E1,1.7559514E0,2.942676E1,2.167143E0,2.080863E1,8.61813E0,1.1537758E0,1.0133673E0,1.6131536E1,4.677094E0,7.2909217E0,8.840614E0],"tree_param":{"num_deleted":"0","num_feature":"18","num_nodes":"17","size_leaf_vector":"1"}},{"base_weights":[-4.9368646E-3,2.3689237E-1,-1.0624949E0,-1.7157062E0,2.8907236E-1,-1.613043E0,-7.4069345E-1,-2.8023258E-2,-9.1896124E-2,3.7240013E-1,-9.3710804E-1,-7.254185E-1,-8.885785E-2,-3.7192577E-1,-1.5375565E0,-3.729661E-1,4.7599515E-1,-1.480288E0,-3.462929E-1,1.2479637E-1,-7.440328E-2,4.2250532E-1,-1.0682837E0,-8.166318E-2,-2.1165248E-2,2.414391E-2,-1.062511E0,-2.6632236E-2,2.552698E-2,-8.43233E-1,-1.0881438E-1,-6.954396E-2,-5.9244063E-2,1.6690588E-2,-1.0049014E-2,2.3941899E-2,-1.2145626E-3,-1.2645429E0,1.7307954E-2,-6.3976E-2,1.8439353E-2,5.56235E-3,-4.6402656E-2,-6.789924E-2,1.7046148E-2,1.0440866E-2,-4.9698353E-2,-8.855532E-2,-3.868053E-2],"categories":[],"categories_nodes":[],"categories_segments":[],"categories_sizes":[],"default_left":[0,0,0,0,0,0,0,0,0,0,0,0,0,0,0,0,0,0,0,0,0,0,0,0,0,0,0,0,0,0,0,0,0,0,0,0,0,0,0,0,0,0,0,0,0,0,0,0,0],"id":31,"left_children":[1,3,5,7,9,11,13,-1,-1,15,17,19,-1,21,23,25,27,29,31,33,-1,35,37,-1,-1,-1,39,41,-1,43,-1,45,-1,-1,-1,-1,-1,47,-1,-1,-1,-1,-1,-1,-1,-1,-1,-1,-1],"loss_changes":[9.9872154E1,3.288044E1,1.16811905E1,1.5831184E-1,3.2067245E1,2.4925613E0,1.344989E1,0E0,0E0,2.267781E1,5.917963E0,3.9080322E0,0E0,1.9226917E1,8.844528E-1,2.182791E1,4.463295E0,2.6584148E0,2.448069E0,3.147494E-1,0E0,4.2868376E-1,5.537056E0,0E0,0E0,0E0,6.7817535E0,2.2696884E0,0E0,4.6833854E0,0E0,2.5904708E0,0E0,0E0,0E0,0E0,0E0,2.6949444E0,0E0,0E0,0E0,0E0,0E0,0E0,0E0,0E0,0E0,0E0,0E0],"parents":[2147483647,0,0,1,1,2,2,3,3,4,4,5,5,6,6,9,9,10,10,11,11,13,13,14,14,15,15,16,16,17,17,18,18,19,19,21,21,22,22,26,26,27,27,29,29,31,31,37,37],"right_children":[2,4,6,8,10,12,14,-1,-1,16,18,20,-1,22,24,26,28,30,32,34,-1,36,38,-1,-1,-1,40,42,-1,44,-1,46,-1,-1,-1,-1,-1,48,-1,-1,-1,-1,-1,-1,-1,-1,-1,-1,-1],"split_conditions":[5.35E1,3.3782E4,1.7034091E0,1.6766467E0,2.12E2,5.54E1,8.56314E4,-2.8023258E-2,-9.1896124E-2,4.449807E0,1.3556561E0,2E2,-8.885785E-2,3.014E2,2.3577235E0,3.016E2,9.98E1,4.53E1,3.019E2,1.141E2,-7.440328E-2,3.008E2,1.4324E3,-8.166318E-2,-2.1165248E-2,2.414391E-2,3.12E2,2.2118403E-1,2.552698E-2,5.98444E4,-1.0881438E-1,7.0977917E0,-5.9244063E-2,1.6690588E-2,-1.0049014E-2,2.3941899E-2,-1.2145626E-3,3.105E2,1.7307954E-2,-6.3976E-2,1.8439353E-2,5.56235E-3,-4.6402656E-2,-6.789924E-2,1.7046148E-2,1.0440866E-2,-4.9698353E-2,-8.855532E-2,-3.868053E-2],"split_indices":[3,8,14,6,4,3,8,0,0,10,14,4,0,0,6,0,13,3,0,13,0,0,11,0,0,0,1,9,0,8,0,6,0,0,0,0,0,1,0,0,0,0,0,0,0,0,0,0,0],"split_type":[0,0,0,0,0,0,0,0,0,0,0,0,0,0,0,0,0,0,0,0,0,0,0,0,0,0,0,0,0,0,0,0,0,0,0,0,0,0,0,0,0,0,0,0,0,0,0,0,0],"sum_hessian":[3.8852515E2,3.1684824E2,7.167692E1,7.4170866E0,3.0943115E2,2.4960745E1,4.6716175E1,1.2440104E0,6.173076E0,2.9039313E2,1.9038008E1,4.7406664E0,2.0220078E1,3.2939407E1,1.3776769E1,3.5118103E1,2.5527504E2,9.134494E0,9.903515E0,2.6371171E0,2.1035492E0,1.55699215E1,1.7369484E1,1.2258085E1,1.518683E0,1.5803252E1,1.9314852E1,1.6430958E1,2.3884407E2,5.923866E0,3.2106278E0,8.260375E0,1.6431397E0,1.591415E0,1.0457022E0,1.3762958E1,1.8069643E0,1.5346128E1,2.0233555E0,1.6864023E1,2.4508283E0,1.5011431E1,1.4195265E0,4.0266767E0,1.8971893E0,6.943628E0,1.316747E0,6.269437E0,9.076692E0],"tree_param":{"num_deleted":"0","num_feature":"18","num_nodes":"49","size_leaf_vector":"1"}},{"base_weights":[9.317162E-3,-4.5264736E-1,1.203876E0,-2.479069E-2,3.677076E-2,-3.6323273E-1,2.1178262E0,-2.2584055E-2,1.2304796E-2,2.0909558E-1,2.423986E0,-1.5284063E-2,3.6243256E-2,2.5743384E0,2.7005157E-2,3.373007E-2,1.3445316E-1],"categories":[],"categories_nodes":[],"categories_segments":[],"categories_sizes":[],"default_left":[0,0,0,0,0,0,0,0,0,0,0,0,0,0,0,0,0],"id":32,"left_children":[1,3,5,-1,-1,7,9,-1,-1,11,13,-1,-1,15,-1,-1,-1],"loss_changes":[5.274571E1,3.9001951E0,3.894338E1,0E0,0E0,6.863048E-1,9.416603E0,0E0,0E0,1.1353672E0,2.7278671E0,0E0,0E0,1.0627441E0,0E0,0E0,0E0],"parents":[2147483647,0,0,1,1,2,2,5,5,6,6,9,9,10,10,13,13],"right_children":[2,4,6,-1,-1,8,10,-1,-1,12,14,-1,-1,16,-1,-1,-1],"split_conditions":[1.89E2,2.418677E-1,4.87E1,-2.479069E-2,3.677076E-2,2.26E2,1E0,-2.2584055E-2,1.2304796E-2,2.2938144E-1,8.40324E4,-1.5284063E-2,3.6243256E-2,2.976E2,2.7005157E-2,3.373007E-2,1.3445316E-1],"split_indices":[4,9,3,0,0,4,16,0,0,9,8,0,0,0,0,0,0],"split_type":[0,0,0,0,0,0,0,0,0,0,0,0,0,0,0,0,0],"sum_hessian":[9.359339E1,6.794032E1,2.5653072E1,6.61206E1,1.81972E0,9.671817E0,1.5981256E1,8.671772E0,1.0000452E0,2.441688E0,1.3539567E1,1.425881E0,1.0158069E0,1.2199427E1,1.3401406E0,1.0865961E0,1.111283E1],"tree_param":{"num_deleted":"0","num_feature":"18","num_nodes":"17","size_leaf_vector":"1"}},{"base_weights":[-5.7850906E-4,-3.122419E-1,1.9748198E0,1.2282928E-1,-2.4937352E-2,1.0177552E-1,3.1273413E-2],"categories":[],"categories_nodes":[],"categories_segments":[],"categories_sizes":[],"default_left":[0,0,0,0,0,0,0],"id":33,"left_children":[1,3,5,-1,-1,-1,-1],"loss_changes":[7.104551E1,5.269504E1,1.4663696E-2,0E0,0E0,0E0,0E0],"parents":[2147483647,0,0,1,1,2,2],"right_children":[2,4,6,-1,-1,-1,-1],"split_conditions":[8.56314E4,3.3782E4,1.95E2,1.2282928E-1,-2.4937352E-2,1.0177552E-1,3.1273413E-2],"split_indices":[8,8,4,0,0,0,0],"split_type":[0,0,0,0,0,0,0],"sum_hessian":[1.1339588E2,9.867036E1,1.4725528E1,5.4587584E0,9.321159E1,1.3605094E1,1.1204333E0],"tree_param":{"num_deleted":"0","num_feature":"18","num_nodes":"7","size_leaf_vector":"1"}},{"base_weights":[3.035229E-2,1.8157277E0,-2.4522217E-2,2.166005E0,4.1890305E-1,1.1582927E-2,2.367111E0,1.7012091E-3,3.7230916E-2,2.4951267E0,3.5923984E-2,1.7648582E-1,1.5849419E0,8.927946E-2,2.7005214E-2],"categories":[],"categories_nodes":[],"categories_segments":[],"categories_sizes":[],"default_left":[0,0,0,0,0,0,0,0,0,0,0,0,0,0,0],"id":34,"left_children":[1,3,-1,5,7,-1,9,-1,-1,11,-1,-1,13,-1,-1],"loss_changes":[5.2275326E1,5.302849E0,0E0,3.3059769E0,4.4909602E-1,0E0,7.859421E-2,0E0,0E0,1.7725143E0,0E0,0E0,2.8859997E-1,0E0,0E0],"parents":[2147483647,0,0,1,1,3,3,4,4,6,6,9,9,12,12],"right_children":[2,4,-1,6,8,-1,10,-1,-1,12,-1,-1,14,-1,-1],"split_conditions":[9.98E1,6.58812E4,-2.4522217E-2,2.978E2,2.589372E-1,1.1582927E-2,3.027E2,1.7012091E-3,3.7230916E-2,1.3556561E0,3.5923984E-2,1.7648582E-1,3.91E1,8.927946E-2,2.7005214E-2],"split_indices":[13,8,0,0,7,0,0,0,0,14,0,0,3,0,0],"split_type":[0,0,0,0,0,0,0,0,0,0,0,0,0,0,0],"sum_hessian":[5.4263325E1,1.1692634E1,4.257069E1,8.908113E0,2.7845213E0,1.0415777E0,7.8665347E0,1.7825935E0,1.0019279E0,6.823257E0,1.043278E0,1.8464317E0,4.976825E0,3.5803108E0,1.3965143E0],"tree_param":{"num_deleted":"0","num_feature":"18","num_nodes":"15","size_leaf_vector":"1"}},{"base_weights":[-3.4568363E-3,9.761136E-1,-2.496334E-2,-3.9725497E-1,1.4796027E0,-2.3220986E-2,1.786715E-3,1.0324591E-1,1.0854515E0,-2.231531E-2,1.5183995E0,1.6896139E0,-1.4959621E-2,1.4433995E-2,9.278348E-2],"categories":[],"categories_nodes":[],"categories_segments":[],"categories_sizes":[],"default_left":[0,0,0,0,0,0,0,0,0,0,0,0,0,0,0],"id":35,"left_children":[1,3,-1,5,7,-1,-1,-1,9,-1,11,13,-1,-1,-1],"loss_changes":[6.967508E1,3.3924717E1,0E0,4.1564155E-1,5.9461975E0,0E0,0E0,0E0,1.61404E1,0E0,6.233265E0,3.412403E0,0E0,0E0,0E0],"parents":[2147483647,0,0,1,1,3,3,4,4,8,8,10,10,11,11],"right_children":[2,4,-1,6,8,-1,-1,-1,10,-1,12,14,-1,-1,-1],"split_conditions":[4.449807E0,3.014E2,-2.496334E-2,3.008E2,3.105E2,-2.3220986E-2,1.786715E-3,1.0324591E-1,3.021E2,-2.231531E-2,3.123E2,1.5592784E0,-1.4959621E-2,1.4433995E-2,9.278348E-2],"split_indices":[10,0,0,0,1,0,0,0,0,0,1,14,0,0,0],"split_type":[0,0,0,0,0,0,0,0,0,0,0,0,0,0,0],"sum_hessian":[1.4145517E2,4.7211266E1,9.4243904E1,1.2721578E1,3.448969E1,1.0950378E1,1.7711986E0,1.21733465E1,2.2316341E1,4.910891E0,1.740545E1,1.5971379E1,1.4340703E0,1.9827018E0,1.3988678E1],"tree_param":{"num_deleted":"0","num_feature":"18","num_nodes":"15","size_leaf_vector":"1"}},{"base_weights":[-6.1971075E-3,2.3104562E-1,-9.7396255E-1,3.1591213E-1,-9.038519E-1,-1.4440578E0,-6.879604E-1,3.6808005E-1,-1.4610894E0,-1.3244524E0,-4.3831798E-1,-6.573685E-1,-7.93643E-2,-3.5212454E-1,-1.3754959E0,-3.4686264E-1,4.7380885E-1,-8.059668E-2,-9.431607E-3,-7.5806797E-1,-9.727717E-2,-8.813386E-2,-1.140332E0,1.3376224E-1,-6.714532E-2,4.1847348E-1,-9.704752E-1,-7.3080376E-2,-1.9057631E-2,2.4066834E-2,-9.532703E-1,-2.7255282E-2,2.549291E-2,-1.2073131E0,1.7103337E-2,2.1765716E-2,-7.997286E-1,-1.0465109E-2,-6.994814E-2,-1.0545497E-2,1.7097114E-2,2.3841305E-2,-1.4583977E-3,-1.1380324E0,1.7094934E-2,-7.2543256E-2,-1.8411694E-2,1.3684886E-2,-2.0346625E-2,-7.267894E-2,-8.309049E-3,-5.3958427E-3,-5.5999286E-2,-7.9080395E-2,-3.514972E-2],"categories":[],"categories_nodes":[],"categories_segments":[],"categories_sizes":[],"default_left":[0,0,0,0,0,0,0,0,0,0,0,0,0,0,0,0,0,0,0,0,0,0,0,0,0,0,0,0,0,0,0,0,0,0,0,0,0,0,0,0,0,0,0,0,0,0,0,0,0,0,0,0,0,0,0],"id":36,"left_children":[1,3,5,7,9,11,13,15,17,19,21,23,-1,25,27,29,31,-1,-1,33,-1,35,37,39,-1,41,43,-1,-1,-1,45,47,-1,49,-1,-1,51,-1,-1,-1,-1,-1,-1,53,-1,-1,-1,-1,-1,-1,-1,-1,-1,-1,-1],"loss_changes":[8.8351135E1,3.0053696E1,9.192467E0,2.7264702E1,3.68075E0,2.0830498E0,1.0832796E1,2.1396431E1,1.3128242E0,2.3730965E0,2.8063328E0,3.4232364E0,0E0,1.6737162E1,7.906761E-1,1.8922848E1,4.4415207E0,0E0,0E0,4.050353E0,0E0,3.690364E0,6.346154E-1,3.3659738E-1,0E0,4.307158E-1,4.6366653E0,0E0,0E0,0E0,5.741972E0,2.099697E0,0E0,1.1548982E0,0E0,0E0,7.998011E-1,0E0,0E0,0E0,0E0,0E0,0E0,2.2381744E0,0E0,0E0,0E0,0E0,0E0,0E0,0E0,0E0,0E0,0E0,0E0],"parents":[2147483647,0,0,1,1,2,2,3,3,4,4,5,5,6,6,7,7,8,8,9,9,10,10,11,11,13,13,14,14,15,15,16,16,19,19,21,21,22,22,23,23,25,25,26,26,30,30,31,31,33,33,36,36,43,43],"right_children":[2,4,6,8,10,12,14,16,18,20,22,24,-1,26,28,30,32,-1,-1,34,-1,36,38,40,-1,42,44,-1,-1,-1,46,48,-1,50,-1,-1,52,-1,-1,-1,-1,-1,-1,54,-1,-1,-1,-1,-1,-1,-1,-1,-1,-1,-1],"split_conditions":[5.35E1,2.12E2,1.7034091E0,2.568E3,1.3556561E0,5.54E1,8.56314E4,4.449807E0,1E0,4.53E1,7.0977917E0,2E2,-7.93643E-2,3.014E2,2.3577235E0,3.016E2,9.98E1,-8.059668E-2,-9.431607E-3,5.98444E4,-9.727717E-2,1.4009346E0,3.096E2,3.4348562E0,-6.714532E-2,3.008E2,1.4324E3,-7.3080376E-2,-1.9057631E-2,2.4066834E-2,3.11E2,3.004E2,2.549291E-2,3.021E2,1.7103337E-2,2.1765716E-2,6.08736E4,-1.0465109E-2,-6.994814E-2,-1.0545497E-2,1.7097114E-2,2.3841305E-2,-1.4583977E-3,3.105E2,1.7094934E-2,-7.2543256E-2,-1.8411694E-2,1.3684886E-2,-2.0346625E-2,-7.267894E-2,-8.309049E-3,-5.3958427E-3,-5.5999286E-2,-7.9080395E-2,-3.514972E-2],"split_indices":[3,4,14,5,14,3,8,10,15,3,6,4,0,0,6,0,13,0,0,8,0,14,1,6,0,0,11,0,0,0,1,0,0,0,0,0,8,0,0,0,0,0,0,1,0,0,0,0,0,0,0,0,0,0,0],"split_type":[0,0,0,0,0,0,0,0,0,0,0,0,0,0,0,0,0,0,0,0,0,0,0,0,0,0,0,0,0,0,0,0,0,0,0,0,0,0,0,0,0,0,0,0,0,0,0,0,0,0,0,0,0,0,0],"sum_hessian":[3.8283237E2,3.0807147E2,7.476089E1,2.8730847E2,2.0763006E1,2.6747505E1,4.8013382E1,2.798847E2,7.423785E0,9.938633E0,1.0824372E1,4.98065E0,2.1766855E1,3.327293E1,1.4740449E1,3.57643E1,2.4412039E2,6.3984847E0,1.0253005E0,6.3596716E0,3.5789616E0,7.9728413E0,2.851531E0,2.6859105E0,2.2947395E0,1.4956792E1,1.831614E1,1.3133174E1,1.6072743E0,1.5204734E1,2.0559566E1,1.6400963E1,2.2771944E2,4.4465E0,1.9131718E0,4.8174133E0,3.1554282E0,1.0132525E0,1.8382785E0,1.006459E0,1.6794515E0,1.3174257E1,1.7825347E0,1.6360197E1,1.9559425E0,1.0310312E1,1.0249255E1,9.3046875E0,7.0962753E0,3.2755587E0,1.1709411E0,1.4215655E0,1.7338625E0,6.7956367E0,9.564561E0],"tree_param":{"num_deleted":"0","num_feature":"18","num_nodes":"55","size_leaf_vector":"1"}},{"base_weights":[1.0158292E-2,-4.5058188E-1,1.0853963E0,-2.477044E-2,3.440421E-2,-3.6105084E-1,1.8319458E0,-2.254723E-2,1.2187461E-2,1.8298063E-1,2.0790288E0,3.622332E-2,-1.5845843E-2,2.1966152E0,2.4956508E-2,1.0753434E0,1.1969709E-1,-1.4235958E-3,1.09884575E-1],"categories":[],"categories_nodes":[],"categories_segments":[],"categories_sizes":[],"default_left":[0,0,0,0,0,0,0,0,0,0,0,0,0,0,0,0,0,0,0],"id":37,"left_children":[1,3,5,-1,-1,7,9,-1,-1,11,13,-1,-1,15,-1,17,-1,-1,-1],"loss_changes":[4.6907833E1,3.724969E0,3.1328655E1,0E0,0E0,6.809584E-1,7.31855E0,0E0,0E0,1.192967E0,1.9386749E0,0E0,0E0,7.249985E-1,0E0,5.0762935E0,0E0,0E0,0E0],"parents":[2147483647,0,0,1,1,2,2,5,5,6,6,9,9,10,10,13,13,15,15],"right_children":[2,4,6,-1,-1,8,10,-1,-1,12,14,-1,-1,16,-1,18,-1,-1,-1],"split_conditions":[1.89E2,2.418677E-1,4.87E1,-2.477044E-2,3.440421E-2,6.62838E4,1E0,-2.254723E-2,1.2187461E-2,1.348E3,8.40324E4,3.622332E-2,-1.5845843E-2,7.19739E4,2.4956508E-2,4.3292685E0,1.1969709E-1,-1.4235958E-3,1.09884575E-1],"split_indices":[4,9,3,0,0,8,16,0,0,2,8,0,0,8,0,6,0,0,0],"split_type":[0,0,0,0,0,0,0,0,0,0,0,0,0,0,0,0,0,0,0],"sum_hessian":[9.269857E1,6.52989E1,2.7399673E1,6.336911E1,1.9297884E0,9.503302E0,1.789637E1,8.495042E0,1.0082603E0,2.5589824E0,1.5337389E1,1.0127492E0,1.546233E0,1.3911641E1,1.4257475E0,3.0470266E0,1.08646145E1,2.0275695E0,1.0194571E0],"tree_param":{"num_deleted":"0","num_feature":"18","num_nodes":"19","size_leaf_vector":"1"}},{"base_weights":[-5.8419915E-4,-3.0820262E-1,1.7209172E0,-2.4923371E-2,1.0499295E-1,8.871333E-2,2.8002499E-2],"categories":[],"categories_nodes":[],"categories_segments":[],"categories_sizes":[],"default_left":[0,0,0,0,0,0,0],"id":38,"left_children":[1,3,5,-1,-1,-1,-1],"loss_changes":[6.044099E1,4.541068E1,7.791519E-2,0E0,0E0,0E0,0E0],"parents":[2147483647,0,0,1,1,2,2],"right_children":[2,4,6,-1,-1,-1,-1],"split_conditions":[8.56314E4,2.568E3,1E0,-2.4923371E-2,1.0499295E-1,8.871333E-2,2.8002499E-2],"split_indices":[8,5,15,0,0,0,0],"split_type":[0,0,0,0,0,0,0],"sum_hessian":[1.121316E2,9.582875E1,1.6302855E1,8.954653E1,6.2822146E0,1.5081371E1,1.2214832E0],"tree_param":{"num_deleted":"0","num_feature":"18","num_nodes":"7","size_leaf_vector":"1"}},{"base_weights":[3.6366574E-2,1.6336979E0,-2.4495902E-2,1.9361253E0,3.8421172E-1,1.111719E-2,2.1006613E0,3.6663964E-2,4.882592E-4,2.2522318E0,4.141588E-2,4.9847472E-2,2.49613E0,3.3107433E-2,1.390689E-1],"categories":[],"categories_nodes":[],"categories_segments":[],"categories_sizes":[],"default_left":[0,0,0,0,0,0,0,0,0,0,0,0,0,0,0],"id":39,"left_children":[1,3,-1,5,7,-1,9,-1,-1,11,-1,-1,13,-1,-1],"loss_changes":[4.669719E1,4.4561577E0,0E0,2.587284E0,5.064214E-1,0E0,1.7551422E-2,0E0,0E0,4.714966E-3,0E0,0E0,1.3775444E0,0E0,0E0],"parents":[2147483647,0,0,1,1,3,3,4,4,6,6,9,9,12,12],"right_children":[2,4,-1,6,8,-1,10,-1,-1,12,-1,-1,14,-1,-1],"split_conditions":[9.98E1,6.58812E4,-2.4495902E-2,2.978E2,1.577E3,1.111719E-2,3.024E2,3.6663964E-2,4.882592E-4,2.992E2,4.141588E-2,4.9847472E-2,3.096E2,3.3107433E-2,1.390689E-1],"split_indices":[13,8,0,0,5,0,0,0,0,0,0,0,1,0,0],"split_type":[0,0,0,0,0,0,0,0,0,0,0,0,0,0,0],"sum_hessian":[5.3596752E1,1.27611265E1,4.083563E1,9.83187E0,2.9292567E0,1.0672191E0,8.764651E0,1.0200453E0,1.9092113E0,7.1435204E0,1.6211306E0,1.989847E0,5.1536736E0,1.1407317E0,4.012942E0],"tree_param":{"num_deleted":"0","num_feature":"18","num_nodes":"15","size_leaf_vector":"1"}},{"base_weights":[-3.0660995E-3,8.917426E-1,-2.49512E-2,-3.9992407E-1,1.3524829E0,-2.3280904E-2,1.9661058E-3,1.4158694E0,-1.4046544E-2,1.1539129E0,1.0340822E-1,1.4941114E0,-2.2006428E-2,4.3297473E-2,9.112128E-2],"categories":[],"categories_nodes":[],"categories_segments":[],"categories_sizes":[],"default_left":[0,0,0,0,0,0,0,0,0,0,0,0,0,0,0],"id":40,"left_children":[1,3,-1,5,7,-1,-1,9,-1,11,-1,13,-1,-1,-1],"loss_changes":[6.2912624E1,3.0627316E1,0E0,4.2412686E-1,4.2794876E0,0E0,0E0,3.8087463E0,0E0,1.5912308E1,0E0,3.2498322E0,0E0,0E0,0E0],"parents":[2147483647,0,0,1,1,3,3,4,4,7,7,9,9,11,11],"right_children":[2,4,-1,6,8,-1,-1,10,-1,12,-1,14,-1,-1,-1],"split_conditions":[1.381E3,3.014E2,-2.49512E-2,3.008E2,3.123E2,-2.3280904E-2,1.9661058E-3,3.027E2,-1.4046544E-2,3.111E2,1.0340822E-1,3.02E2,-2.2006428E-2,4.3297473E-2,9.112128E-2],"split_indices":[2,0,0,0,1,0,0,0,0,1,0,0,0,0,0],"split_type":[0,0,0,0,0,0,0,0,0,0,0,0,0,0,0],"sum_hessian":[1.3976024E2,4.9554977E1,9.020526E1,1.3063627E1,3.6491352E1,1.1311789E1,1.7518386E0,3.525637E1,1.2349811E0,2.7130127E1,8.126244E0,2.2410082E1,4.7200456E0,8.940954E0,1.3469128E1],"tree_param":{"num_deleted":"0","num_feature":"18","num_nodes":"15","size_leaf_vector":"1"}},{"base_weights":[-7.4069886E-3,2.2531442E-1,-9.004561E-1,3.1116235E-1,-8.3999586E-1,-1.3113089E0,-6.424798E-1,-1.3041005E0,3.6378756E-1,-1.2198758E0,-4.0970308E-1,-6.136505E-1,-1.4343971E0,-3.3292487E-1,-1.2512509E0,-2.3322945E-2,-6.987821E-2,-3.2442102E-1,4.715489E-1,-7.0936996E-1,-8.823779E-2,-7.8268625E-2,-1.0542986E0,1.3782494E-1,-6.2271494E-2,-7.179731E-1,-7.53796E-2,4.1436404E-1,-8.8563174E-1,-6.649436E-2,-1.7422125E-2,2.3976365E-2,-8.6165076E-1,-2.4370113E-2,2.5456605E-2,-1.1158954E0,1.7042635E-2,2.1741679E-2,-7.487845E-1,-6.517943E-2,-9.021941E-3,1.711171E-2,-1.0093353E-2,-1.5112566E-3,-5.640912E-2,2.3739617E-2,-1.6970749E-3,-1.0310909E0,1.6904261E-2,-5.61606E-2,-5.919424E-4,5.47678E-3,-4.2750917E-2,-6.660175E-2,-7.938484E-3,-5.115642E-3,-5.1908877E-2,-5.939227E-2,-1.3013142E-2],"categories":[],"categories_nodes":[],"categories_segments":[],"categories_sizes":[],"default_left":[0,0,0,0,0,0,0,0,0,0,0,0,0,0,0,0,0,0,0,0,0,0,0,0,0,0,0,0,0,0,0,0,0,0,0,0,0,0,0,0,0,0,0,0,0,0,0,0,0,0,0,0,0,0,0,0,0,0,0],"id":41,"left_children":[1,3,5,7,9,11,13,15,17,19,21,23,25,27,29,-1,-1,31,33,35,-1,37,39,41,-1,43,-1,45,47,-1,-1,-1,49,51,-1,53,-1,-1,55,-1,-1,-1,-1,-1,-1,-1,-1,57,-1,-1,-1,-1,-1,-1,-1,-1,-1,-1,-1],"loss_changes":[7.8727196E1,2.7745464E1,7.4570923E0,2.417677E1,3.2077656E0,1.6309547E0,9.017593E0,5.3954124E-2,2.023787E1,1.958395E0,2.5112765E0,3.0835085E0,1.8186188E-1,1.4637056E1,7.089119E-1,0E0,0E0,1.6504885E1,4.3843E0,3.6381478E0,0E0,3.4558232E0,6.4542866E-1,3.2611218E-1,0E0,1.1350453E0,0E0,4.3250418E-1,3.9405136E0,0E0,0E0,0E0,5.030405E0,2.0377731E0,0E0,9.749508E-1,0E0,0E0,7.00403E-1,0E0,0E0,0E0,0E0,0E0,0E0,0E0,0E0,1.8999176E0,0E0,0E0,0E0,0E0,0E0,0E0,0E0,0E0,0E0,0E0,0E0],"parents":[2147483647,0,0,1,1,2,2,3,3,4,4,5,5,6,6,7,7,8,8,9,9,10,10,11,11,12,12,13,13,14,14,17,17,18,18,19,19,21,21,22,22,23,23,25,25,27,27,28,28,32,32,33,33,35,35,38,38,47,47],"right_children":[2,4,6,8,10,12,14,16,18,20,22,24,26,28,30,-1,-1,32,34,36,-1,38,40,42,-1,44,-1,46,48,-1,-1,-1,50,52,-1,54,-1,-1,56,-1,-1,-1,-1,-1,-1,-1,-1,58,-1,-1,-1,-1,-1,-1,-1,-1,-1,-1,-1],"split_conditions":[5.35E1,2.12E2,1.7034091E0,3.3782E4,1.3556561E0,5.54E1,8.56314E4,1.6766467E0,4.449807E0,4.53E1,7.0977917E0,2E2,7.61286E4,3.014E2,2.3577235E0,-2.3322945E-2,-6.987821E-2,3.016E2,9.98E1,5.98444E4,-8.823779E-2,1.4009346E0,8.6E1,-1.32E2,-6.2271494E-2,3.008E2,-7.53796E-2,3.008E2,1.4324E3,-6.649436E-2,-1.7422125E-2,2.3976365E-2,3.114E2,2.2118403E-1,2.5456605E-2,3.021E2,1.7042635E-2,2.1741679E-2,6.08736E4,-6.517943E-2,-9.021941E-3,1.711171E-2,-1.0093353E-2,-1.5112566E-3,-5.640912E-2,2.3739617E-2,-1.6970749E-3,3.116E2,1.6904261E-2,-5.61606E-2,-5.919424E-4,5.47678E-3,-4.2750917E-2,-6.660175E-2,-7.938484E-3,-5.115642E-3,-5.1908877E-2,-5.939227E-2,-1.3013142E-2],"split_indices":[3,4,14,8,14,3,8,6,10,3,6,4,8,0,6,0,0,0,13,8,0,14,13,12,0,0,0,0,11,0,0,0,1,9,0,0,0,0,8,0,0,0,0,0,0,0,0,1,0,0,0,0,0,0,0,0,0,0,0],"split_type":[0,0,0,0,0,0,0,0,0,0,0,0,0,0,0,0,0,0,0,0,0,0,0,0,0,0,0,0,0,0,0,0,0,0,0,0,0,0,0,0,0,0,0,0,0,0,0,0,0,0,0,0,0,0,0,0,0,0,0],"sum_hessian":[3.768265E2,2.9952136E2,7.730515E1,2.778396E2,2.1681765E1,2.824274E1,4.9062416E1,8.016061E0,2.6982355E2,1.0540869E1,1.1140896E1,5.133239E0,2.31095E1,3.3549606E1,1.5512808E1,1.4059994E0,6.610061E0,3.6257507E1,2.3356602E2,6.630522E0,3.910347E0,8.098353E0,3.0425422E0,2.7016199E0,2.4316187E0,3.1441307E0,1.996537E1,1.4370386E1,1.9179222E1,1.3834723E1,1.6780847E0,1.4566531E1,2.1690975E1,1.6478592E1,2.1708743E2,4.7351027E0,1.8954191E0,4.786812E0,3.3115418E0,1.9846209E0,1.0579214E0,1.6819967E0,1.0196233E0,1.5758226E0,1.568308E0,1.2611382E1,1.7590045E0,1.728234E1,1.8968831E0,1.634001E1,5.3509645E0,1.4938539E1,1.5400538E0,3.5432553E0,1.1918472E0,1.4425621E0,1.8689797E0,1.3912178E1,3.3701606E0],"tree_param":{"num_deleted":"0","num_feature":"18","num_nodes":"59","size_leaf_vector":"1"}},{"base_weights":[1.1307238E-2,-4.7873503E-1,9.3557274E-1,1.0782336E-2,-2.4741044E-2,-3.777769E-1,1.6184913E0,-2.2881303E-2,1.1965704E-2,1.02698214E-1,1.8595235E0,-1.7108055E-2,3.443038E-2,1.9431356E0,1.0889924E-2,2.5949586E-2,2.0327652E0,3.0554269E-2,1.0539775E-1],"categories":[],"categories_nodes":[],"categories_segments":[],"categories_sizes":[],"default_left":[0,0,0,0,0,0,0,0,0,0,0,0,0,0,0,0,0,0,0],"id":42,"left_children":[1,3,5,-1,-1,7,9,-1,-1,11,13,-1,-1,15,-1,-1,17,-1,-1],"loss_changes":[4.240332E1,7.902622E-1,2.9702051E1,0E0,0E0,6.961961E-1,7.674324E0,0E0,0E0,1.2813368E0,2.1184082E0,0E0,0E0,1.1778107E0,0E0,0E0,4.3434906E-1,0E0,0E0],"parents":[2147483647,0,0,1,1,2,2,5,5,6,6,9,9,10,10,13,13,16,16],"right_children":[2,4,6,-1,-1,8,10,-1,-1,12,14,-1,-1,16,-1,-1,18,-1,-1],"split_conditions":[1.82E2,1.27E3,4.87E1,1.0782336E-2,-2.4741044E-2,6.70185E4,1E0,-2.2881303E-2,1.1965704E-2,5.92E1,8.56314E4,-1.7108055E-2,3.443038E-2,2.976E2,1.0889924E-2,2.5949586E-2,6.95554E4,3.0554269E-2,1.0539775E-1],"split_indices":[4,2,3,0,0,8,16,0,0,3,8,0,0,0,0,0,8,0,0],"split_type":[0,0,0,0,0,0,0,0,0,0,0,0,0,0,0,0,0,0,0],"sum_hessian":[9.1631325E1,6.0197086E1,3.1434242E1,1.0820504E0,5.9115036E1,1.0906435E1,2.0527807E1,9.885681E0,1.020754E0,3.0120196E0,1.7515787E1,1.9485643E0,1.0634555E0,1.6492252E1,1.0235354E0,1.3785497E0,1.5113703E1,1.2176555E0,1.3896047E1],"tree_param":{"num_deleted":"0","num_feature":"18","num_nodes":"19","size_leaf_vector":"1"}},{"base_weights":[-5.781116E-4,-3.0424792E-1,1.5267217E0,9.18174E-2,-2.490603E-2,7.857435E-2,2.5997508E-2],"categories":[],"categories_nodes":[],"categories_segments":[],"categories_sizes":[],"default_left":[0,0,0,0,0,0,0],"id":43,"left_children":[1,3,5,-1,-1,-1,-1],"loss_changes":[5.228419E1,3.9938698E1,2.5539398E-2,0E0,0E0,0E0,0E0],"parents":[2147483647,0,0,1,1,2,2],"right_children":[2,4,6,-1,-1,-1,-1],"split_conditions":[8.56314E4,3.3782E4,1.95E2,9.18174E-2,-2.490603E-2,7.857435E-2,2.5997508E-2],"split_indices":[8,8,4,0,0,0,0],"split_type":[0,0,0,0,0,0,0],"sum_hessian":[1.1072977E2,9.3033005E1,1.7696762E1,7.0226173E0,8.601038E1,1.640635E1,1.2904129E0],"tree_param":{"num_deleted":"0","num_feature":"18","num_nodes":"7","size_leaf_vector":"1"}},{"base_weights":[4.1606296E-2,1.4738027E0,-2.446845E-2,1.699146E0,2.2437766E-1,9.666903E-3,1.835837E0,-1.4870651E-2,3.6994554E-2,2.0757968E0,9.801456E-1,3.7362214E-2,1.1699524E-1,-1.7706998E-2,1.3251561E-1],"categories":[],"categories_nodes":[],"categories_segments":[],"categories_sizes":[],"default_left":[0,0,0,0,0,0,0,0,0,0,0,0,0,0,0],"id":44,"left_children":[1,3,-1,5,7,-1,9,-1,-1,11,13,-1,-1,-1,-1],"loss_changes":[4.1799294E1,3.8023605E0,0E0,2.2048988E0,1.1407052E0,0E0,2.8235245E-1,0E0,0E0,1.0298157E0,1.0667855E1,0E0,0E0,0E0,0E0],"parents":[2147483647,0,0,1,1,3,3,4,4,6,6,9,9,10,10],"right_children":[2,4,-1,6,8,-1,10,-1,-1,12,14,-1,-1,-1,-1],"split_conditions":[9.98E1,4.81E1,-2.446845E-2,2.978E2,2.630137E-1,9.666903E-3,3.91E1,-1.4870651E-2,3.6994554E-2,4.65766E4,4.53E1,3.7362214E-2,1.1699524E-1,-1.7706998E-2,1.3251561E-1],"split_indices":[13,3,0,0,7,0,3,0,0,8,3,0,0,0,0],"split_type":[0,0,0,0,0,0,0,0,0,0,0,0,0,0,0],"sum_hessian":[5.3017326E1,1.3859238E1,3.915809E1,1.1436614E1,2.4226236E0,1.1527008E0,1.0283913E1,1.4142385E0,1.0083852E0,6.9180326E0,3.3658805E0,1.7822131E0,5.1358194E0,2.309109E0,1.0567715E0],"tree_param":{"num_deleted":"0","num_feature":"18","num_nodes":"15","size_leaf_vector":"1"}},{"base_weights":[-2.5046414E-3,8.2187253E-1,-2.4932591E-2,-3.9755133E-1,1.2224095E0,-2.322552E-2,1.8060043E-3,1.6683261E0,9.119728E-1,2.7278135E-2,8.62401E-2,-2.2763418E-2,1.2848485E0,1.4417918E0,-3.5090763E-2,4.469082E-2,9.7032465E-2,-1.3891162E-2,1.2035448E-2],"categories":[],"categories_nodes":[],"categories_segments":[],"categories_sizes":[],"default_left":[0,0,0,0,0,0,0,0,0,0,0,0,0,0,0,0,0,0,0],"id":45,"left_children":[1,3,-1,5,7,-1,-1,9,11,-1,-1,-1,13,15,17,-1,-1,-1,-1],"loss_changes":[5.7222557E1,2.6160458E1,0E0,4.1609955E-1,3.9899902E0,0E0,0E0,1.8745422E-2,1.3676264E1,0E0,0E0,0E0,4.284416E0,3.2651405E0,2.7762616E-1,0E0,0E0,0E0,0E0],"parents":[2147483647,0,0,1,1,3,3,4,4,7,7,8,8,12,12,13,13,14,14],"right_children":[2,4,-1,6,8,-1,-1,10,12,-1,-1,-1,14,16,18,-1,-1,-1,-1],"split_conditions":[1.381E3,3.014E2,-2.4932591E-2,3.008E2,3.105E2,-2.322552E-2,1.8060043E-3,4.77E1,3.021E2,2.7278135E-2,8.62401E-2,-2.2763418E-2,3.121E2,3.027E2,1.432E3,4.469082E-2,9.7032465E-2,-1.3891162E-2,1.2035448E-2],"split_indices":[2,0,0,0,1,0,0,3,0,0,0,0,1,0,5,0,0,0,0],"split_type":[0,0,0,0,0,0,0,0,0,0,0,0,0,0,0,0,0,0,0],"sum_hessian":[1.3790222E2,5.1565937E1,8.633629E1,1.27515745E1,3.881436E1,1.0984458E1,1.7671169E0,1.4135609E1,2.4678753E1,1.1875101E0,1.2948098E1,5.2408633E0,1.943789E1,1.7289785E1,2.148105E0,9.569639E0,7.720145E0,1.1386434E0,1.0094616E0],"tree_param":{"num_deleted":"0","num_feature":"18","num_nodes":"19","size_leaf_vector":"1"}},{"base_weights":[-8.602307E-3,2.3243247E-1,-7.943922E-1,3.1653145E-1,-7.9461193E-1,-5.621628E-1,-1.24761E0,3.7110275E-1,-1.1828725E0,-1.6767271E-1,-1.0665549E0,-2.6860952E-1,-1.1776388E0,-6.3090134E-1,-1.351155E0,-3.0989784E-1,4.7340548E-1,-6.517458E-2,-7.139113E-3,-5.1898956E-1,1.902703E-2,-7.156791E-1,-7.856115E-2,2.4025904E-2,-7.166968E-1,-6.1808735E-2,-4.9572748E-1,1.8374272E-2,-6.2439293E-2,-2.3146378E-2,-6.940534E-2,2.3850664E-2,-8.4658074E-1,2.9349897E-2,2.5429348E-2,-5.126698E-2,7.717161E-2,1.8347094E-2,-1.0622661E0,-8.922417E-1,1.9737577E-2,1.6498772E-2,-5.2911103E-2,-5.0825324E-2,1.8239034E-2,6.0352064E-3,-3.654329E-2,-1.11001395E-2,1.5162048E-2,-2.7106989E-3,-6.4269096E-2,-6.892044E-2,-2.7678965E-2],"categories":[],"categories_nodes":[],"categories_segments":[],"categories_sizes":[],"default_left":[0,0,0,0,0,0,0,0,0,0,0,0,0,0,0,0,0,0,0,0,0,0,0,0,0,0,0,0,0,0,0,0,0,0,0,0,0,0,0,0,0,0,0,0,0,0,0,0,0,0,0,0,0],"id":46,"left_children":[1,3,5,7,9,11,13,15,17,19,21,23,25,27,29,31,33,-1,-1,35,-1,37,-1,-1,39,-1,41,-1,-1,-1,-1,-1,43,45,-1,-1,47,-1,49,51,-1,-1,-1,-1,-1,-1,-1,-1,-1,-1,-1,-1,-1],"loss_changes":[7.054528E1,2.4872993E1,8.50053E0,2.2056862E1,3.5481281E0,1.045694E1,9.866829E-1,1.7959595E1,1.0078039E0,1.6997424E0,1.5422878E0,1.4331171E1,1.4401436E-1,4.1703386E0,1.3803482E-1,1.4761707E1,3.4639587E0,0E0,0E0,1.6417929E0,0E0,4.412236E0,0E0,0E0,5.5175114E0,0E0,1.8207574E0,0E0,0E0,0E0,0E0,0E0,4.6055346E0,1.2972405E0,0E0,0E0,2.9102015E-1,0E0,1.8144598E0,3.0517368E0,0E0,0E0,0E0,0E0,0E0,0E0,0E0,0E0,0E0,0E0,0E0,0E0,0E0],"parents":[2147483647,0,0,1,1,2,2,3,3,4,4,5,5,6,6,7,7,8,8,9,9,10,10,11,11,12,12,13,13,14,14,15,15,16,16,19,19,21,21,24,24,26,26,32,32,33,33,36,36,38,38,39,39],"right_children":[2,4,6,8,10,12,14,16,18,20,22,24,26,28,30,32,34,-1,-1,36,-1,38,-1,-1,40,-1,42,-1,-1,-1,-1,-1,44,46,-1,-1,48,-1,50,52,-1,-1,-1,-1,-1,-1,-1,-1,-1,-1,-1,-1,-1],"split_conditions":[5.26E1,2.13E2,1.81E2,2.568E3,3.096E2,8.56314E4,1E0,1.381E3,1E0,-1.802E2,4.5E1,3.008E2,2.3577235E0,5.92E1,2.976E2,3.016E2,9.98E1,-6.517458E-2,-7.139113E-3,3.086E2,1.902703E-2,1.519E3,-7.856115E-2,2.4025904E-2,1.4324E3,-6.1808735E-2,1.381E3,1.8374272E-2,-6.2439293E-2,-2.3146378E-2,-6.940534E-2,2.3850664E-2,3.119E2,2.2118403E-1,2.5429348E-2,-5.126698E-2,1.751E3,1.8347094E-2,2.992E2,3.105E2,1.9737577E-2,1.6498772E-2,-5.2911103E-2,-5.0825324E-2,1.8239034E-2,6.0352064E-3,-3.654329E-2,-1.11001395E-2,1.5162048E-2,-2.7106989E-3,-6.4269096E-2,-6.892044E-2,-2.7678965E-2],"split_indices":[3,4,4,5,1,8,16,2,15,12,3,0,6,3,0,0,13,0,0,1,0,2,0,0,11,0,2,0,0,0,0,0,1,9,0,0,5,0,0,1,0,0,0,0,0,0,0,0,0,0,0,0,0],"split_type":[0,0,0,0,0,0,0,0,0,0,0,0,0,0,0,0,0,0,0,0,0,0,0,0,0,0,0,0,0,0,0,0,0,0,0,0,0,0,0,0,0,0,0,0,0,0,0,0,0,0,0,0,0],"sum_hessian":[3.70487E2,2.8405853E2,8.642848E1,2.6319846E2,2.0860062E1,5.8627865E1,2.7800613E1,2.5468173E2,8.516728E0,6.799961E0,1.40601015E1,4.0667694E1,1.7960169E1,5.0163746E0,2.2784239E1,3.2997486E1,2.2168425E2,7.404752E0,1.1119764E0,4.1766834E0,2.6232774E0,9.720169E0,4.3399324E0,1.5193802E1,2.5473894E1,1.5791778E1,2.1683912E0,2.0726345E0,2.9437404E0,1.4503087E0,2.1333931E1,1.3424703E1,1.9572784E1,1.6408792E1,2.0527545E2,1.8691857E0,2.3074975E0,2.3429267E0,7.3772426E0,2.2169598E1,3.304296E0,1.0461245E0,1.1222668E0,1.7306011E1,2.266772E0,1.5399479E1,1.0093133E0,1.0009087E0,1.3065889E0,1.5621829E0,5.8150597E0,7.841942E0,1.4327656E1],"tree_param":{"num_deleted":"0","num_feature":"18","num_nodes":"53","size_leaf_vector":"1"}},{"base_weights":[1.1961848E-2,-4.7763896E-1,8.6208135E-1,1.0383845E-2,-2.4718909E-2,-3.7508383E-1,1.4475057E0,-2.2823831E-2,1.1751094E-2,8.65461E-2,1.6539062E0,-1.7153522E-2,3.185358E-2,1.7236422E0,1.02435555E-2,2.4656354E-2,1.7957608E0,2.8917203E-2,9.279316E-2],"categories":[],"categories_nodes":[],"categories_segments":[],"categories_sizes":[],"default_left":[0,0,0,0,0,0,0,0,0,0,0,0,0,0,0,0,0,0,0],"id":47,"left_children":[1,3,5,-1,-1,7,9,-1,-1,11,13,-1,-1,15,-1,-1,17,-1,-1],"loss_changes":[3.8511257E1,7.7638054E-1,2.502948E1,0E0,0E0,6.859853E-1,6.3611717E0,0E0,0E0,1.1893182E0,1.6729927E0,0E0,0E0,8.0013275E-1,0E0,0E0,2.1188736E-1,0E0,0E0],"parents":[2147483647,0,0,1,1,2,2,5,5,6,6,9,9,10,10,13,13,16,16],"right_children":[2,4,6,-1,-1,8,10,-1,-1,12,14,-1,-1,16,-1,-1,18,-1,-1],"split_conditions":[1.82E2,1.27E3,4.87E1,1.0383845E-2,-2.4718909E-2,6.70185E4,1E0,-2.2823831E-2,1.1751094E-2,5.92E1,8.56314E4,-1.7153522E-2,3.185358E-2,2.976E2,1.02435555E-2,2.4656354E-2,6.95554E4,2.8917203E-2,9.279316E-2],"split_indices":[4,2,3,0,0,8,16,0,0,3,8,0,0,0,0,0,8,0,0],"split_type":[0,0,0,0,0,0,0,0,0,0,0,0,0,0,0,0,0,0,0],"sum_hessian":[9.053708E1,5.7728333E1,3.280875E1,1.1044554E0,5.662388E1,1.0653731E1,2.2155018E1,9.621903E0,1.0318288E0,3.1044264E0,1.905059E1,1.9553502E0,1.1490762E0,1.7995052E1,1.0555379E0,1.4301956E0,1.6564857E1,1.2790674E0,1.52857895E1],"tree_param":{"num_deleted":"0","num_feature":"18","num_nodes":"19","size_leaf_vector":"1"}},{"base_weights":[-5.081749E-4,-3.0035767E-1,1.373287E0,-2.4891777E-2,8.174121E-2,1.4149352E0,2.34422E-2,9.795109E-1,8.241113E-2,2.7316558E-1,7.4658506E-2,5.8319665E-2,-2.3181124E-2],"categories":[],"categories_nodes":[],"categories_segments":[],"categories_sizes":[],"default_left":[0,0,0,0,0,0,0,0,0,0,0,0,0],"id":48,"left_children":[1,3,5,-1,-1,7,-1,9,-1,11,-1,-1,-1],"loss_changes":[4.580187E1,3.5691765E1,8.698654E-2,0E0,0E0,2.6963043E-1,0E0,2.8340788E0,0E0,3.8221474E0,0E0,0E0,0E0],"parents":[2147483647,0,0,1,1,2,2,5,5,7,7,9,9],"right_children":[2,4,6,-1,-1,8,-1,10,-1,12,-1,-1,-1],"split_conditions":[8.56314E4,2.568E3,1E0,-2.4891777E-2,8.174121E-2,8.76416E4,2.34422E-2,1.353E3,8.241113E-2,1.39E3,7.4658506E-2,5.8319665E-2,-2.3181124E-2],"split_indices":[8,5,15,0,0,8,0,2,0,5,0,0,0],"split_type":[0,0,0,0,0,0,0,0,0,0,0,0,0],"sum_hessian":[1.0918666E2,9.02662E1,1.8920462E1,8.258179E1,7.6844096E0,1.7547976E1,1.3724868E0,7.9354362E0,9.612539E0,3.9859967E0,3.9494398E0,1.5381628E0,2.447834E0],"tree_param":{"num_deleted":"0","num_feature":"18","num_nodes":"13","size_leaf_vector":"1"}},{"base_weights":[4.687913E-2,1.3425275E0,-2.4439797E-2,1.5785065E0,3.1899577E-1,1.0359115E-2,1.6923271E0,3.6802262E-2,-4.1160826E-2,3.511792E-2,1.8124076E0,-1.39373485E-2,1.2122001E-2,3.289009E-2,2.0267231E0,2.9513264E-2,1.1106012E-1],"categories":[],"categories_nodes":[],"categories_segments":[],"categories_sizes":[],"default_left":[0,0,0,0,0,0,0,0,0,0,0,0,0,0,0,0,0],"id":49,"left_children":[1,3,-1,5,7,-1,9,-1,11,-1,13,-1,-1,-1,15,-1,-1],"loss_changes":[3.7740246E1,3.3358612E0,0E0,1.6261253E0,6.658827E-1,0E0,1.0057831E-1,0E0,2.8438506E-1,0E0,1.0601006E0,0E0,0E0,0E0,8.335762E-1,0E0,0E0],"parents":[2147483647,0,0,1,1,3,3,4,4,6,6,8,8,10,10,14,14],"right_children":[2,4,-1,6,8,-1,10,-1,12,-1,14,-1,-1,-1,16,-1,-1],"split_conditions":[9.98E1,6.58812E4,-2.4439797E-2,2.978E2,3.6745408E0,1.0359115E-2,4.65766E4,3.6802262E-2,1.656E3,3.511792E-2,2.992E2,-1.39373485E-2,1.2122001E-2,3.289009E-2,3.097E2,2.9513264E-2,1.1106012E-1],"split_indices":[13,8,0,0,6,0,8,0,5,0,0,0,0,0,1,0,0],"split_type":[0,0,0,0,0,0,0,0,0,0,0,0,0,0,0,0,0],"sum_hessian":[5.2431606E1,1.4896032E1,3.7535576E1,1.1664519E1,3.2315133E0,1.1101047E0,1.0554414E1,1.0138395E0,2.2176738E0,1.8826348E0,8.67178E0,1.2160473E0,1.0016265E0,1.9947195E0,6.67706E0,1.2773603E0,5.3996997E0],"tree_param":{"num_deleted":"0","num_feature":"18","num_nodes":"17","size_leaf_vector":"1"}},{"base_weights":[-2.0181332E-3,7.6275176E-1,-2.4912534E-2,-3.94948E-1,1.1161681E0,-2.316154E-2,1.5700428E-3,7.587592E-2,8.357229E-1,-2.2825977E-2,1.1738341E0,1.4772761E0,4.8877925E-1,7.907549E-2,7.5316126E-3,-2.099694E-2,6.7079104E-2],"categories":[],"categories_nodes":[],"categories_segments":[],"categories_sizes":[],"default_left":[0,0,0,0,0,0,0,0,0,0,0,0,0,0,0,0,0],"id":50,"left_children":[1,3,-1,5,7,-1,-1,-1,9,-1,11,13,15,-1,-1,-1,-1],"loss_changes":[5.2324974E1,2.2640846E1,0E0,4.0548253E-1,3.4400558E0,0E0,0E0,0E0,1.226716E1,0E0,3.760048E0,1.7597008E0,6.8508472E0,0E0,0E0,0E0,0E0],"parents":[2147483647,0,0,1,1,3,3,4,4,8,8,10,10,11,11,12,12],"right_children":[2,4,-1,6,8,-1,-1,-1,10,-1,12,14,16,-1,-1,-1,-1],"split_conditions":[1.381E3,3.014E2,-2.4912534E-2,3.008E2,3.105E2,-2.316154E-2,1.5700428E-3,7.587592E-2,3.021E2,-2.2825977E-2,3.115E2,1.518E3,3.032E2,7.907549E-2,7.5316126E-3,-2.099694E-2,6.7079104E-2],"split_indices":[2,0,0,0,1,0,0,0,0,0,1,5,0,0,0,0,0],"split_type":[0,0,0,0,0,0,0,0,0,0,0,0,0,0,0,0,0],"sum_hessian":[1.3587596E2,5.325886E1,8.2617096E1,1.24285755E1,4.0830284E1,1.0638274E1,1.7903011E0,1.4980423E1,2.5849863E1,5.28825E0,2.0561613E1,1.3448307E1,7.113305E0,1.2290533E1,1.1577744E0,3.6894884E0,3.4238167E0],"tree_param":{"num_deleted":"0","num_feature":"18","num_nodes":"17","size_leaf_vector":"1"}},{"base_weights":[-9.7446935E-3,2.2700231E-1,-7.467246E-1,3.1205228E-1,-7.4003726E-1,-5.336127E-1,-1.1511075E0,-1.0783268E0,3.6704493E-1,-1.6551177E-1,-9.758018E-1,-2.571986E-1,-1.0961195E0,-1.1823363E0,-7.5563886E-3,-5.852464E-2,-7.052531E-3,-2.9294455E-1,4.7120598E-1,-5.020144E-1,1.8870534E-2,-6.5392554E-1,-7.217477E-2,2.393101E-2,-6.691258E-1,-5.7502594E-2,-4.6765643E-1,-1.2126886E0,-1.847243E-2,2.376249E-2,-7.801698E-1,2.983018E-2,2.539492E-2,-4.8908487E-2,7.5909294E-2,1.8408395E-2,-9.679047E-1,-8.261655E-1,1.9534148E-2,1.6496805E-2,-5.008414E-2,-6.711925E-1,-6.3739546E-2,-4.6644963E-2,1.8146599E-2,5.9976494E-3,-3.514018E-2,-1.09786345E-2,1.5076798E-2,-2.5635017E-3,-5.7927072E-2,-6.3390605E-2,-2.5798187E-2,1.4788195E-2,-5.144341E-2],"categories":[],"categories_nodes":[],"categories_segments":[],"categories_sizes":[],"default_left":[0,0,0,0,0,0,0,0,0,0,0,0,0,0,0,0,0,0,0,0,0,0,0,0,0,0,0,0,0,0,0,0,0,0,0,0,0,0,0,0,0,0,0,0,0,0,0,0,0,0,0,0,0,0,0],"id":51,"left_children":[1,3,5,7,9,11,13,15,17,19,21,23,25,27,-1,-1,-1,29,31,33,-1,35,-1,-1,37,-1,39,41,-1,-1,43,45,-1,-1,47,-1,49,51,-1,-1,-1,53,-1,-1,-1,-1,-1,-1,-1,-1,-1,-1,-1,-1,-1],"loss_changes":[6.3840973E1,2.3010523E1,7.052166E0,1.9914679E1,2.9114199E0,9.066069E0,7.5310135E-1,6.9587326E-1,1.7070915E1,1.615426E0,1.4468069E0,1.2935083E1,1.23205185E-1,2.62249E-1,0E0,0E0,0E0,1.3168113E1,3.436386E0,1.5183352E0,0E0,3.961928E0,0E0,0E0,4.832878E0,0E0,1.7048535E0,6.2862396E-2,0E0,0E0,4.0573235E0,1.2344818E0,0E0,0E0,2.8611764E-1,0E0,1.490674E0,2.6232471E0,0E0,0E0,0E0,2.0066671E0,0E0,0E0,0E0,0E0,0E0,0E0,0E0,0E0,0E0,0E0,0E0,0E0,0E0],"parents":[2147483647,0,0,1,1,2,2,3,3,4,4,5,5,6,6,7,7,8,8,9,9,10,10,11,11,12,12,13,13,17,17,18,18,19,19,21,21,24,24,26,26,27,27,30,30,31,31,34,34,36,36,37,37,41,41],"right_children":[2,4,6,8,10,12,14,16,18,20,22,24,26,28,-1,-1,-1,30,32,34,-1,36,-1,-1,38,-1,40,42,-1,-1,44,46,-1,-1,48,-1,50,52,-1,-1,-1,54,-1,-1,-1,-1,-1,-1,-1,-1,-1,-1,-1,-1,-1],"split_conditions":[5.26E1,2.13E2,1.81E2,3.3782E4,3.096E2,8.56314E4,1E0,1.259635E-1,1.381E3,-1.802E2,4.5E1,3.008E2,2.3577235E0,1.407E3,-7.5563886E-3,-5.852464E-2,-7.052531E-3,3.016E2,9.98E1,3.086E2,1.8870534E-2,1.519E3,-7.217477E-2,2.393101E-2,1.4324E3,-5.7502594E-2,1.381E3,7.33248E4,-1.847243E-2,2.376249E-2,3.119E2,2.2118403E-1,2.539492E-2,-4.8908487E-2,1.751E3,1.8408395E-2,2.992E2,3.105E2,1.9534148E-2,1.6496805E-2,-5.008414E-2,1.95E2,-6.3739546E-2,-4.6644963E-2,1.8146599E-2,5.9976494E-3,-3.514018E-2,-1.09786345E-2,1.5076798E-2,-2.5635017E-3,-5.7927072E-2,-6.3390605E-2,-2.5798187E-2,1.4788195E-2,-5.144341E-2],"split_indices":[3,4,4,8,1,8,15,9,2,12,3,0,6,2,0,0,0,0,13,1,0,2,0,0,11,0,2,8,0,0,1,9,0,0,5,0,0,1,0,0,0,4,0,0,0,0,0,0,0,0,0,0,0,0,0],"split_type":[0,0,0,0,0,0,0,0,0,0,0,0,0,0,0,0,0,0,0,0,0,0,0,0,0,0,0,0,0,0,0,0,0,0,0,0,0,0,0,0,0,0,0,0,0,0,0,0,0,0,0,0,0,0,0],"sum_hessian":[3.6392596E2,2.7596658E2,8.7959366E1,2.5428024E2,2.1686335E1,5.912157E1,2.8837793E1,8.966694E0,2.4531355E2,6.8051496E0,1.4881186E1,4.0618835E1,1.8502737E1,2.778764E1,1.050154E0,7.9373593E0,1.029335E0,3.3191547E1,2.1212201E2,4.2477484E0,2.5574012E0,1.0235262E1,4.645924E0,1.4520034E1,2.6098803E1,1.6276045E1,2.2266917E0,2.6313307E1,1.4743317E0,1.2891096E1,2.0300451E1,1.6419817E1,1.957022E2,1.9492167E0,2.2985318E0,2.3647447E0,7.8705173E0,2.2922644E1,3.176159E0,1.0462468E0,1.1804448E0,3.9221673E0,2.239114E1,1.8070011E1,2.2304404E0,1.5365897E1,1.0539194E0,1.0068228E0,1.2917091E0,1.5735228E0,6.296994E0,8.183876E0,1.4738767E1,1.105798E0,2.8163693E0],"tree_param":{"num_deleted":"0","num_feature":"18","num_nodes":"55","size_leaf_vector":"1"}},{"base_weights":[1.2230371E-2,-4.764895E-1,7.972302E-1,1.00478325E-2,-2.4695814E-2,-3.723479E-1,1.3061768E0,-2.2772675E-2,1.2156855E-2,8.059369E-2,1.4809219E0,-1.7011544E-2,2.977239E-2,1.5395631E0,9.718494E-3,1.0270233E-2,1.5987879E0,2.6818825E-2,8.246838E-2],"categories":[],"categories_nodes":[],"categories_segments":[],"categories_sizes":[],"default_left":[0,0,0,0,0,0,0,0,0,0,0,0,0,0,0,0,0,0,0],"id":52,"left_children":[1,3,5,-1,-1,7,9,-1,-1,11,13,-1,-1,15,-1,-1,17,-1,-1],"loss_changes":[3.506207E1,7.643995E-1,2.1356394E1,0E0,0E0,6.9430995E-1,5.160202E0,0E0,0E0,1.0982372E0,1.3241806E0,0E0,0E0,1.2863121E0,0E0,0E0,1.5885162E-1,0E0,0E0],"parents":[2147483647,0,0,1,1,2,2,5,5,6,6,9,9,10,10,13,13,16,16],"right_children":[2,4,6,-1,-1,8,10,-1,-1,12,14,-1,-1,16,-1,-1,18,-1,-1],"split_conditions":[1.82E2,1.27E3,4.87E1,1.00478325E-2,-2.4695814E-2,6.71112E4,1E0,-2.2772675E-2,1.2156855E-2,5.92E1,8.56314E4,-1.7011544E-2,2.977239E-2,3.082E2,9.718494E-3,1.0270233E-2,6.95554E4,2.6818825E-2,8.246838E-2],"split_indices":[4,2,3,0,0,8,16,0,0,3,8,0,0,1,0,0,8,0,0],"split_type":[0,0,0,0,0,0,0,0,0,0,0,0,0,0,0,0,0,0,0],"sum_hessian":[8.9401794E1,5.5340984E1,3.406081E1,1.12378E0,5.4217205E1,1.040898E1,2.3651829E1,9.399787E0,1.0091938E0,3.133823E0,2.0518005E1,1.9110031E0,1.2228198E0,1.9435476E1,1.0825299E0,1.0160103E0,1.8419466E1,1.3644373E0,1.7055029E1],"tree_param":{"num_deleted":"0","num_feature":"18","num_nodes":"19","size_leaf_vector":"1"}},{"base_weights":[5.621546E-5,-2.9665717E-1,1.2568214E0,7.338997E-2,-2.4872892E-2,1.2934389E0,2.2086564E-2,9.053476E-1,7.494679E-2,2.4812546E-1,6.865662E-2,5.4724615E-2,-2.3295796E-2],"categories":[],"categories_nodes":[],"categories_segments":[],"categories_sizes":[],"default_left":[0,0,0,0,0,0,0,0,0,0,0,0,0],"id":53,"left_children":[1,3,5,-1,-1,7,-1,9,-1,11,-1,-1,-1],"loss_changes":[4.0822567E1,3.2108845E1,5.2719116E-2,0E0,0E0,1.9743729E-1,0E0,2.5102153E0,0E0,3.57781E0,0E0,0E0,0E0],"parents":[2147483647,0,0,1,1,2,2,5,5,7,7,9,9],"right_children":[2,4,6,-1,-1,8,-1,10,-1,12,-1,-1,-1],"split_conditions":[8.56314E4,3.3782E4,1E0,7.338997E-2,-2.4872892E-2,8.76416E4,2.2086564E-2,1.353E3,7.494679E-2,1.39E3,6.865662E-2,5.4724615E-2,-2.3295796E-2],"split_indices":[8,8,15,0,0,8,0,2,0,5,0,0,0],"split_type":[0,0,0,0,0,0,0,0,0,0,0,0,0],"sum_hessian":[1.0747365E2,8.7564285E1,1.9909359E1,8.302204E0,7.9262085E1,1.849176E1,1.417599E0,8.2731495E0,1.0218612E1,4.0763874E0,4.1967616E0,1.6215361E0,2.4548512E0],"tree_param":{"num_deleted":"0","num_feature":"18","num_nodes":"13","size_leaf_vector":"1"}},{"base_weights":[5.1405396E-2,1.2254231E0,-2.441002E-2,1.4296435E0,2.997817E-1,9.934147E-3,1.5256181E0,-5.6011267E-2,3.692947E-2,1.8009093E0,9.175388E-1,-1.4451359E-2,1.2098093E-2,9.8390925E-1,2.44827E0,1.3860573E0,-1.5464959E-2,8.690519E-2,1.8094761E-2,1.504559E-1,4.6996284E-2,8.428023E-3,8.9215785E-2],"categories":[],"categories_nodes":[],"categories_segments":[],"categories_sizes":[],"default_left":[0,0,0,0,0,0,0,0,0,0,0,0,0,0,0,0,0,0,0,0,0,0,0],"id":54,"left_children":[1,3,-1,5,7,-1,9,11,-1,13,15,-1,-1,17,19,21,-1,-1,-1,-1,-1,-1,-1],"loss_changes":[3.412683E1,2.7756844E0,0E0,1.3061447E0,7.1725243E-1,0E0,4.378357E-1,3.0046406E-1,0E0,1.5877705E0,3.8372273E0,0E0,0E0,1.7224555E0,1.6979408E-1,1.8684044E0,0E0,0E0,0E0,0E0,0E0,0E0,0E0],"parents":[2147483647,0,0,1,1,3,3,4,4,6,6,7,7,9,9,10,10,13,13,14,14,15,15],"right_children":[2,4,-1,6,8,-1,10,12,-1,14,16,-1,-1,18,20,22,-1,-1,-1,-1,-1,-1,-1],"split_conditions":[9.98E1,6.58812E4,-2.441002E-2,2.978E2,7.70954E4,9.934147E-3,3.011E2,1.439E3,3.692947E-2,3.003E2,1.712E3,-1.4451359E-2,1.2098093E-2,2.99E1,1E0,3.108E2,-1.5464959E-2,8.690519E-2,1.8094761E-2,1.504559E-1,4.6996284E-2,8.428023E-3,8.9215785E-2],"split_indices":[13,8,0,0,8,0,0,2,0,0,2,0,0,3,16,1,0,0,0,0,0,0,0],"split_type":[0,0,0,0,0,0,0,0,0,0,0,0,0,0,0,0,0,0,0,0,0,0,0],"sum_hessian":[5.1925365E1,1.5950651E1,3.5974716E1,1.2621527E1,3.3291247E0,1.1349474E0,1.1486579E1,2.3202116E0,1.0089129E0,6.556615E0,4.9299645E0,1.3188721E0,1.0013396E0,4.0125117E0,2.5441031E0,3.4736342E0,1.4563301E0,1.0025724E0,3.0099392E0,1.1292375E0,1.4148655E0,1.2070042E0,2.2666302E0],"tree_param":{"num_deleted":"0","num_feature":"18","num_nodes":"23","size_leaf_vector":"1"}},{"base_weights":[-1.669462E-3,7.1142846E-1,-2.4892287E-2,-3.9237073E-1,1.0274341E0,-2.3097351E-2,1.3389069E-3,1.0755771E0,-1.4510259E-2,8.718416E-1,7.934838E-2,1.1339045E0,-2.2431541E-2,3.2802526E-2,6.9100276E-2],"categories":[],"categories_nodes":[],"categories_segments":[],"categories_sizes":[],"default_left":[0,0,0,0,0,0,0,0,0,0,0,0,0,0,0],"id":55,"left_children":[1,3,-1,5,7,-1,-1,9,-1,11,-1,13,-1,-1,-1],"loss_changes":[4.803839E1,1.9834661E1,0E0,3.9506483E-1,3.077015E0,0E0,0E0,3.019619E0,0E0,1.1734779E1,0E0,2.336113E0,0E0,0E0,0E0],"parents":[2147483647,0,0,1,1,3,3,4,4,7,7,9,9,11,11],"right_children":[2,4,-1,6,8,-1,-1,10,-1,12,-1,14,-1,-1,-1],"split_conditions":[1.381E3,3.014E2,-2.4892287E-2,3.008E2,3.123E2,-2.3097351E-2,1.3389069E-3,3.027E2,-1.4510259E-2,3.111E2,7.934838E-2,3.02E2,-2.2431541E-2,3.2802526E-2,6.9100276E-2],"split_indices":[2,0,0,0,1,0,0,0,0,1,0,0,0,0,0],"split_type":[0,0,0,0,0,0,0,0,0,0,0,0,0,0,0],"sum_hessian":[1.337688E2,5.470856E1,7.906024E1,1.2122688E1,4.2585876E1,1.0309297E1,1.8133912E0,4.1261982E1,1.323894E0,3.144091E1,9.821071E0,2.6352287E1,5.0886235E0,1.0251572E1,1.6100716E1],"tree_param":{"num_deleted":"0","num_feature":"18","num_nodes":"15","size_leaf_vector":"1"}},{"base_weights":[-1.1017256E-2,2.2163756E-1,-7.051202E-1,3.0774164E-1,-6.9654626E-1,-1.0512643E0,-4.9820742E-1,3.6320364E-1,-9.946947E-1,-9.963346E-1,-2.906803E-1,-5.184721E-3,-1.0838954E0,-2.4461359E-1,-1.0099789E0,-2.758585E-1,4.6902767E-1,-5.486464E-2,-5.2891984E-3,-5.9335625E-1,-7.065689E-2,8.910774E-2,-9.248276E-1,-1.1109716E0,-7.4956096E-3,4.1806945E-1,-6.628296E-1,-4.0094855E-1,-5.5439323E-2,2.367229E-2,-7.1963155E-1,2.8284358E-2,2.5366087E-2,-9.1286874E-1,1.6924849E-2,2.2516092E-2,-5.5224773E-2,-6.7513785E-3,-5.870542E-2,-6.9805217E-1,-5.993676E-2,2.3791354E-2,-2.8030693E-3,-7.7239215E-1,1.7507894E-2,6.880019E-3,-4.677201E-2,-4.284936E-2,1.7995967E-2,5.8825905E-3,-3.4058996E-2,-2.3666447E-2,-7.982417E-2,9.242207E-3,-6.535178E-2,-4.1891176E-2,1.3660878E-2],"categories":[],"categories_nodes":[],"categories_segments":[],"categories_sizes":[],"default_left":[0,0,0,0,0,0,0,0,0,0,0,0,0,0,0,0,0,0,0,0,0,0,0,0,0,0,0,0,0,0,0,0,0,0,0,0,0,0,0,0,0,0,0,0,0,0,0,0,0,0,0,0,0,0,0,0,0],"id":56,"left_children":[1,3,5,7,9,11,13,15,17,19,21,-1,23,25,27,29,31,-1,-1,33,-1,35,37,39,-1,41,43,45,-1,-1,47,49,-1,51,-1,-1,-1,-1,-1,53,-1,-1,-1,55,-1,-1,-1,-1,-1,-1,-1,-1,-1,-1,-1,-1,-1],"loss_changes":[5.7990765E1,2.1480667E1,5.9327126E0,1.817625E1,2.5537586E0,9.0258026E-1,7.3220186E0,1.6176344E1,8.2698727E-1,1.3498802E0,2.813522E0,0E0,6.332512E-1,1.1450742E1,6.9906044E-1,1.1759391E1,3.4277573E0,0E0,0E0,2.794564E0,0E0,3.94846E0,6.950333E-1,2.714157E-1,0E0,4.706483E-1,3.056697E0,1.3432367E0,0E0,0E0,3.5652714E0,1.1809527E0,0E0,1.193553E0,0E0,0E0,0E0,0E0,0E0,4.410941E0,0E0,0E0,0E0,1.8001566E0,0E0,0E0,0E0,0E0,0E0,0E0,0E0,0E0,0E0,0E0,0E0,0E0,0E0],"parents":[2147483647,0,0,1,1,2,2,3,3,4,4,5,5,6,6,7,7,8,8,9,9,10,10,12,12,13,13,14,14,15,15,16,16,19,19,21,21,22,22,23,23,25,25,26,26,27,27,30,30,31,31,33,33,39,39,43,43],"right_children":[2,4,6,8,10,12,14,16,18,20,22,-1,24,26,28,30,32,-1,-1,34,-1,36,38,40,-1,42,44,46,-1,-1,48,50,-1,52,-1,-1,-1,-1,-1,54,-1,-1,-1,56,-1,-1,-1,-1,-1,-1,-1,-1,-1,-1,-1,-1,-1],"split_conditions":[5.26E1,2.13E2,1.254E2,2.568E3,1.3556561E0,3.08E2,8.56314E4,1.381E3,1E0,4.53E1,7.0977917E0,-5.184721E-3,1E0,3.014E2,-7.94E1,3.016E2,9.98E1,-5.486464E-2,-5.2891984E-3,5.98444E4,-7.065689E-2,3.019E2,3.096E2,5.54E1,-7.4956096E-3,6.15E1,1.4324E3,3.011E2,-5.5439323E-2,2.367229E-2,3.119E2,2.2118403E-1,2.5366087E-2,-1.891E2,1.6924849E-2,2.2516092E-2,-5.5224773E-2,-6.7513785E-3,-5.870542E-2,2.06E2,-5.993676E-2,2.3791354E-2,-2.8030693E-3,3.123E2,1.7507894E-2,6.880019E-3,-4.677201E-2,-4.284936E-2,1.7995967E-2,5.8825905E-3,-3.4058996E-2,-2.3666447E-2,-7.982417E-2,9.242207E-3,-6.535178E-2,-4.1891176E-2,1.3660878E-2],"split_indices":[3,4,13,5,14,1,8,2,15,3,6,0,15,0,12,0,13,0,0,8,0,0,1,3,0,3,11,0,0,0,1,9,0,12,0,0,0,0,0,4,0,0,0,1,0,0,0,0,0,0,0,0,0,0,0,0,0],"split_type":[0,0,0,0,0,0,0,0,0,0,0,0,0,0,0,0,0,0,0,0,0,0,0,0,0,0,0,0,0,0,0,0,0,0,0,0,0,0,0,0,0,0,0,0,0,0,0,0,0,0,0,0,0,0,0,0,0],"sum_hessian":[3.5713843E2,2.679916E2,8.914682E1,2.4562279E2,2.2368813E1,3.1825418E1,5.7321404E1,2.3628226E2,9.340535E0,1.2028938E1,1.0339875E1,1.1985583E0,3.062686E1,3.931697E1,1.8004435E1,3.3339733E1,2.0294252E2,8.16384E0,1.1766951E0,7.348127E0,4.6808114E0,7.004434E0,3.335441E0,2.9579845E1,1.047014E0,1.521246E1,2.4104511E1,3.2192812E0,1.4785153E1,1.2376064E1,2.0963669E1,1.636212E1,1.865804E2,5.487093E0,1.8610338E0,5.8552194E0,1.1492149E0,1.1700437E0,2.1653974E0,6.7544775E0,2.2825367E1,1.3557354E1,1.6551056E0,2.1966204E1,2.1383066E0,1.9734298E0,1.2458515E0,1.8780334E1,2.1833348E0,1.5272493E1,1.089627E0,4.369836E0,1.1172574E0,3.0414674E0,3.71301E0,2.085959E1,1.1066134E0],"tree_param":{"num_deleted":"0","num_feature":"18","num_nodes":"57","size_leaf_vector":"1"}},{"base_weights":[1.2202357E-2,-2.467418E-2,7.154195E-1,-3.8225943E-1,1.2019048E0,-2.2967605E-2,1.22239385E-2,5.7361055E-2,1.362307E0,-1.8036522E-2,3.5050057E-2,1.4128121E0,9.31946E-3,9.488847E-3,1.4650905E0,4.57022E-2,8.126142E-2],"categories":[],"categories_nodes":[],"categories_segments":[],"categories_sizes":[],"default_left":[0,0,0,0,0,0,0,0,0,0,0,0,0,0,0,0,0],"id":57,"left_children":[1,-1,3,5,7,-1,-1,9,11,-1,-1,13,-1,-1,15,-1,-1],"loss_changes":[3.208777E1,0E0,2.0611624E1,7.0890546E-1,4.7667427E0,0E0,0E0,1.4067193E0,1.108715E0,0E0,0E0,1.1285362E0,0E0,0E0,3.6302567E-1,0E0,0E0],"parents":[2147483647,0,0,2,2,3,3,4,4,7,7,8,8,11,11,14,14],"right_children":[2,-1,4,6,8,-1,-1,10,12,-1,-1,14,-1,-1,16,-1,-1],"split_conditions":[1.77E2,-2.467418E-2,4.87E1,6.75903E4,1E0,-2.2967605E-2,1.22239385E-2,6.02E1,8.56314E4,-1.8036522E-2,3.5050057E-2,3.082E2,9.31946E-3,9.488847E-3,7.33248E4,4.57022E-2,8.126142E-2],"split_indices":[4,0,3,8,16,0,0,3,8,0,0,1,0,0,8,0,0],"split_type":[0,0,0,0,0,0,0,0,0,0,0,0,0,0,0,0,0],"sum_hessian":[8.824098E1,5.1503136E1,3.6737843E1,1.1347718E1,2.5390125E1,1.034259E1,1.0051275E0,3.287793E0,2.2102333E1,2.2595775E0,1.0282154E0,2.099898E1,1.1033527E0,1.050604E0,1.9948376E1,6.002202E0,1.3946174E1],"tree_param":{"num_deleted":"0","num_feature":"18","num_nodes":"17","size_leaf_vector":"1"}},{"base_weights":[6.3015666E-4,-2.9312974E-1,1.161799E0,-2.4858354E-2,6.671916E-2,1.1939212E0,2.1081714E-2,8.430612E-1,6.8901055E-2,2.2622804E-1,6.37252E-2,5.1568028E-2,-2.3369629E-2],"categories":[],"categories_nodes":[],"categories_segments":[],"categories_sizes":[],"default_left":[0,0,0,0,0,0,0,0,0,0,0,0,0],"id":58,"left_children":[1,3,5,-1,-1,7,-1,9,-1,11,-1,-1,-1],"loss_changes":[3.6729485E1,2.9201399E1,1.3507843E-2,0E0,0E0,1.488781E-1,0E0,2.2555075E0,0E0,3.3580523E0,0E0,0E0,0E0],"parents":[2147483647,0,0,1,1,2,2,5,5,7,7,9,9],"right_children":[2,4,6,-1,-1,8,-1,10,-1,12,-1,-1,-1],"split_conditions":[8.56314E4,2.568E3,1E0,-2.4858354E-2,6.671916E-2,8.76416E4,2.1081714E-2,1.353E3,6.8901055E-2,1.39E3,6.37252E-2,5.1568028E-2,-2.3369629E-2],"split_indices":[8,5,15,0,0,8,0,2,0,5,0,0,0],"split_type":[0,0,0,0,0,0,0,0,0,0,0,0,0],"sum_hessian":[1.056796E2,8.4938805E1,2.0740805E1,7.609365E1,8.845154E0,1.9290567E1,1.450237E0,8.558683E0,1.0731884E1,4.149913E0,4.4087706E0,1.695226E0,2.4546866E0],"tree_param":{"num_deleted":"0","num_feature":"18","num_nodes":"13","size_leaf_vector":"1"}},{"base_weights":[5.767586E-2,1.1417029E0,-2.4379097E-2,1.299556E0,1.7636617E-1,8.9076266E-2,8.990224E-1,-1.5863007E-2,3.6981393E-2,1.070654E0,-1.3678463E-2,1.311927E0,2.4908224E-1,3.531767E-2,1.0372873E-1,-1.4317785E-2,3.6795344E-2],"categories":[],"categories_nodes":[],"categories_segments":[],"categories_sizes":[],"default_left":[0,0,0,0,0,0,0,0,0,0,0,0,0,0,0,0,0],"id":59,"left_children":[1,3,-1,5,7,-1,9,-1,-1,11,-1,13,15,-1,-1,-1,-1],"loss_changes":[3.1449429E1,2.4817352E0,0E0,1.3197479E0,1.251531E0,0E0,2.3624973E0,0E0,0E0,1.4917269E0,0E0,1.7014999E0,1.0753347E0,0E0,0E0,0E0,0E0],"parents":[2147483647,0,0,1,1,3,3,4,4,6,6,9,9,11,11,12,12],"right_children":[2,4,-1,6,8,-1,10,-1,-1,12,-1,14,16,-1,-1,-1,-1],"split_conditions":[9.98E1,4.81E1,-2.4379097E-2,1.3556561E0,-1.515E2,8.9076266E-2,2.19E2,-1.5863007E-2,3.6981393E-2,3.91E1,-1.3678463E-2,1.9840358E-1,4.34E1,3.531767E-2,1.0372873E-1,-1.4317785E-2,3.6795344E-2],"split_indices":[13,3,0,14,12,0,4,0,0,3,0,9,3,0,0,0,0],"split_type":[0,0,0,0,0,0,0,0,0,0,0,0,0,0,0,0,0],"sum_hessian":[5.1265438E1,1.6790455E1,3.4474983E1,1.41331625E1,2.6572928E0,4.8496327E0,9.28353E0,1.6489474E0,1.0083454E0,8.174035E0,1.1094953E0,5.857113E0,2.3169224E0,4.338417E0,1.5186955E0,1.2994741E0,1.0174482E0],"tree_param":{"num_deleted":"0","num_feature":"18","num_nodes":"17","size_leaf_vector":"1"}},{"base_weights":[-1.3611256E-3,6.648761E-1,-2.4871595E-2,-3.8962469E-1,9.488412E-1,-2.3034198E-2,1.3693398E-3,1.3128524E0,7.0140123E-1,2.156151E-2,6.800605E-2,-2.3168704E-2,9.980912E-1,1.0862089E0,-1.4382744E-2,3.2924093E-2,7.363612E-2],"categories":[],"categories_nodes":[],"categories_segments":[],"categories_sizes":[],"default_left":[0,0,0,0,0,0,0,0,0,0,0,0,0,0,0,0,0],"id":60,"left_children":[1,3,-1,5,7,-1,-1,9,11,-1,-1,-1,13,15,-1,-1,-1],"loss_changes":[4.418136E1,1.7454391E1,0E0,3.9231527E-1,3.1541214E0,0E0,0E0,1.2862968E-1,1.0512058E1,0E0,0E0,0E0,2.9742508E0,2.6998158E0,0E0,0E0,0E0],"parents":[2147483647,0,0,1,1,3,3,4,4,7,7,8,8,12,12,13,13],"right_children":[2,4,-1,6,8,-1,-1,10,12,-1,-1,-1,14,16,-1,-1,-1],"split_conditions":[1.381E3,3.014E2,-2.4871595E-2,3.008E2,3.105E2,-2.3034198E-2,1.3693398E-3,4.77E1,3.021E2,2.156151E-2,6.800605E-2,-2.3168704E-2,3.123E2,3.027E2,-1.4382744E-2,3.2924093E-2,7.363612E-2],"split_indices":[2,0,0,0,1,0,0,3,0,0,0,0,1,0,0,0,0],"split_type":[0,0,0,0,0,0,0,0,0,0,0,0,0,0,0,0,0],"sum_hessian":[1.3167932E2,5.605524E1,7.562408E1,1.1813578E1,4.424166E1,1.0004134E1,1.809444E0,1.6161133E1,2.808053E1,1.3375235E0,1.4823609E1,5.5865355E0,2.2493994E1,2.1196499E1,1.2974952E0,1.1345207E1,9.851292E0],"tree_param":{"num_deleted":"0","num_feature":"18","num_nodes":"17","size_leaf_vector":"1"}},{"base_weights":[-1.2148458E-2,2.1636595E-1,-6.675787E-1,3.0344057E-1,-6.5596706E-1,-9.834968E-1,-4.7495276E-1,3.5925114E-1,-9.1941005E-1,-1.497448E-1,-8.522534E-1,-4.93627E-3,-1.0132177E0,-2.3407702E-1,-9.520608E-1,-2.6077884E-1,4.6673483E-1,-5.078253E-2,-4.5200353E-3,-4.5275798E-1,1.8658344E-2,-5.744676E-1,-1.2533811E0,-1.037845E0,-7.233272E-3,4.138503E-1,-6.1889285E-1,-5.2231666E-2,-3.8108164E-1,2.3583738E-2,-6.6877943E-1,2.6156893E-2,2.5335317E-2,-5.7616692E-2,-2.0137366E-2,1.8470591E-2,-8.480387E-1,-1.0237832E-2,-7.095554E-2,-7.4118495E-1,-5.8010846E-2,2.3695432E-2,-3.3137554E-3,-7.178522E-1,1.7280342E-2,2.0407172E-2,-4.7796763E-2,-3.962332E-2,1.778686E-2,5.748134E-3,-3.316992E-2,-3.2040305E-2,1.8624432E-2,-1.537043E-3,-5.074296E-2,1.1327984E-2,-5.897189E-2,-5.3317618E-2,-2.2932388E-2],"categories":[],"categories_nodes":[],"categories_segments":[],"categories_sizes":[],"default_left":[0,0,0,0,0,0,0,0,0,0,0,0,0,0,0,0,0,0,0,0,0,0,0,0,0,0,0,0,0,0,0,0,0,0,0,0,0,0,0,0,0,0,0,0,0,0,0,0,0,0,0,0,0,0,0,0,0,0,0],"id":61,"left_children":[1,3,5,7,9,11,13,15,17,19,21,-1,23,25,27,29,31,-1,-1,33,-1,35,37,39,-1,41,43,-1,45,-1,47,49,-1,-1,51,-1,53,-1,-1,55,-1,-1,-1,57,-1,-1,-1,-1,-1,-1,-1,-1,-1,-1,-1,-1,-1,-1,-1],"loss_changes":[5.276258E1,2.0042992E1,5.0745773E0,1.6588463E1,2.259799E0,7.824669E-1,6.500825E0,1.5352531E1,7.6018524E-1,1.4248939E0,1.1854324E0,0E0,5.4206467E-1,1.0280205E1,6.2215424E-1,1.0597611E1,3.4232025E0,0E0,0E0,1.6323664E0,0E0,3.3989127E0,7.783451E-1,2.7659225E-1,0E0,4.8065877E-1,2.6937962E0,0E0,2.32611E0,0E0,3.1345196E0,1.1347771E0,0E0,0E0,1.3103966E0,0E0,1.2733183E0,0E0,0E0,5.3190703E0,0E0,0E0,0E0,1.6395617E0,0E0,0E0,0E0,0E0,0E0,0E0,0E0,0E0,0E0,0E0,0E0,0E0,0E0,0E0,0E0],"parents":[2147483647,0,0,1,1,2,2,3,3,4,4,5,5,6,6,7,7,8,8,9,9,10,10,12,12,13,13,14,14,15,15,16,16,19,19,21,21,22,22,23,23,25,25,26,26,28,28,30,30,31,31,34,34,36,36,39,39,43,43],"right_children":[2,4,6,8,10,12,14,16,18,20,22,-1,24,26,28,30,32,-1,-1,34,-1,36,38,40,-1,42,44,-1,46,-1,48,50,-1,-1,52,-1,54,-1,-1,56,-1,-1,-1,58,-1,-1,-1,-1,-1,-1,-1,-1,-1,-1,-1,-1,-1,-1,-1],"split_conditions":[5.26E1,2.13E2,1.254E2,2.568E3,3.096E2,3.08E2,8.56314E4,1.381E3,1E0,-1.802E2,4.5E1,-4.93627E-3,1E0,3.014E2,2.2201493E0,3.016E2,9.98E1,-5.078253E-2,-4.5200353E-3,1.699E3,1.8658344E-2,1.519E3,1E0,5.68E1,-7.233272E-3,8.2399E4,1.4324E3,-5.2231666E-2,3.011E2,2.3583738E-2,3.119E2,2.2118403E-1,2.5335317E-2,-5.7616692E-2,3.079E2,1.8470591E-2,2.992E2,-1.0237832E-2,-7.095554E-2,2.01E2,-5.8010846E-2,2.3695432E-2,-3.3137554E-3,3.105E2,1.7280342E-2,2.0407172E-2,-4.7796763E-2,-3.962332E-2,1.778686E-2,5.748134E-3,-3.316992E-2,-3.2040305E-2,1.8624432E-2,-1.537043E-3,