tree
version=v4
num_class=1
num_tree_per_iteration=1
label_index=0
max_feature_idx=7
objective=regression
feature_names=Column_0 Column_1 Column_2 Column_3 Column_4 Column_5 Column_6 Column_7
feature_infos=[102:540] [0:359.39999999999998] [0:195] [121.8:247] [0:32.200000000000003] [801:1145] [594:992.60000000000002] [1:365]
tree_sizes=3009 2925 2928 2998 2933 2928 2993 2986 2918 2961 2967 3025 3009 2982 2998 3016 3007 3021 3034 2971 2981 3094 3088 3073 3030 2990 3017 3047 3034 3052 3064 3057 3067 3067 3138 3114 3087 3125 3072 3109 3089 3091 3171 3150 3180 3120 3108 3169 3183 3144 3122 3153 3138 3195 3177 3195 3162 3173 3185 3199 3188 3201 3241 3210 3222 3205 3222 3182 3153 3213 3195 3148 3120 3166 3239 3194 3219 3195

Tree=0
num_leaves=31
num_cat=0
split_feature=7 0 0 7 1 7 0 0 1 6 1 0 1 0 6 0 2 1 1 0 1 2 2 5 6 1 7 0 1 0
split_gain=148.569 90.8742 41.9667 36.9961 22.8828 13.9115 13.3168 10.4798 8.16732 7.76431 7.70109 6.46293 6.45904 6.23725 5.94216 5.01549 4.84782 4.64757 5.99383 4.33888 4.26918 3.78347 3.69717 3.61085 3.13768 3.06246 2.7285 2.61549 2.53576 2.40928
threshold=21.000000000000004 311.35000000000008 357.50000000000006 42.000000000000007 103.55000000000001 10.500000000000002 159.05000000000004 357.50000000000006 114.30000000000001 803.85000000000014 48.800000000000004 518.00000000000011 21.000000000000004 275.05000000000007 799.75000000000011 518.00000000000011 94.050000000000011 176.05000000000004 141.90000000000003 282.50000000000006 187.35000000000002 87.750000000000014 41.750000000000007 940.30000000000007 762.70000000000016 43.70000000000001 5.0000000000000009 214.35000000000005 16.100000000000005 238.15000000000001
decision_type=2 2 2 2 2 2 2 2 2 2 2 2 2 2 2 2 2 2 2 2 2 2 2 2 2 2 2 2 2 2
left_child=2 3 5 6 7 19 8 28 -2 13 21 14 15 25 22 -4 -11 18 -6 -1 -21 -8 -9 -16 -12 -5 -14 -26 -3 -23
right_child=1 4 12 9 17 -7 10 11 -10 16 24 -13 26 -15 23 -17 -18 -19 -20 20 -22 29 -24 -25 27 -27 -28 -29 -30 -31
leaf_value=-0.13962545127908813 -0.1354326851701545 0.0090427664482784966 -0.061884511236102564 0.023173280538830547 0.18282576625190103 -0.052740966734441286 -0.081123086494358537 0.048517107018613947 -0.048201385168271521 -0.027687986804004243 0.0015875291382374166 0.16705398842336663 -0.0071253944090881663 0.14050801809182781 0.094918150285634009 0.041260646031716731 0.045376187435209027 0.19706725792396659 0.086512887580754497 -0.11497589740162223 -0.016860758703033853 -0.046233833631332454 0.11998183122583821 0.19506874406975436 0.0033527534419489614 0.078186278965492323 0.051736874460928249 0.086867005970497208 0.08705442770959862 0.0086441894491953372
leaf_weight=68 13.999999999999998 25.000000000000004 22.000000000000004 17 12.000000000000002 35 13.999999999999998 37 46 15.999999999999998 33 9.9999999999999982 13.999999999999998 10.999999999999998 8.9999999999999982 5.9999999999999991 21 18 13.999999999999998 17.000000000000004 5.9999999999999991 15.999999999999998 8.9999999999999982 5.9999999999999991 5.9999999999999991 25 18 9.9999999999999982 4.9999999999999991 15.999999999999998
leaf_count=68 14 25 22 17 12 35 14 37 46 16 33 10 14 11 9 6 21 18 14 17 6 16 9 6 6 25 18 10 5 16
internal_value=-8.23153e-10 0.0350733 -0.0735409 -0.00206213 0.0978195 -0.106319 -0.0316729 0.0715993 -0.0685554 0.0489343 -0.00837876 0.0925378 -0.00470645 0.0734753 0.0803221 -0.039782 0.0137809 0.158007 0.130965 -0.126926 -0.0893806 -0.0377643 0.0624993 0.134978 0.0192077 0.0559191 0.0259846 0.0555492 0.0220447 -0.0187948
internal_weight=576 390 186 245 145 126 155 101 60 90 95 71 60 53 61 28 37 44 26 91 23 46 46 15 49 42 32 16 30 32
internal_count=576 390 186 245 145 126 155 101 60 90 95 71 60 53 61 28 37 44 26 91 23 46 46 15 49 42 32 16 30 32
is_linear=0
shrinkage=1


Tree=1
num_leaves=31
num_cat=0
split_feature=0 3 6 2 3 1 1 0 4 4 4 3 0 6 1 6 0 1 0 3 6 3 6 1 0 6 3 4 4 3
split_gain=98.6684 54.7446 22.7732 15.692 14.0064 7.99075 7.7156 8.40731 5.21167 5.05671 4.80323 3.20506 2.92011 2.38977 2.25319 2.22181 2.03318 1.97929 1.83132 1.79922 1.62269 1.57117 1.54217 1.53624 1.6803 1.4679 1.44446 1.73259 2.16725 1.41168
threshold=257.75000000000006 182.25000000000003 721.50000000000011 77.500000000000014 175.55000000000004 187.35000000000002 48.800000000000004 207.10000000000002 2.7500000000000004 4.5500000000000007 8.7500000000000018 162.95000000000002 168.45000000000002 763.50000000000011 202.20000000000002 655.30000000000007 282.50000000000006 166.50000000000003 349.50000000000006 197.45000000000002 708.45000000000016 191.90000000000003 904.85000000000002 97.950000000000003 159.05000000000004 677.00000000000011 174.85000000000005 6.9500000000000011 8.9500000000000011 154.30000000000004
decision_type=2 2 2 2 2 2 2 2 2 2 2 2 2 2 2 2 2 2 2 2 2 2 2 2 2 2 2 2 2 2
left_child=4 3 15 22 6 8 7 12 17 13 23 -8 -1 -4 20 -3 -5 -6 -18 -11 -7 -15 26 -10 -25 -17 27 -2 -29 -9
right_child=1 2 9 16 5 14 11 29 10 19 -12 -13 -14 21 -16 25 18 -19 -20 -21 -22 -23 -24 24 -26 -27 -28 28 -30 -31
leaf_value=-0.10363206726809343 0.15917902022600175 0.025124739917616053 -0.018382211450842165 0.085347903602653083 -0.10310990848439805 0.05978476047515871 0.10102756440639496 0.045294234156608583 -0.05567594468593598 0.044437604563103771 -0.10355647234246135 0.013865731628956619 -0.044671712044094293 -0.085661363552014036 -0.034682518966270219 0.088897768809245187 0.0073917158934123373 -0.051920661785536337 0.049000438442453748 -0.018794190055794188 -0.020780578777194022 -0.046808328161783083 0.065071616002491547 -0.045355631317943325 0.00610062639144334 0.045288971027261336 0.088879098287887051 0.051155520677566527 0.12020578901469708 -0.0050994658359774844
leaf_weight=11.999999999999998 9.9999999999999982 30 21 8.9999999999999982 47 4.9999999999999982 4.9999999999999991 6.9999999999999991 35 9.0000000000000018 15.999999999999998 27 28 14.999999999999998 33 12.999999999999998 17 8.9999999999999982 28 8.9999999999999982 5 34 6.9999999999999991 15.000000000000002 10.999999999999998 19 18 4.9999999999999991 50 27
leaf_count=12 10 30 21 9 47 5 5 7 35 9 16 27 28 15 33 13 17 9 28 9 5 34 7 15 11 19 18 5 50 27
internal_value=9.95998e-11 0.0405349 -0.0017449 0.0845763 -0.0422597 -0.0595554 -0.0135425 -0.031284 -0.071671 -0.0344504 -0.0547895 0.0274848 -0.0623598 -0.0466061 -0.0220814 0.0446759 0.0419593 -0.0948831 0.0332816 0.0128217 0.0195021 -0.0587021 0.110146 -0.0419981 -0.0235857 0.063005 0.113948 0.12089 0.113928 0.00527571
internal_weight=576 294 150 144 282 176 106 74 133 88 77 32 40 70 43 62 54 56 45 18 10 49 90 61 26 32 83 65 55 34
internal_count=576 294 150 144 282 176 106 74 133 88 77 32 40 70 43 62 54 56 45 18 10 49 90 61 26 32 83 65 55 34
is_linear=0
shrinkage=0.1


Tree=2
num_leaves=31
num_cat=0
split_feature=7 0 7 0 3 7 0 3 3 7 2 0 6 6 6 3 2 0 7 5 3 0 2 6 5 0 3 3 3 6
split_gain=117.202 61.4074 28.5307 27.1969 27.1825 10.5577 9.29016 8.34961 6.22 5.21697 4.51837 4.25479 4.03873 3.99447 4.33178 3.66136 3.41081 2.75857 2.53417 2.23511 2.17149 2.10875 2.09824 1.77147 1.73089 2.52156 1.55472 1.56071 1.36218 1.30164
threshold=21.000000000000004 311.35000000000008 42.000000000000007 357.50000000000006 181.80000000000004 10.500000000000002 159.05000000000004 175.55000000000004 175.55000000000004 42.000000000000007 95.950000000000017 389.25000000000006 882.20000000000016 729.65000000000009 611.90000000000009 186.85000000000002 163.90000000000003 282.50000000000006 5.0000000000000009 1023.0500000000001 178.70000000000002 213.60000000000002 95.950000000000017 793.75000000000011 1028.9000000000003 325.30000000000007 164.85000000000005 156.90000000000003 185.35000000000002 846.00000000000011
decision_type=2 2 2 2 2 2 2 2 2 2 2 2 2 2 2 2 2 2 2 2 2 2 2 2 2 2 2 2 2 2
left_child=3 2 6 5 9 17 16 10 21 24 -4 28 22 14 -6 18 -2 -1 -13 29 -19 -8 -9 -12 25 -3 27 -27 -5 -10
right_child=1 4 7 11 13 -7 8 12 19 -11 23 15 -14 -15 -16 -17 -18 20 -20 -21 -22 -23 -24 -25 -26 26 -28 -29 -30 -31
leaf_value=-0.11978299972765588 -0.044887378842246778 0.039545017267976469 0.1666166162490845 -0.024065365307809158 0.01946821222248088 -0.045030137781452928 0.00015368782556973967 0.042255762257069972 -0.0018032441408756901 0.15729739610105753 0.088253063294622638 -0.00093697136776013797 -0.048448628373444082 0.017514195154748252 0.089461350192626327 -0.033262805454432963 -0.10650569796562195 -0.027999352198094116 0.064279282938402432 -0.051448935531079765 -0.097974255505730135 0.05300859171483252 -0.012796836594740549 0.045010875922162089 0.14740928156035288 0.12099190317094316 0.14375141412019729 0.058527724444866182 -0.073275696237881979 -0.042845637649297719
leaf_weight=68 49 7.0000000000000027 4.9999999999999991 15.000000000000002 13.999999999999998 35 13.000000000000002 30 34 32 18 11 7.9999999999999991 37 24 11.999999999999998 10.999999999999998 6.0000000000000027 13 20 17 18 8.9999999999999982 20 6.9999999999999991 8.0000000000000053 7.9999999999999991 7.9999999999999991 8.9999999999999982 9.9999999999999982
leaf_count=68 49 7 5 15 14 35 13 30 34 32 18 11 8 37 24 12 11 6 13 20 17 18 9 20 7 8 8 8 9 10
internal_value=5.70758e-11 0.0311517 0.000625025 -0.065318 0.0827312 -0.0917052 -0.0253783 0.0454085 -0.00592203 0.127548 0.0772525 -0.00990486 0.0162747 0.040902 0.0636744 0.0118381 -0.0561841 -0.109657 0.0343885 -0.0237304 -0.0797199 0.0308436 0.0295513 0.065494 0.102496 0.0923543 0.107757 0.0897598 -0.0425192 -0.0111311
internal_weight=576 390 245 186 145 126 155 90 95 70 43 60 47 75 38 36 60 91 24 64 23 31 39 38 38 31 24 16 24 44
internal_count=576 390 245 186 145 126 155 90 95 70 43 60 47 75 38 36 60 91 24 64 23 31 39 38 38 31 24 16 24 44
is_linear=0
shrinkage=0.1


Tree=3
num_leaves=31
num_cat=0
split_feature=0 3 5 2 4 0 0 1 1 1 1 0 4 5 3 5 5 0 0 4 0 5 1 0 3 0 3 4 0 1
split_gain=65.0782 36.3591 11.1425 10.8624 9.71371 9.59952 6.15821 5.4825 4.80553 3.67464 3.62461 3.29353 3.25033 2.65744 2.40417 2.36835 1.86404 1.69719 1.65633 1.57856 1.24594 1.18208 1.97688 1.78613 1.59055 1.16475 1.09108 0.943326 1.82304 0.895808
threshold=257.75000000000006 182.25000000000003 962.30000000000007 77.500000000000014 6.2500000000000009 159.05000000000004 395.00000000000006 163.45000000000002 116.60000000000001 146.10000000000002 48.800000000000004 207.10000000000002 3.2000000000000006 957.55000000000007 162.95000000000002 919.50000000000011 1082.1000000000001 188.10000000000002 282.50000000000006 10.450000000000001 395.00000000000006 1004.2000000000002 163.45000000000002 398.50000000000006 153.70000000000002 196.65000000000001 154.30000000000004 7.8500000000000005 213.75000000000003 131.15000000000003
decision_type=2 2 2 2 2 2 2 2 2 2 2 2 2 2 2 2 2 2 2 2 2 2 2 2 2 2 2 2 2 2
left_child=4 3 9 21 7 8 16 12 -6 15 11 -7 25 17 -12 -3 -4 -9 -5 -10 -20 22 23 -2 -23 -1 -13 28 -16 -27
right_child=1 2 6 18 5 10 -8 13 19 -11 14 26 -14 -15 27 -17 -18 -19 20 -21 -22 24 -24 -25 -26 29 -28 -29 -30 -31
leaf_value=-0.10877283891042074 0.045031359279528262 -0.009850471145473421 -0.033559484883315033 0.07251624895466699 -0.099703476577997219 -0.042286863607855947 0.028458489815238866 -0.027296387719420279 -0.044847058895975345 0.083722473233938222 0.088374891877174386 0.039561462189470022 -0.046872966292385874 -0.050402433489975723 0.0582816307246685 0.032295263752457691 -0.080561909973621379 0.026074249094182794 0.014340014022684866 0.010328715560691697 0.050282603049916885 0.14940409186695297 0.10970362801104785 0.086171390741102166 0.092252478282898676 -0.089742651895472883 -0.0041494877528279062 -0.0008203985757733646 -0.011442416906356813 -0.057051927646001178
leaf_weight=14.999999999999998 15.999999999999998 20 54 8.9999999999999982 15.999999999999998 26 15.999999999999998 13.000000000000002 20.000000000000004 9.9999999999999982 4.9999999999999991 6.9999999999999991 39 23 9.9999999999999982 40 9.9999999999999982 10.999999999999998 31 6.9999999999999991 13.999999999999998 7.0000000000000027 20 31 15.999999999999998 19 31 19 5.9999999999999991 14.999999999999998
leaf_count=15 16 20 54 9 16 26 16 13 20 10 5 7 39 23 10 40 10 11 31 7 14 7 20 31 16 19 31 19 6 15
internal_value=-5.68737e-11 0.0329198 -0.00153646 0.0688118 -0.0343207 -0.0165348 -0.0270312 -0.0536876 -0.0562766 0.0276004 -0.000103016 -0.0148619 -0.0684151 -0.0261126 0.0235112 0.0182467 -0.0409036 -0.00283485 0.0333545 -0.0305422 0.0255222 0.0900862 0.0833715 0.0721663 0.109646 -0.0855609 0.00390253 0.014245 0.0321351 -0.0753203
internal_weight=576 294 150 144 282 147 80 135 43 70 104 64 88 47 40 60 64 24 54 27 45 90 67 47 23 49 38 35 16 34
internal_count=576 294 150 144 282 147 80 135 43 70 104 64 88 47 40 60 64 24 54 27 45 90 67 47 23 49 38 35 16 34
is_linear=0
shrinkage=0.1


Tree=4
num_leaves=31
num_cat=0
split_feature=7 3 7 4 2 7 4 2 5 3 6 7 6 5 6 5 2 5 2 4 2 7 2 6 5 6 5 6 4 5
split_gain=92.3102 37.5358 18.9003 15.7623 13.2742 7.92137 7.04241 5.69458 5.16186 3.96464 3.50201 3.05885 2.95386 3.73355 2.91429 2.90485 2.84084 2.53786 2.29339 3.37467 2.08625 2.17098 2.05753 2.04128 1.55181 1.56883 1.46926 1.44457 1.65064 1.39515
threshold=21.000000000000004 165.25000000000003 42.000000000000007 8.2500000000000018 41.750000000000007 5.0000000000000009 7.7000000000000002 174.80000000000004 1062.3500000000001 178.05000000000004 748.80000000000007 10.500000000000002 818.50000000000011 953.20000000000016 778.90000000000009 892.40000000000009 94.350000000000009 942.35000000000014 41.750000000000007 6.8000000000000016 123.95 42.000000000000007 90.850000000000009 742.65000000000009 919.50000000000011 763.50000000000011 953.20000000000016 695.85000000000014 7.0500000000000007 1075.9500000000003
decision_type=2 2 2 2 2 2 2 2 2 2 2 2 2 2 2 2 2 2 2 2 2 2 2 2 2 2 2 2 2 2
left_child=3 4 7 10 15 16 8 9 14 24 -1 -12 13 18 -4 -2 -5 -6 19 -11 -19 -22 -7 -17 -3 -26 -8 -15 29 -29
right_child=1 2 6 5 17 22 26 -9 -10 12 11 -13 -14 27 -16 23 -18 20 -20 -21 21 -23 -24 -25 25 -27 -28 28 -30 -31
leaf_value=-0.049887242142496437 0.094917441532015812 0.050920889297356976 0.043302226846572013 -0.026498492144876058 0.10608214906283789 0.037703458535381491 0.15183598518371583 -0.086477563778559363 0.097635869004509671 0.016460632401354171 -0.10052393354586703 -0.057548016275871888 -0.043404403142631054 0.0059093211132746478 0.0046306747379467675 0.092028305530548027 -0.08441025298088789 0.063364201071469686 -0.0039812014501711184 0.10991891741752624 -0.01445924188941717 0.045693114589278896 -0.011581766931340099 0.16425439516703289 0.031148921400308602 -0.016313453247913948 0.085444847345352182 -0.012477102965630335 -0.073128155432641506 -0.057546557320488828
leaf_weight=29 18 12.999999999999998 40 18 6.9999999999999991 18 4.9999999999999991 8.9999999999999982 10.999999999999998 17.000000000000004 67 22 26 12.999999999999998 38 5.0000000000000027 15.999999999999998 23 33 4.9999999999999991 10 15 15.999999999999998 18 15.000000000000002 12.999999999999998 9.9999999999999982 29 7.9999999999999991 8.9999999999999982
leaf_count=29 18 13 40 18 7 18 5 9 11 17 67 22 26 13 38 5 16 23 33 5 10 15 16 18 15 13 10 29 8 9
internal_value=-1.20902e-10 0.0276463 0.00991865 -0.0579681 0.0819374 -0.0196203 0.0441892 -0.00883998 0.0335062 -0.00497954 -0.0800669 -0.0899007 -0.0129888 -0.00605187 0.0244622 0.125006 -0.0537511 0.0498319 0.0126917 0.0377012 0.0416288 0.0216322 0.0145104 0.148553 0.022369 0.00911282 0.107575 -0.0235247 -0.031843 -0.0231514
internal_weight=576 390 294 186 96 68 104 190 89 181 118 89 140 114 78 41 34 55 55 22 48 25 34 23 41 28 15 59 46 38
internal_count=576 390 294 186 96 68 104 190 89 181 118 89 140 114 78 41 34 55 55 22 48 25 34 23 41 28 15 59 46 38
is_linear=0
shrinkage=0.1


Tree=5
num_leaves=31
num_cat=0
split_feature=7 3 7 4 2 7 6 3 2 3 4 7 5 6 5 5 6 6 6 3 2 6 2 6 6 2 7 2 5 5
split_gain=74.7712 30.404 15.3093 12.7675 10.7521 6.41631 5.72023 4.6851 4.61261 3.21136 3.19513 3.1292 2.41806 2.39263 3.02847 2.35293 2.27805 2.23467 2.11604 1.95081 1.84087 1.72256 1.6666 1.65344 1.58252 1.37876 1.34863 1.34571 1.34297 1.28779
threshold=21.000000000000004 165.25000000000003 42.000000000000007 8.2500000000000018 41.750000000000007 5.0000000000000009 757.6500000000002 191.90000000000003 174.80000000000004 178.05000000000004 6.6000000000000005 5.0000000000000009 985.90000000000009 818.50000000000011 948.95000000000016 892.40000000000009 613.10000000000014 802.45000000000016 799.75000000000011 197.45000000000002 125.15000000000002 611.90000000000009 90.850000000000009 742.65000000000009 882.20000000000016 90.850000000000009 95.500000000000014 123.95 943.35000000000014 1054.3000000000002
decision_type=2 2 2 2 2 2 2 2 2 2 2 2 2 2 2 2 2 2 2 2 2 2 2 2 2 2 2 2 2 2
left_child=3 4 8 11 15 12 7 -4 9 28 24 -1 -5 14 19 -2 -13 18 26 -11 -19 -9 -7 -17 -8 -16 27 -6 -3 -18
right_child=1 2 6 5 17 22 10 21 -10 13 -12 16 -14 -15 25 23 29 20 -20 -21 -22 -23 -24 -25 -26 -27 -28 -29 -30 -31
leaf_value=-0.094376833337109278 0.085425698260466254 0.040590435680415898 0.11090160727500915 -0.027393512995470139 0.065356176263756158 0.03393311268753476 0.013179236265943584 0.013390137782941262 -0.077829806009928393 0.033271409432260653 0.060401469698319069 -0.001008894294500351 -0.082270726332297706 -0.039063962814039913 -0.012692335744065289 0.082825471162795969 -0.055854853060251723 0.043392688632011407 0.12216208696365356 -0.0055815517178936201 -0.013814392934242884 0.060127764940261841 -0.010423589777201415 0.14782895470658938 -0.036396045424044135 -0.049325226933265541 0.088649431296757286 0.012055755630135537 0.0041212860332882923 -0.084633234920709038
leaf_weight=41 18 18 14.999999999999998 21 9.0000000000000089 18 33 11.999999999999998 8.9999999999999982 24 12.999999999999998 5.9999999999999991 12.999999999999998 26 49 5.0000000000000027 48 15.000000000000002 4.9999999999999991 28 8.9999999999999982 23 15.999999999999998 18 7.9999999999999991 12.999999999999998 6.9999999999999991 9.9999999999999982 23 23
leaf_count=41 18 18 15 21 9 18 33 12 9 24 13 6 13 26 49 5 48 15 5 28 9 23 16 18 8 13 7 10 23 23
internal_value=-1.78615e-12 0.0248817 0.00892678 -0.0521713 0.0737437 -0.0176583 0.0397703 0.0641429 -0.00795598 -0.00448159 0.0172031 -0.0720602 -0.048376 -0.0116899 -0.00544668 0.112505 -0.0601773 0.0448487 0.0625845 0.0123506 0.02194 0.0441034 0.0130594 0.133698 0.00350601 -0.0203734 0.0511273 0.0373033 0.0201321 -0.0651774
internal_weight=576 390 294 186 96 68 104 50 190 181 54 118 34 140 114 41 77 55 31 52 24 35 34 23 41 62 26 19 41 71
internal_count=576 390 294 186 96 68 104 50 190 181 54 118 34 140 114 41 77 55 31 52 24 35 34 23 41 62 26 19 41 71
is_linear=0
shrinkage=0.1


Tree=6
num_leaves=31
num_cat=0
split_feature=3 2 6 4 2 5 5 2 5 5 6 2 4 3 5 6 3 3 6 4 5 1 5 6 6 2 5 2 1 3
split_gain=24.6317 20.7259 12.319 4.95312 4.38472 2.99715 2.88904 2.70719 2.33764 3.17882 2.49007 2.32059 2.54392 2.08137 1.97669 2.43422 1.9449 1.60286 2.70296 1.48374 1.42246 1.42224 1.19099 1.01778 0.968089 0.818479 0.813752 0.77926 0.778934 0.838978
threshold=178.05000000000004 90.850000000000009 721.50000000000011 2.7500000000000004 41.750000000000007 866.95000000000016 870.05000000000007 41.750000000000007 962.30000000000007 1119.5000000000002 655.30000000000007 174.80000000000004 6.2500000000000009 154.30000000000004 1075.9500000000003 850.30000000000007 202.50000000000003 157.45000000000002 793.75000000000011 15.150000000000002 1055.3000000000002 136.35000000000002 897.00000000000011 799.75000000000011 888.05000000000007 77.500000000000014 1065.9000000000003 141.50000000000003 141.90000000000003 159.45000000000002
decision_type=2 2 2 2 2 2 2 2 2 2 2 2 2 2 2 2 2 2 2 2 2 2 2 2 2 2 2 2 2 2
left_child=1 17 7 14 6 -3 -5 8 10 -10 -2 12 -7 -14 15 16 -4 19 25 -1 24 26 -9 -18 28 -19 -8 -6 29 -15
right_child=2 5 3 4 27 11 21 22 9 -11 -12 -13 13 20 -16 -17 23 18 -20 -21 -22 -23 -24 -25 -26 -27 -28 -29 -30 -31
leaf_value=0.097705608687829237 0.0025719463727191874 0.059650015796069059 -0.021102383276571126 0.072346369175284017 -0.022004023540007363 -0.042834833923440715 0.045662512381871523 0.00011774677867916494 -0.03359079598449171 0.032982587585082414 0.047770817592904413 -0.070184557437896741 0.036156741858405228 -0.0020714035050736533 -0.069713060233903973 -0.063684940931421741 -0.033014393763409706 0.066954300575184103 0.0058492732544740047 0.059771788582719615 -0.021335319457230745 -0.039692016194264101 -0.048933740870820155 -0.079367905259132399 -0.016553599759936335 0.032933059417539177 -0.0089612573385238637 -0.053593940080867875 -0.018003032915294172 0.024495627486280036
leaf_weight=15.999999999999998 19 7.9999999999999991 66 8.0000000000000018 59 12.999999999999998 6.0000000000000018 11.000000000000002 15.999999999999998 13.000000000000002 34 4.9999999999999991 17 18 23 27 9.0000000000000018 33 11.999999999999998 29 27 5.9999999999999991 8.9999999999999982 9.9999999999999982 15.999999999999998 8.9999999999999982 5 8.9999999999999982 7.9999999999999991 35
leaf_count=16 19 8 66 8 59 13 6 11 16 13 34 5 17 18 23 27 9 33 12 29 27 6 9 10 16 9 5 9 8 35
internal_value=7.6246e-12 0.0239511 -0.0178544 -0.0307774 -0.0130193 0.000130716 0.0227915 0.0110322 0.019078 -0.00374756 0.0315674 -0.00329485 -0.00079897 0.00371728 -0.0430108 -0.0375273 -0.0292184 0.0593207 0.0477052 0.0732594 -0.00158532 -0.00052843 -0.0219554 -0.057411 0.00534 0.059664 0.0208335 -0.026185 0.0110826 0.0154729
internal_weight=576 246 330 228 93 147 25 102 82 29 53 139 134 121 135 112 85 99 54 45 104 17 20 19 77 42 11 68 61 53
internal_count=576 246 330 228 93 147 25 102 82 29 53 139 134 121 135 112 85 99 54 45 104 17 20 19 77 42 11 68 61 53
is_linear=0
shrinkage=0.1


Tree=7
num_leaves=31
num_cat=0
split_feature=3 2 6 5 2 5 5 6 2 5 5 6 2 4 3 3 4 3 1 5 5 6 5 2 1 6 6 6 3 6
split_gain=19.9517 16.788 9.97836 4.23452 3.7236 2.42769 2.27314 2.22537 2.19283 1.89349 2.57485 2.01696 1.87968 2.06057 1.76605 1.74208 1.40991 1.33688 1.51721 1.00816 0.978664 1.02567 0.964705 0.956546 1.12291 0.957414 0.928854 0.92124 0.850713 0.749096
threshold=178.05000000000004 90.850000000000009 721.50000000000011 870.05000000000007 77.500000000000014 866.95000000000016 1075.9500000000003 882.20000000000016 41.750000000000007 962.30000000000007 1119.5000000000002 655.30000000000007 174.80000000000004 6.2500000000000009 156.90000000000003 202.50000000000003 1.0000000180025095e-35 167.25000000000003 187.35000000000002 1055.3000000000002 1028.9000000000003 642.00000000000011 897.00000000000011 117.85000000000001 143.50000000000003 850.30000000000007 821.60000000000014 839.85000000000014 190.75000000000003 799.75000000000011
decision_type=2 2 2 2 2 2 2 2 2 2 2 2 2 2 2 2 2 2 2 2 2 2 2 2 2 2 2 2 2 2
left_child=1 16 8 4 -4 -3 7 15 9 11 -11 -2 13 -7 -15 23 -1 18 20 -16 27 -22 -10 24 25 -5 -6 -18 -27 -17
right_child=2 5 3 6 26 12 -8 -9 22 10 -12 -13 -14 14 19 29 17 -19 -20 -21 21 -23 -24 -25 -26 28 -28 -29 -30 -31
leaf_value=0.1003720797598362 0.0023147519530826491 0.053685011353809389 0.06511173172621057 -0.0072073903238763009 0.00024437872925773261 -0.038551350894312449 -0.062741753458976743 -0.060649180158507079 0.00010597171600569376 -0.030231716623529793 0.02968432880364931 0.04299373521798236 -0.063166099786758426 0.0270197054669261 0.0035908312428796635 -0.034372479957528401 0.019867981798373735 0.030583692684769632 0.083499193081960965 -0.019201787423204494 0.04196900129318238 0.10329428563515344 -0.044040365848276357 -0.041552860093744176 -0.038130240851924541 -0.0076315425336360909 -0.041488113068044188 0.052269317954778675 -0.050489064001224264 -0.071431114971637719
leaf_weight=5.9999999999999991 19 7.9999999999999991 7.9999999999999991 72 16.000000000000004 12.999999999999998 23 20 11.000000000000002 15.999999999999998 13.000000000000002 34 4.9999999999999991 25 69 12.000000000000002 12.999999999999998 25 17 27 4.9999999999999982 6 8.9999999999999982 19 21 8.0000000000000018 7.9999999999999991 27 10.999999999999998 9.9999999999999982
leaf_count=6 19 8 8 72 16 13 23 20 11 16 13 34 5 25 69 12 13 25 17 27 5 6 9 19 21 8 8 27 11 10
internal_value=3.08016e-11 0.021556 -0.016069 -0.0276997 0.00602809 0.000117645 -0.0332063 -0.0292796 0.009929 0.0171702 -0.0033728 0.0284107 -0.00296537 -0.000719073 0.00334555 -0.025179 0.0533887 0.0503575 0.0576272 -0.00281959 0.0490033 0.0754192 -0.0197599 -0.0208061 -0.0172866 -0.0124765 -0.0136665 0.0417389 -0.0324438 -0.0512173
internal_weight=576 246 330 228 32 147 196 173 102 82 29 53 139 134 121 153 99 93 68 96 51 11 20 131 112 91 24 40 19 22
internal_count=576 246 330 228 32 147 196 173 102 82 29 53 139 134 121 153 99 93 68 96 51 11 20 131 112 91 24 40 19 22
is_linear=0
shrinkage=0.1


Tree=8
num_leaves=31
num_cat=0
split_feature=7 0 3 0 1 7 0 0 1 1 1 1 7 0 0 7 3 3 3 2 1 7 1 0 7 3 3 7 4 3
split_gain=57.8249 23.4465 15.3513 9.79724 6.73702 5.14735 4.81095 4.40681 3.18932 2.77224 2.39112 2.36629 2.17261 1.40189 1.35049 1.30804 1.27336 1.37291 1.13505 1.11223 1.23623 1.04672 0.951553 0.927581 0.868403 0.834272 0.788031 0.732237 0.70289 0.697085
threshold=21.000000000000004 166.45000000000002 181.80000000000004 368.30000000000007 163.45000000000002 10.500000000000002 357.50000000000006 320.05000000000007 101.50000000000001 146.10000000000002 75.700000000000017 116.60000000000001 95.500000000000014 214.35000000000005 477.50000000000006 5.0000000000000009 172.35000000000005 156.90000000000003 167.25000000000003 118.45 183.65000000000003 73.000000000000014 48.800000000000004 194.10000000000002 95.500000000000014 170.05000000000004 164.40000000000003 73.000000000000014 7.8500000000000005 191.90000000000003
decision_type=2 2 2 2 2 2 2 2 2 2 2 2 2 2 2 2 2 2 2 2 2 2 2 2 2 2 2 2 2 2
left_child=3 8 4 5 6 13 12 10 -2 14 24 15 22 -1 27 29 17 -8 -17 20 -10 -12 23 -3 -4 -6 -24 -9 -7 -5
right_child=1 2 7 11 25 28 16 9 19 -11 21 -13 -14 -15 -16 18 -18 -19 -20 -21 -22 -23 26 -25 -26 -27 -28 -29 -30 -31
leaf_value=-0.085893046855926525 -0.062525177245131805 -0.011002217978239061 -0.024834751191775542 -0.02785594275088182 0.12928208907445268 -0.03925562020657318 0.083409736156463632 0.0070500392535770388 -0.038504764109849932 0.10280187249183655 0.0026971226083114743 0.03681110952877336 0.061019195678333443 -0.061693273291543685 0.054638441250874449 0.023931792543994048 0.11885420282681783 0.044296861998736864 -0.019986856926013444 0.0046621629898436368 -0.0051489900704473259 0.036111282780766488 0.071778906385103827 0.025034059792757038 0.011499897227622569 0.085841982705252506 0.030458215307444338 0.030130590875965674 -0.010328583399366056 -0.071354072988033299
leaf_weight=43 18 9.9999999999999982 37 14.000000000000002 12.000000000000002 21 25 27 25 4.9999999999999991 25 8.9999999999999982 24 54 12.999999999999998 9.0000000000000018 5.9999999999999991 13.999999999999998 17 20 20 14.999999999999998 6.0000000000000027 25 7.9999999999999991 6.9999999999999991 20 28 13.999999999999998 4.9999999999999991
leaf_count=43 18 10 37 14 12 21 25 27 25 5 25 9 24 54 13 9 6 14 17 20 20 15 6 25 8 7 20 28 14 5
internal_value=-4.44238e-11 0.0218812 0.0346302 -0.0458798 0.0576573 -0.0605591 0.0495281 0.0129147 -0.0252748 0.0309358 -0.00256223 -0.00999711 0.0355309 -0.072421 0.0256516 -0.0193588 0.0759672 0.0693692 -0.00478425 -0.0149593 -0.02368 0.0152274 0.0255027 0.014738 -0.0183753 0.113278 0.0399938 0.0188001 -0.0276848 -0.0393028
internal_weight=576 390 307 186 149 132 130 158 83 73 85 54 85 97 68 45 45 39 26 65 45 40 61 35 45 19 26 55 35 19
internal_count=576 390 307 186 149 132 130 158 83 73 85 54 85 97 68 45 45 39 26 65 45 40 61 35 45 19 26 55 35 19
is_linear=0
shrinkage=0.1


Tree=9
num_leaves=31
num_cat=0
split_feature=7 0 3 0 1 0 7 6 1 0 7 7 1 0 6 1 0 3 3 1 7 1 1 5 5 6 7 5 3 5
split_gain=46.8381 18.9916 12.5415 7.96737 6.81391 4.30635 3.5426 3.29808 2.58592 2.1313 1.97562 1.95391 1.68458 1.62418 1.39943 1.28145 1.04859 1.03142 1.11206 0.99114 0.916617 0.900211 0.889127 1.03951 0.850568 0.836556 0.587623 0.58123 0.540248 0.532606
threshold=21.000000000000004 166.45000000000002 184.50000000000003 389.25000000000006 163.45000000000002 357.50000000000006 10.500000000000002 721.50000000000011 123.35000000000001 278.50000000000006 5.0000000000000009 95.500000000000014 143.50000000000003 315.55000000000007 611.90000000000009 94.250000000000014 320.05000000000007 172.35000000000005 156.90000000000003 16.100000000000005 73.000000000000014 163.45000000000002 48.800000000000004 1007.2500000000001 1057.0000000000002 882.20000000000016 5.0000000000000009 1090.7000000000003 188.55000000000004 892.40000000000009
decision_type=2 2 2 2 2 2 2 2 2 2 2 2 2 2 2 2 2 2 2 2 2 2 2 2 2 2 2 2 2 2
left_child=3 8 4 6 5 11 9 14 -2 -1 28 22 -10 20 -4 -12 -16 18 27 -11 -9 -14 24 -24 -3 -22 -21 29 -5 -7
right_child=1 2 7 10 -6 17 -8 13 12 19 15 -13 21 -15 16 -17 -18 -19 -20 26 25 -23 23 -25 -26 -27 -28 -29 -30 -31
leaf_value=-0.071604475423471245 -0.050422390364110475 0.023535714518278839 0.0033469199552200735 -0.012847421259026638 0.10565577134490015 0.069368362923463142 -0.024574341225387479 -0.019543171846648541 0.044040852189064034 -0.05770421158522368 0.0053371400971497793 0.054917276029785481 -0.042159175737337636 0.015994636177578393 0.022850339211847471 0.060573550562063851 0.053387900983745407 0.1069687803586324 0.039867175915943728 -0.044662196731025519 0.024094444360922687 -0.010101020751997482 0.022664202773012218 0.065987292677164078 -0.0065852449585994087 -0.025237264633178713 -0.011975714090195568 0.044573395252227782 -0.052491206079721457 0.10267896875739098
leaf_weight=67 24 25 15.999999999999998 10.999999999999998 20 12.000000000000005 37 41 4.9999999999999991 24 14.000000000000002 24 10.999999999999998 34 23 5.9999999999999991 22 5.9999999999999991 13.999999999999998 11 10.999999999999998 43 18.000000000000004 7.9999999999999991 14.999999999999998 4.9999999999999991 11 4.9999999999999991 4.9999999999999991 7.9999999999999991
leaf_count=67 24 25 16 11 20 12 37 41 5 24 14 24 11 34 23 6 22 6 14 11 11 43 18 8 15 5 11 5 5 8
internal_value=7.16682e-11 0.019693 0.0311671 -0.0412919 0.0511824 0.0431123 -0.0514311 0.0107569 -0.0227473 -0.0602249 0.0009551 0.0304831 -0.0114897 -0.0013033 0.0287482 0.0219081 0.0377798 0.0683705 0.0624323 -0.0436504 -0.0116214 -0.0166314 0.021598 0.0359944 0.0122404 0.00867829 -0.028319 0.0750688 -0.0252361 0.0826926
internal_weight=576 390 307 186 155 135 150 152 83 113 36 90 59 91 61 20 45 45 39 46 57 54 66 26 40 16 22 25 16 20
internal_count=576 390 307 186 155 135 150 152 83 113 36 90 59 91 61 20 45 45 39 46 57 54 66 26 40 16 22 25 16 20
is_linear=0
shrinkage=0.1


Tree=10
num_leaves=31
num_cat=0
split_feature=0 3 6 3 2 1 0 1 5 2 3 3 6 0 3 2 0 6 0 6 3 3 3 2 5 0 1 5 3 1
split_gain=19.129 8.45917 4.14653 2.69378 2.53765 1.91553 1.99257 1.57592 1.40676 1.21358 1.29934 0.913841 0.854547 0.854063 0.769672 0.734735 0.645686 0.641065 0.624745 0.577462 0.942749 0.873931 0.620408 0.567266 0.649926 0.564556 0.549663 0.685865 0.484446 0.483832
threshold=257.75000000000006 182.25000000000003 720.50000000000011 175.55000000000004 41.750000000000007 48.800000000000004 207.10000000000002 187.35000000000002 870.05000000000007 1.0000000180025095e-35 191.40000000000003 162.95000000000002 655.30000000000007 282.50000000000006 199.50000000000003 141.50000000000003 213.60000000000002 762.70000000000016 146.75000000000003 793.75000000000011 153.70000000000002 157.45000000000002 144.00000000000003 127.80000000000003 1006.35 170.65000000000003 202.20000000000002 962.30000000000007 154.70000000000002 131.15000000000003
decision_type=2 2 2 2 2 2 2 2 2 2 2 2 2 2 2 2 2 2 2 2 2 2 2 2 2 2 2 2 2 2
left_child=3 4 12 5 19 6 25 9 -4 29 16 -7 14 -6 -3 18 -11 -10 -12 20 -2 22 -21 -13 -25 -1 -9 -28 -8 -5
right_child=1 2 8 7 13 11 28 26 17 10 15 23 -14 -15 -16 -17 -18 -19 -20 21 -22 -23 -24 24 -26 -27 27 -29 -30 -31
leaf_value=-0.044532285071909428 0.094746887981891639 0.045860117934644194 0.025370168520344627 -0.052637849119957537 0.046445547540982568 0.053698614537715919 0.021437220489606265 0.010988152252975851 -0.0043254726164942163 -0.024290520329737948 0.0002621507644653317 -0.017343835373009944 0.034117338877042817 0.012761365134223447 0.0028808996900916099 -0.070302485426266992 0.00022402063689448619 -0.022819057703765005 -0.039694947997728991 0.024484008587896827 0.048556087362138851 0.013221368219026112 0.053955548644065855 0.028960023476527281 -0.0088342633364456042 -0.020281948529494307 -0.004151245597749949 -0.033655829899586168 -0.0047600703042310977 -0.034528993825531672
leaf_weight=15.999999999999998 4.9999999999999991 5.0000000000000027 8.9999999999999982 25 8.9999999999999982 4.9999999999999991 9.9999999999999982 9.9999999999999982 29 21 5.0000000000000062 7.0000000000000027 29 46 25 5.9999999999999991 22 53 18 9.9999999999999982 38 10.999999999999998 25 13.000000000000002 6.9999999999999991 24 20 12.999999999999998 24 36
leaf_count=16 5 5 9 25 9 5 10 10 29 21 5 7 29 46 25 6 22 53 18 10 38 11 25 13 7 24 20 13 24 36
internal_value=-4.90117e-12 0.0178479 0.00122806 -0.0186073 0.0351602 -0.00601345 -0.0148534 -0.0261923 -0.0121595 -0.0315727 -0.0227804 0.014429 0.0218767 0.0182733 0.0100441 -0.0391384 -0.0117482 -0.0162786 -0.0310086 0.0455958 0.0539271 0.0378079 0.0455351 0.0071568 0.015732 -0.0299821 -0.00955045 -0.0157743 0.00294502 -0.0419507
internal_weight=576 294 150 282 144 106 74 176 91 133 72 32 59 55 30 29 43 82 23 89 43 46 35 27 20 40 43 33 34 61
internal_count=576 294 150 282 144 106 74 176 91 133 72 32 59 55 30 29 43 82 23 89 43 46 35 27 20 40 43 33 34 61
is_linear=0
shrinkage=0.1


Tree=11
num_leaves=31
num_cat=0
split_feature=0 3 5 3 2 1 0 0 1 3 4 2 4 4 3 0 3 1 1 0 1 1 5 0 0 5 3 2 2 0
split_gain=15.4945 6.85193 2.69689 2.19136 2.06327 1.45099 1.55292 1.43327 1.34171 1.27385 0.976444 1.62208 0.863096 1.57963 0.842424 0.70835 0.551036 0.547969 0.50926 0.476829 0.95528 0.43868 0.573501 0.437149 0.419893 0.39838 0.392401 0.373319 0.378385 0.349919
threshold=257.75000000000006 182.25000000000003 962.30000000000007 177.05000000000004 77.500000000000014 48.800000000000004 207.10000000000002 395.00000000000006 187.35000000000002 191.90000000000003 8.7500000000000018 1.0000000180025095e-35 6.9500000000000011 8.5500000000000025 167.25000000000003 282.50000000000006 191.40000000000003 166.50000000000003 131.15000000000003 301.00000000000006 103.55000000000001 202.20000000000002 962.30000000000007 188.10000000000002 196.65000000000001 1062.3500000000001 154.70000000000002 127.80000000000003 137.95000000000002 357.50000000000006
decision_type=2 2 2 2 2 2 2 2 2 2 2 2 2 2 2 2 2 2 2 2 2 2 2 2 2 2 2 2 2 2
left_child=3 4 9 5 12 6 -1 25 10 -3 11 17 -2 -14 -7 -6 -13 24 -18 20 -11 23 -23 -10 -5 -4 -8 -16 -29 -17
right_child=1 2 7 8 15 14 26 -9 21 19 -12 16 13 -15 27 29 18 -19 -20 -21 -22 22 -24 -25 -26 -27 -28 28 -30 -31
leaf_value=-0.025804309609388426 0.06588303737031917 0.048483143365010618 -0.01376469066493957 -0.056952679622918369 0.041800992935895925 0.034114718758924439 0.019293498154729607 0.015332579985260964 -0.011018782667815688 -0.029388526827096931 -0.052963081796964011 -0.0061376698049051426 -0.012222033428649109 0.041183138868331706 -0.015421965180171854 0.00026883087120950223 -0.03565139453858137 -0.01668009447050281 -0.0014892158408959708 0.015537756415040689 0.018103806012206607 -0.0030322619272690073 -0.030290246812196883 0.030797455608844754 -0.036188771366141737 -0.032389642596244814 -0.0042840627099697791 0.024920225795358422 -0.0083005862310528752 0.018268813268729932
leaf_weight=44 11.999999999999998 9.9999999999999982 49 13.999999999999998 8.9999999999999982 10.999999999999998 9.9999999999999982 15.999999999999998 4.9999999999999982 8.0000000000000018 14.999999999999998 35 5.9999999999999991 72 9.0000000000000018 18 16.000000000000004 9.9999999999999982 5.9999999999999991 43 8.9999999999999982 19 12.999999999999998 5 32 14.999999999999998 24 7.9999999999999982 6 27
leaf_count=44 12 10 49 14 9 11 10 16 5 8 15 35 6 72 9 18 16 10 6 43 9 19 13 5 32 15 24 8 6 27
internal_value=2.60002e-11 0.0160631 0.00110525 -0.0167466 0.0316441 -0.00588616 -0.0134009 -0.0114374 -0.0239017 0.0154397 -0.0289906 -0.0258085 0.0409161 0.037075 0.0113536 0.0161908 -0.0139329 -0.0378961 -0.0263344 0.00993249 -0.00424553 -0.00839269 -0.0141058 0.00988934 -0.0425082 -0.0181299 0.00265051 0.000467852 0.0106827 0.0110688
internal_weight=576 294 150 282 144 112 78 80 170 70 128 113 90 78 34 54 57 56 22 60 17 42 32 10 46 64 34 23 14 45
internal_count=576 294 150 282 144 112 78 80 170 70 128 113 90 78 34 54 57 56 22 60 17 42 32 10 46 64 34 23 14 45
is_linear=0
shrinkage=0.1


Tree=12
num_leaves=31
num_cat=0
split_feature=7 7 0 4 0 7 0 7 4 1 0 1 1 1 1 7 0 6 4 6 4 1 0 6 6 2 6 6 0 0
split_gain=36.4675 13.2095 7.23546 5.4105 4.40648 3.13136 2.05842 1.77152 1.65459 1.59744 1.35925 1.12644 1.06938 0.960248 0.865495 0.733824 0.641873 0.634319 0.565004 0.552663 0.54737 0.524549 0.514697 0.506752 0.498066 0.471404 0.464348 0.463016 0.430199 0.420867
threshold=21.000000000000004 42.000000000000007 311.35000000000008 7.8500000000000005 368.30000000000007 10.500000000000002 159.05000000000004 5.0000000000000009 1.0000000180025095e-35 187.35000000000002 477.50000000000006 114.30000000000001 116.60000000000001 51.95000000000001 163.45000000000002 5.0000000000000009 477.50000000000006 867.85000000000014 4.8000000000000007 782.70000000000016 10.450000000000001 16.100000000000005 360.80000000000007 759.40000000000009 844.75000000000011 94.350000000000009 850.30000000000007 669.50000000000011 145.70000000000002 155.30000000000004
decision_type=2 2 2 2 2 2 2 2 2 2 2 2 2 2 2 2 2 2 2 2 2 2 2 2 2 2 2 2 2 2
left_child=4 2 6 10 5 15 11 -6 16 21 17 -2 24 18 19 -1 -4 27 -8 -10 28 -5 -11 -15 -9 -25 -21 -3 -13 -17
right_child=1 3 8 9 7 -7 13 12 14 22 -12 20 -14 23 -16 29 -18 -19 -20 26 -22 -23 -24 25 -26 -27 -28 -29 -30 -31
leaf_value=-0.063456330167235064 -0.049622187231268204 0.0065363494989772635 -0.0027254320607569653 0.042077720593661078 -0.034214638215913015 -0.020638708095731484 -0.025203568115830424 -0.013714796099811792 0.042136414820561185 0.07854021357165443 0.062252512905332784 -0.0085629416722804302 0.040701964497566225 0.0012130625078439594 0.067662656679749494 -0.073299849033355721 0.037543342458084231 -0.0010049427266825329 -0.0026487380780022725 0.007187298747400441 0.008521553661142078 0.063618929454913514 0.11855621814727785 0.010398481870916755 0.019135522904495397 0.045244160294532779 0.038290204852819448 0.027865985336143581 -0.030151106859557332 -0.042483473241997832
leaf_weight=53 13.999999999999998 11.999999999999998 19.000000000000004 20 22 35 18 20.000000000000004 24 8.9999999999999982 8.9999999999999982 14.999999999999998 5.9999999999999991 31 7.9999999999999991 4.9999999999999991 4.9999999999999991 10.999999999999998 29 12.000000000000002 6.9999999999999991 26 4.9999999999999991 11.000000000000002 5.9999999999999991 5.9999999999999991 7.9999999999999991 67 24 39
leaf_count=53 14 12 19 20 22 35 18 20 24 9 9 15 6 31 8 5 5 11 29 12 7 26 5 11 6 6 8 67 24 39
internal_value=1.6766e-10 0.0173766 0.00210789 0.0395595 -0.0364349 -0.0462795 -0.0102849 -0.0123702 0.0273826 0.0632548 0.0251987 -0.0247855 0.00264778 -0.00112657 0.0374066 -0.0555313 0.0056639 0.0214934 -0.0112868 0.0319055 -0.0172265 0.0542532 0.0928316 0.00882194 -0.00613395 0.022697 0.0196285 0.024626 -0.021848 -0.0459853
internal_weight=576 390 231 159 186 132 155 54 76 60 99 60 32 95 52 97 24 90 47 44 46 46 14 48 26 17 20 79 39 44
internal_count=576 390 231 159 186 132 155 54 76 60 99 60 32 95 52 97 24 90 47 44 46 46 14 48 26 17 20 79 39 44
is_linear=0
shrinkage=0.1


Tree=13
num_leaves=31
num_cat=0
split_feature=7 7 4 7 3 4 1 4 5 1 1 6 6 4 6 6 3 6 6 6 6 5 5 4 6 4 6 7 3 1
split_gain=29.5386 10.6997 4.38251 3.46291 2.76541 2.60134 1.29393 0.958278 0.926865 0.9018 1.4806 0.870783 0.850883 0.834121 0.799661 0.714532 0.713659 0.685495 0.66146 0.595548 0.587349 0.557101 0.540726 0.51373 0.511092 0.494901 0.475866 0.477181 0.448349 0.417763
threshold=21.000000000000004 42.000000000000007 7.8500000000000005 5.0000000000000009 165.25000000000003 7.8500000000000005 187.35000000000002 11.050000000000002 1119.5000000000002 14.300000000000002 43.70000000000001 775.95000000000016 806.55000000000007 7.7000000000000002 759.15000000000009 751.50000000000011 157.95000000000002 801.50000000000011 797.55000000000007 745.80000000000007 848.00000000000011 948.95000000000016 953.20000000000016 4.8000000000000007 758.30000000000007 12.050000000000002 669.50000000000011 73.000000000000014 153.95000000000002 14.300000000000002
decision_type=2 2 2 2 2 2 2 2 2 2 2 2 2 2 2 2 2 2 2 2 2 2 2 2 2 2 2 2 2 2
left_child=3 4 8 7 11 14 22 -1 20 13 -11 -2 19 23 -5 -15 -13 -18 -17 -12 26 -21 25 24 -6 -4 -3 29 -7 -28
right_child=1 2 6 5 9 28 -8 -9 -10 10 12 16 -14 15 -16 18 17 -19 -20 21 -22 -23 -24 -25 -26 -27 27 -29 -30 -31
leaf_value=-0.0562071920033883 0.049518069533885205 0.0058827145490795377 0.089421170949935846 -0.018145736845003237 0.0062244172973026125 0.020220052823424341 0.083548477824245182 -0.030646062954328958 0.057756918775183824 0.055752233266830445 -0.002763326439075172 0.028361665104564865 -0.018520568809472025 -0.05072384178638456 -0.039578588101632742 0.00081444501199505524 0.019144032616168264 -0.0309905931353569 -0.036976459249854092 0.023545322283778505 0.0043481863888078613 -0.0017558162765843527 0.040526779670396758 0.015222148461775345 -0.017474512927807297 0.051974953276415672 -0.0034982295357622213 0.032494395707753747 -0.0056760464723293602 0.031408432374397909
leaf_weight=55 10.999999999999998 11.999999999999998 5.0000000000000027 27 13.999999999999998 8.9999999999999982 13.999999999999998 20 6.9999999999999991 4.9999999999999991 50 19.000000000000004 20 8.0000000000000018 49 11.000000000000002 5.9999999999999982 5 7.9999999999999991 23 19 13.999999999999998 29 10.999999999999998 26 11.999999999999998 7.9999999999999982 47 26 6
leaf_count=55 11 12 5 27 14 9 14 20 7 5 50 19 20 8 49 11 6 5 8 23 19 14 29 11 26 12 8 47 26 6
internal_value=-9.64873e-11 0.015639 0.0356036 -0.0327914 0.0018971 -0.0215755 0.0569293 -0.0493909 0.0226789 -0.00318553 0.00256379 0.0254508 7.83485e-05 -0.011441 -0.0319643 -0.0256535 0.0166261 -0.00364443 -0.0150975 0.00435396 0.0200099 0.0139719 0.0488279 -0.0039167 -0.00917989 0.0629885 0.0240862 0.0276672 0.00098295 0.0114618
internal_weight=576 390 159 186 231 111 60 75 99 190 112 41 107 78 76 27 30 11 19 87 92 37 46 51 40 17 73 61 35 14
internal_count=576 390 159 186 231 111 60 75 99 190 112 41 107 78 76 27 30 11 19 87 92 37 46 51 40 17 73 61 35 14
is_linear=0
shrinkage=0.1


Tree=14
num_leaves=31
num_cat=0
split_feature=0 3 5 3 2 1 0 4 4 0 3 1 3 2 4 0 1 3 0 2 5 4 0 4 1 1 5 1 0 5
split_gain=9.12664 3.83576 1.76613 1.33458 1.12963 1.07104 1.00393 0.924359 0.970654 0.882133 0.880509 0.779957 0.717632 0.634793 1.04517 0.51299 0.454267 0.458416 0.422211 0.31378 0.402159 0.306368 0.297965 0.28587 0.41576 0.327437 0.280367 0.278407 0.428074 0.313684
threshold=263.25000000000006 182.25000000000003 962.30000000000007 175.55000000000004 41.750000000000007 48.800000000000004 170.65000000000003 6.9500000000000011 8.5500000000000025 500.05000000000007 191.90000000000003 187.35000000000002 159.10000000000002 1.0000000180025095e-35 7.7000000000000002 214.35000000000005 123.35000000000001 191.40000000000003 282.50000000000006 127.80000000000003 1006.35 9.8000000000000025 333.50000000000006 12.050000000000002 187.35000000000002 141.90000000000003 940.30000000000007 131.15000000000003 159.05000000000004 1040.3000000000002
decision_type=2 2 2 2 2 2 2 2 2 2 2 2 2 2 2 2 2 2 2 2 2 2 2 2 2 2 2 2 2 2
left_child=3 4 10 5 7 6 -1 -2 -9 22 -3 13 -8 27 16 19 17 -15 -6 -7 -21 -12 -4 25 -25 -10 -20 -5 -29 -30
right_child=1 2 9 11 18 15 12 8 23 -11 21 -13 -14 14 -16 -17 -18 -19 26 20 -22 -23 -24 24 -26 -27 -28 28 29 -31
leaf_value=-0.032750846212729813 0.058198220316659326 0.040425291471183303 -0.018532458924250129 -0.037420479252934458 0.033930050674825907 -0.013010897487401958 0.0078833558345929935 -0.01141024484920005 0.050077414093539122 0.03176979086652864 0.01098814444141645 -0.0062960933653643178 -0.014483408941305244 -0.0046349030628334729 -0.035063158618286253 0.037537277986605964 0.017639617125193279 -0.025365681573748591 -0.00026724584596721749 0.021994289240011799 -0.0077356074204934502 -0.011321968585252763 -0.0058710522339225002 0.019200333593220549 0.050423503220081337 0.030107403532243695 0.015588379623713317 -0.036586186153193319 -0.0076354912016540757 -0.036330778002738949
leaf_weight=15.999999999999998 10.999999999999998 9.9999999999999982 34 25 7.9999999999999991 7.0000000000000027 26 5.9999999999999991 11.999999999999998 4.9999999999999991 51 43 32 32 20 5.9999999999999991 5.9999999999999991 15.999999999999998 19 13.000000000000002 6.9999999999999991 6.9999999999999991 41 29 4.9999999999999991 26 27 14.999999999999998 16.000000000000004 4.9999999999999991
leaf_count=16 11 10 34 25 8 7 26 6 12 5 51 43 32 32 20 6 6 16 19 13 7 7 41 29 5 26 27 15 16 5
internal_value=1.69166e-11 0.0124572 0.0011718 -0.0127195 0.0241372 -0.00389338 -0.0105745 0.0310603 0.0272332 -0.0088996 0.0130205 -0.018025 -0.00445693 -0.0217609 -0.015535 0.0110886 -0.00830241 -0.0115452 0.0127268 0.00521112 0.0115888 0.00829554 -0.0116109 0.0304535 0.023792 0.0364137 0.00903932 -0.0293135 -0.0236837 -0.0144677
internal_weight=576 291 148 285 143 107 74 89 78 80 68 178 58 135 74 33 54 48 54 27 20 58 75 72 34 38 46 61 36 21
internal_count=576 291 148 285 143 107 74 89 78 80 68 178 58 135 74 33 54 48 54 27 20 58 75 72 34 38 46 61 36 21
is_linear=0
shrinkage=0.1


Tree=15
num_leaves=31
num_cat=0
split_feature=7 7 4 7 3 4 1 3 5 6 4 3 1 5 6 4 3 4 5 6 5 6 6 6 3 1 1 4 7 6
split_gain=23.6439 8.27138 3.0917 2.90887 1.87658 1.71106 0.901318 0.696757 0.977852 0.908478 0.754002 0.695147 0.68861 0.639448 0.562856 0.525321 0.6564 0.497415 1.13385 0.461745 0.428463 0.425806 0.417176 0.416887 0.382264 0.368809 0.607398 0.345098 0.392648 0.453038
threshold=21.000000000000004 42.000000000000007 7.8500000000000005 5.0000000000000009 165.25000000000003 7.8500000000000005 187.35000000000002 191.40000000000003 913.60000000000014 763.50000000000011 11.450000000000001 190.75000000000003 94.250000000000014 1062.3500000000001 759.15000000000009 12.15 154.70000000000002 7.7000000000000002 823.00000000000011 793.10000000000014 1077.4500000000003 821.60000000000014 893.35000000000014 821.60000000000014 154.70000000000002 187.35000000000002 93.600000000000009 6.2500000000000009 73.000000000000014 882.20000000000016
decision_type=2 2 2 2 2 2 2 2 2 2 2 2 2 2 2 2 2 2 2 2 2 2 2 2 2 2 2 2 2 2
left_child=3 4 13 11 12 14 20 8 10 -10 21 -1 15 27 -5 16 -2 -9 -19 -18 22 -6 24 -14 -4 26 -7 28 -3 -30
right_child=1 2 6 5 7 25 -8 17 9 -11 -12 -13 23 -15 -16 -17 19 18 -20 -21 -22 -23 -24 -25 -26 -27 -28 -29 29 -31
leaf_value=-0.037947017776177212 0.043469135835766753 -0.0033458164939656854 0.065909016132354711 -0.01589022689257507 0.041843686594317336 -0.0050257936873961059 0.071673844994178837 -0.0035921866620460957 0.0068373309343825184 -0.013921720320610582 -0.0099655694017807654 -0.058585522013405958 0.064040142297744768 0.040492558905056548 -0.033871718788785594 -0.013000892723600069 0.025375045463442804 0.009114372109373407 -0.033973928935531722 -0.0086008501006290313 0.017776517818371456 0.0092167649418115616 0.027479996511505712 0.024943001319964724 0.043111112017772707 -0.02333036130294204 0.027354519395157696 0.03487779498100281 0.021066920544233241 -0.0043452324345707892
leaf_weight=51 8.0000000000000053 9.9999999999999982 12.000000000000002 27 12.000000000000005 21.000000000000004 13.999999999999998 52 49 37 5.9999999999999991 24 4.9999999999999982 13.999999999999998 49 5.9999999999999991 7.9999999999999991 9.0000000000000018 19 7.9999999999999991 5.9999999999999991 5.9999999999999991 8.9999999999999982 6 19 5.9999999999999991 7.9999999999999991 9.9999999999999982 57 7.9999999999999991
leaf_count=51 8 10 12 27 12 21 14 52 49 37 6 24 5 14 49 6 8 9 19 8 6 6 9 6 19 6 8 10 57 8
internal_value=-5.48122e-11 0.0139918 0.0315453 -0.0293376 0.00190947 -0.019058 0.0494572 -0.00227743 0.00288688 -0.00209389 0.0207346 -0.0445513 0.0213122 0.0206896 -0.0274836 0.0134647 0.0200811 -0.00937836 -0.0201241 0.0083871 0.0426956 0.030968 0.0464335 0.0427144 0.0519361 -0.000762505 0.00390671 0.0174279 0.0151013 0.0179393
internal_weight=576 390 159 186 231 111 60 190 110 86 24 75 41 99 76 30 24 80 28 16 46 18 40 11 31 35 29 85 75 65
internal_count=576 390 159 186 231 111 60 190 110 86 24 75 41 99 76 30 24 80 28 16 46 18 40 11 31 35 29 85 75 65
is_linear=0
shrinkage=0.1


Tree=16
num_leaves=31
num_cat=0
split_feature=7 7 0 0 4 7 0 4 7 1 0 0 1 1 1 1 0 4 0 6 6 5 6 1 0 0 4 4 7 6
split_gain=19.1516 6.69982 3.91836 2.69382 2.50428 1.74613 1.20979 0.941594 0.927972 0.730068 0.698311 0.696645 0.564579 0.554739 0.54445 0.428801 0.420612 0.394934 0.366212 0.358447 0.352031 0.347055 0.392454 0.371814 0.336297 0.398983 0.319565 0.311635 0.288623 0.337353
threshold=21.000000000000004 42.000000000000007 311.35000000000008 389.25000000000006 7.8500000000000005 10.500000000000002 159.05000000000004 1.9500000000000002 5.0000000000000009 187.35000000000002 214.35000000000005 477.50000000000006 51.95000000000001 114.30000000000001 163.45000000000002 94.250000000000014 360.80000000000007 6.2500000000000009 391.45000000000005 729.65000000000009 655.30000000000007 1077.4500000000003 844.75000000000011 93.600000000000009 395.00000000000006 500.05000000000007 10.450000000000001 11.450000000000001 73.000000000000014 882.20000000000016
decision_type=2 2 2 2 2 2 2 2 2 2 2 2 2 2 2 2 2 2 2 2 2 2 2 2 2 2 2 2 2 2
left_child=3 2 6 5 11 10 13 18 -5 21 -1 17 -8 -2 24 -10 -11 28 -4 -20 -12 22 -6 -24 -9 27 -15 -26 -3 -30
right_child=1 4 7 8 9 -7 12 14 15 16 20 -13 -14 26 -16 -17 -18 -19 19 -21 -22 -23 23 -25 25 -27 -28 -29 29 -31
leaf_value=-0.048503292646518981 -0.035947417574269433 -0.0030112347903195769 -0.0072079903589418286 -0.019788770608283813 0.053311500128577743 -0.01344430391878091 -0.0081708832904931784 0.015408010414356126 0.0029360044614544934 0.05158710678418478 -0.0091511205459634468 0.045147617047445646 0.0072480566780238108 -0.016744518811360767 0.052065553516149526 0.03488839790225029 0.087761297225952162 0.029694993432392094 -0.00026552323251962669 0.034300670068478208 -0.03448337793379324 0.015998865912357964 0.023080072532008795 0.049132091800371813 0.06022604008515673 0.01389036455324718 0.0064602296799421317 0.029168280959129329 0.018067199683070863 -0.0039107096148654824
leaf_weight=43 13.999999999999998 9.9999999999999982 13.000000000000002 15.999999999999998 17 37 47 23 14.000000000000002 8.9999999999999982 5.9999999999999991 8.9999999999999982 48 39 7.9999999999999991 5.9999999999999991 4.9999999999999991 17 5.9999999999999982 6 64 5.9999999999999991 14.000000000000002 8.9999999999999982 6.0000000000000018 6.9999999999999991 6.9999999999999991 7 55 7.9999999999999991
leaf_count=43 14 10 13 16 17 37 47 23 14 9 6 9 48 39 8 6 5 17 6 6 64 6 14 9 6 7 7 7 55 8
internal_value=-1.15614e-10 0.0125926 0.00171852 -0.0264038 0.0283908 -0.0322995 -0.00740131 0.0203182 -0.0018385 0.0445115 -0.0384733 0.0186206 -0.000380261 -0.018518 0.0281113 0.0125217 0.0645065 0.0159679 0.00442028 0.0170176 -0.032312 0.0384261 0.0417901 0.0332743 0.0236547 0.0331383 -0.0132134 0.0435026 0.0127712 0.0152764
internal_weight=576 390 231 186 159 150 155 76 36 60 113 99 95 60 51 20 14 90 25 12 70 46 40 23 43 20 46 13 73 63
internal_count=576 390 231 186 159 150 155 76 36 60 113 99 95 60 51 20 14 90 25 12 70 46 40 23 43 20 46 13 73 63
is_linear=0
shrinkage=0.1


Tree=17
num_leaves=31
num_cat=0
split_feature=0 4 0 0 4 6 2 1 1 1 6 0 6 4 5 5 5 5 2 6 6 6 5 0 6 5 6 6 2 6
split_gain=5.387 2.0058 1.75919 0.886204 0.970292 0.761806 0.758595 0.596829 0.525743 0.471674 0.566945 0.447204 0.394467 0.389925 0.39269 0.342437 0.325933 0.307897 0.278045 0.322238 0.272033 0.399173 0.263853 0.264862 0.243716 0.238652 0.343667 0.205351 0.203268 0.194768
threshold=263.25000000000006 1.0000000180025095e-35 518.00000000000011 159.05000000000004 6.2500000000000009 761.50000000000011 41.750000000000007 166.50000000000003 163.45000000000002 48.800000000000004 792.25000000000011 207.10000000000002 659.95000000000016 10.450000000000001 1040.3000000000002 1058.6500000000003 965.70000000000016 1085.2000000000003 122.50000000000001 766.50000000000011 793.75000000000011 642.00000000000011 1028.9000000000003 389.25000000000006 882.20000000000016 962.30000000000007 669.50000000000011 712.10000000000014 99.350000000000009 690.95000000000016
decision_type=2 2 2 2 2 2 2 2 2 2 2 2 2 2 2 2 2 2 2 2 2 2 2 2 2 2 2 2 2 2
left_child=3 2 5 8 7 25 20 15 -1 11 -11 -6 -9 14 -10 24 18 28 19 -8 21 -3 23 -23 -5 26 -2 -28 -13 -14
right_child=1 6 -4 4 9 -7 16 12 13 10 -12 17 29 -15 -16 -17 -18 -19 -20 -21 -22 22 -24 -25 -26 -27 27 -29 -30 -31
leaf_value=-0.027528557105845699 -0.0015409728162921966 0.0094884032756090177 0.042593283102744156 -0.011426418140979002 -0.015188969967242045 -0.011689593647315633 -0.02550896063446997 -0.023445836976170524 -0.010675030834330567 0.002487532071995013 0.030802551656961441 0.011143690453738803 0.01985982814803719 0.012513195661207042 -0.041019564270973211 -0.030438291723839939 0.019281660082439582 0.024956271946430207 0.012400365562137703 0.0027385691247348277 0.016760532526214691 0.022793885812163354 0.051134092609087627 0.041414534740827305 -0.028421975746750833 -0.0034713446931994478 0.027341124872592354 0.0075412928685545918 -0.0064786795185379263 -0.0015847110913859474
leaf_weight=37 15.999999999999998 9.9999999999999982 8.9999999999999982 54 26 56 5.0000000000000027 5.0000000000000027 29 33 8.9999999999999982 8.9999999999999982 8.0000000000000018 5.9999999999999991 4.9999999999999991 15.999999999999998 21 4.9999999999999991 23 21 44 25 5.9999999999999991 10.999999999999998 9.9999999999999982 23 11.000000000000002 9.9999999999999982 24 8.9999999999999982
leaf_count=37 16 10 9 54 26 56 5 5 29 33 9 9 8 6 5 16 21 5 23 21 44 25 6 11 10 23 11 10 24 9
internal_value=5.01915e-11 0.00957058 3.1289e-06 -0.00977207 -0.00637927 -0.00330128 0.016775 -0.0133419 -0.018937 0.000320609 0.00855504 -0.00508323 0.00124487 -0.0109899 -0.0151375 -0.0173532 0.00885841 0.00183122 0.0043913 -0.00269365 0.0225475 0.0274441 0.0317193 0.0284835 -0.014082 0.00452781 0.00950026 0.0179126 -0.00167258 0.00850684
internal_weight=576 291 125 285 208 116 166 102 77 106 42 64 22 40 34 80 70 38 49 26 96 52 42 36 64 60 37 21 33 17
internal_count=576 291 125 285 208 116 166 102 77 106 42 64 22 40 34 80 70 38 49 26 96 52 42 36 64 60 37 21 33 17
is_linear=0
shrinkage=0.1


Tree=18
num_leaves=31
num_cat=0
split_feature=7 7 7 4 3 3 3 1 2 1 3 4 5 3 3 4 2 2 4 7 3 4 4 1 7 3 3 4 4 3
split_gain=15.3191 5.18055 2.11069 1.86574 1.0905 0.950249 0.817556 0.684991 0.784807 0.735799 0.620029 0.453551 0.488792 0.447133 0.445301 0.356882 0.402075 0.351259 0.373368 0.324328 0.305084 0.457193 0.276054 0.276562 0.26918 0.227873 0.462559 0.526074 0.507556 0.277938
threshold=21.000000000000004 42.000000000000007 5.0000000000000009 10.250000000000002 157.45000000000002 157.95000000000002 164.85000000000005 14.300000000000002 141.50000000000003 42.150000000000013 192.95000000000002 1.0000000180025095e-35 1065.9000000000003 191.40000000000003 167.25000000000003 5.4000000000000012 98.40000000000002 41.750000000000007 15.150000000000002 225.00000000000003 155.20000000000002 12.15 11.450000000000001 97.450000000000003 90.500000000000014 191.90000000000003 185.85000000000002 8.0500000000000025 11.250000000000002 172.35000000000005
decision_type=2 2 2 2 2 2 2 2 2 2 2 2 2 2 2 2 2 2 2 2 2 2 2 2 2 2 2 2 2 2
left_child=2 4 13 10 17 -4 20 8 -6 -9 24 -7 22 15 -11 -1 -17 18 -2 -12 21 -5 23 -13 -3 26 27 -16 29 -29
right_child=1 3 5 6 7 11 -8 9 -10 14 19 12 -14 -15 25 16 -18 -19 -20 -21 -22 -23 -24 -25 -26 -27 -28 28 -30 -31
leaf_value=-0.0060395483020693067 0.052331630388895649 0.01894327811843885 0.0085488035196127996 0.066924634150096321 -0.0027994409095312301 -0.024324787517876499 0.081663250923156738 0.031823737753762141 -0.027315569296479228 0.028623632496843739 0.003196629233144481 -0.0081924908262278346 -0.039629775285720828 -0.048183944554108647 -0.0082007804126651204 -0.02384951369216045 -0.042453494610694739 0.010241759365255183 0.015331399440765378 0.022744290546203652 0.02700019965746573 0.035624494164117747 -0.025729446113109591 0.013656979985535146 0.030790122735368852 -0.0046867725074939103 0.030999700973431271 0.006910042584474591 -0.0053749073042788295 0.032890659002587197
leaf_weight=4.9999999999999991 6.0000000000000018 44 14.999999999999998 7.0000000000000027 71 56 4.9999999999999991 8.9999999999999982 15.999999999999998 5.9999999999999991 29 21.000000000000004 4.9999999999999991 23 27 21 26 10.999999999999998 5 11.999999999999998 13.999999999999998 13.999999999999998 5.9999999999999991 7.9999999999999991 34 46 5.9999999999999991 7.0000000000000062 10.999999999999998 9.9999999999999982
leaf_count=5 6 44 15 7 71 56 5 9 16 6 29 21 5 23 27 21 26 11 5 12 14 14 6 8 34 46 6 7 11 10
internal_value=5.27305e-11 0.0112624 -0.0236147 0.0251543 0.00170039 -0.0148583 0.0438384 -0.000528782 -0.00730815 0.00430569 0.018874 -0.0185156 -0.0103828 -0.0365741 0.00211398 -0.031439 -0.0341411 0.0228776 0.0355133 0.0089179 0.0384348 0.0460579 -0.00620466 -0.00216505 0.0241073 0.000627463 0.00463492 0.00175876 0.0113626 0.0221928
internal_weight=576 390 186 159 231 111 40 209 87 122 119 96 40 75 113 52 47 22 11 41 35 21 35 29 78 107 61 55 28 17
internal_count=576 390 186 159 231 111 40 209 87 122 119 96 40 75 113 52 47 22 11 41 35 21 35 29 78 107 61 55 28 17
is_linear=0
shrinkage=0.1


Tree=19
num_leaves=31
num_cat=0
split_feature=7 7 0 7 0 3 0 0 0 2 3 5 3 3 6 0 7 6 3 7 6 5 3 6 2 5 0 0 0 6
split_gain=12.4085 4.19624 2.35179 1.70966 1.42966 1.42258 0.939975 0.728111 0.540353 0.523656 0.517794 0.464657 0.370187 0.351607 0.345769 0.321275 0.308613 0.277973 0.377959 0.274354 0.262633 0.317769 0.250861 0.347526 0.346751 0.259608 0.241903 0.221788 0.3187 0.219217
threshold=21.000000000000004 42.000000000000007 313.15000000000003 5.0000000000000009 386.00000000000006 189.15000000000003 252.15000000000003 159.05000000000004 360.80000000000007 94.350000000000009 152.45000000000002 923.50000000000011 184.50000000000003 169.75000000000003 690.95000000000016 412.90000000000003 95.500000000000014 829.25000000000011 192.95000000000002 225.00000000000003 844.75000000000011 1022.4000000000001 184.50000000000003 694.35000000000014 145.00000000000003 866.95000000000016 232.80000000000004 143.80000000000004 137.80000000000004 793.75000000000011
decision_type=2 2 2 2 2 2 2 2 2 2 2 2 2 2 2 2 2 2 2 2 2 2 2 2 2 2 2 2 2 2
left_child=3 2 7 8 9 6 16 27 -1 14 -4 13 -13 -12 -5 -15 -3 18 -7 -20 21 -8 24 -24 25 -9 -16 28 -2 -27
right_child=1 5 10 4 -6 17 20 22 -10 -11 11 12 -14 15 26 -17 -18 -19 19 -21 -22 -23 23 -25 -26 29 -28 -29 -30 -31
leaf_value=-0.038739464278606806 -0.017983028484741228 0.011151657486334444 0.040510580129921439 -0.0017900262338419754 0.010122092108109168 0.028074409719556572 0.056021021120250217 0.028224313010772068 -0.020543353972607294 -0.0085852047443040654 0.0059110501160224253 0.018805597929490936 0.00014979114021116403 0.021725627034902578 -0.037855132818222052 0.052336929738521568 0.028136537375900411 -0.00020672901843984921 0.0043291657887123249 0.023064836842769929 0.031207840320550736 0.03497243063667646 0.010286777901152771 -0.0090618076805229781 -0.015081421152821609 0.014012567093595864 -0.022800310572760329 -0.017618245436725292 0.010243731387890876 -0.0022957846412763878
leaf_weight=51 7.9999999999999991 20 7.9999999999999991 5.9999999999999991 21 15.999999999999998 16.000000000000004 5.9999999999999991 24 32 6.0000000000000027 18 26 7.9999999999999982 14.999999999999998 6 23 14.999999999999998 27 10.999999999999998 18 12.999999999999998 11.999999999999998 41 6.9999999999999991 15.999999999999998 37 44 7.9999999999999991 17
leaf_count=51 8 20 8 6 21 16 16 6 24 32 6 18 26 8 15 6 23 15 27 11 18 13 12 41 7 16 37 44 8 17
internal_value=3.21393e-11 0.0101361 0.00153035 -0.0212532 -0.0133724 0.0226389 0.030921 -0.0052595 -0.0329167 -0.0188545 0.0165246 0.0135264 0.00778171 0.0261646 -0.0245203 0.0348448 0.0202366 0.0118361 0.0151813 0.00975265 0.0406962 0.0465854 8.6453e-06 -0.004681 0.00541193 0.00909022 -0.027143 -0.013952 -0.00386965 0.00561129
internal_weight=576 390 231 186 111 159 90 159 75 90 72 64 44 20 58 14 43 69 54 38 47 29 99 53 46 39 52 60 16 33
internal_count=576 390 231 186 111 159 90 159 75 90 72 64 44 20 58 14 43 69 54 38 47 29 99 53 46 39 52 60 16 33
is_linear=0
shrinkage=0.1


Tree=20
num_leaves=31
num_cat=0
split_feature=7 7 7 4 4 5 1 2 6 6 4 2 6 4 4 1 5 1 2 1 7 1 2 1 5 5 1 5 6 5
split_gain=10.0509 3.39896 1.38483 1.28033 0.658503 0.637585 0.571447 0.505198 0.414367 0.621074 0.354443 0.361631 0.345053 0.310686 0.313908 0.285824 0.283587 0.283139 0.279947 0.251554 0.248405 0.222351 0.214758 0.233174 0.398285 0.390946 0.297249 0.267646 0.239679 0.239324
threshold=21.000000000000004 42.000000000000007 5.0000000000000009 10.250000000000002 7.8500000000000005 1119.5000000000002 187.35000000000002 160.40000000000003 800.05000000000007 608.40000000000009 10.050000000000002 87.750000000000014 783.50000000000011 11.050000000000002 11.65 187.35000000000002 870.05000000000007 93.600000000000009 124.55000000000001 40.050000000000004 90.500000000000014 133.50000000000003 141.50000000000003 136.35000000000002 1067.5000000000002 978.20000000000016 255.10000000000002 985.90000000000009 690.95000000000016 936.10000000000014
decision_type=2 2 2 2 2 2 2 2 2 2 2 2 2 2 2 2 2 2 2 2 2 2 2 2 2 2 2 2 2 2
left_child=2 5 13 8 12 7 -5 10 9 -3 16 -12 21 19 -15 17 -2 -6 -13 -1 -11 -4 23 24 25 29 27 28 -25 -18
right_child=1 3 4 6 15 -7 -8 -9 -10 20 11 18 -14 14 -16 -17 22 -19 -20 -21 -22 -23 -24 26 -26 -27 -28 -29 -30 -31
leaf_value=-0.028191205987925919 0.0088008423065600392 -0.0012658005580306053 -0.0066256387469669185 0.028951914769907796 -0.0026735637713933271 0.033549375459551813 0.056554992944002153 -0.015083174044756512 0.0073274366416816797 0.017673332161982271 0.019326201152233852 -0.0095551656985965842 -0.024953645972930122 0.00018524425104260434 -0.027153385004826953 -0.020552638669808707 0.0062587261792610999 0.019434172473847867 0.010936812162399293 -0.042111473707925708 0.030157791425784432 -0.022283104721170205 -0.022616290065925568 -0.022743463218212114 -0.011903541566639701 0.015406178232478852 0.015614053308963777 -0.020216482528485361 0.0020055593715773688 -0.0092893013006283189
leaf_weight=34 28 11.999999999999998 30 30 21.000000000000004 5.9999999999999991 9.9999999999999982 19 43 34 21 12.000000000000002 33 6.0000000000000027 13.999999999999998 5.9999999999999991 22 7.9999999999999991 14.999999999999998 21 30 12.999999999999998 4.9999999999999991 5.0000000000000027 17 24 4.9999999999999991 15.999999999999998 18 18
leaf_count=34 28 12 30 30 21 6 10 19 43 34 21 12 33 6 14 6 22 8 15 21 30 13 5 5 17 24 5 16 18 18
internal_value=-1.74396e-11 0.00912253 -0.0191279 0.020375 -0.0120352 0.00137732 0.0358527 0.000519396 0.0151724 0.019611 0.00195847 0.00948418 -0.0172621 -0.029625 -0.0189518 -0.000685351 -0.000327822 0.00342512 0.00182927 -0.0335062 0.0235254 -0.0113593 -0.002294 -0.0014811 0.00170213 0.00531614 -0.00734115 -0.0102841 -0.00337466 -0.000737886
internal_weight=576 390 186 159 111 231 40 225 119 76 206 48 76 75 20 35 158 29 27 55 64 43 130 125 81 64 44 39 23 40
internal_count=576 390 186 159 111 231 40 225 119 76 206 48 76 75 20 35 158 29 27 55 64 43 130 125 81 64 44 39 23 40
is_linear=0
shrinkage=0.1


Tree=21
num_leaves=31
num_cat=0
split_feature=7 7 0 0 4 7 0 4 4 7 0 6 6 0 4 0 7 6 4 7 0 5 0 5 5 0 6 5 0 0
split_gain=8.14122 2.75315 1.67379 1.25977 1.03707 0.856595 0.542389 0.462316 0.4435 0.426659 0.345978 0.335637 0.50307 0.331233 0.320505 0.318662 0.297457 0.265706 0.217505 0.217286 0.200606 0.280847 0.190113 0.222378 0.203223 0.166465 0.202167 0.196833 0.166166 0.261286
threshold=21.000000000000004 42.000000000000007 313.15000000000003 389.25000000000006 10.250000000000002 10.500000000000002 159.05000000000004 3.2000000000000006 12.050000000000002 5.0000000000000009 285.15000000000003 800.05000000000007 608.40000000000009 482.50000000000006 6.6000000000000005 391.45000000000005 5.0000000000000009 690.95000000000016 15.950000000000001 90.500000000000014 238.15000000000001 1058.6500000000003 155.30000000000004 943.35000000000014 972.20000000000016 325.30000000000007 801.50000000000011 965.70000000000016 143.80000000000004 137.80000000000004
decision_type=2 2 2 2 2 2 2 2 2 2 2 2 2 2 2 2 2 2 2 2 2 2 2 2 2 2 2 2 2 2
left_child=3 2 6 5 11 16 28 13 10 -5 -6 12 -3 -4 -9 19 -1 -18 -10 -14 21 -7 -19 -24 -25 -16 27 -27 29 -2
right_child=1 4 7 9 8 20 -8 14 18 -11 -12 -13 15 -15 25 -17 17 22 -20 -21 -22 -23 23 24 -26 26 -28 -29 -30 -31
leaf_value=-0.030479476517224213 -0.01604300462640822 -0.0011392205022275447 -0.0012269924435278643 -0.012587560946121812 0.029113314880265119 -0.0071537718735635268 5.8352303709728983e-05 0.041760133951902395 0.012548162669620729 0.0093211382813751711 0.056139201521873475 0.0065946929784881508 0.01156299111985222 0.027171621862798929 0.0016049733385443687 0.035861684878667192 -0.00036780011529723806 -0.041144020557403571 0.032925503104925161 0.024500933755189181 0.00039513031952083112 -0.032752783844868343 -0.0065646121071444618 -0.0428612557053566 -0.021031838270096942 0.033893075585365286 0.0087737888097763062 0.014329567282564111 -0.015164352089843966 0.0095150488545186832
leaf_weight=59 7.9999999999999991 11.999999999999998 23.000000000000004 15.999999999999998 9.0000000000000018 15.000000000000002 99 5.9999999999999991 11.000000000000002 20 9.9999999999999982 43 27 4.9999999999999991 5.9999999999999991 11.999999999999998 5.9999999999999991 4.9999999999999991 9.9999999999999982 25 15.999999999999998 5.9999999999999991 8.9999999999999982 4.9999999999999991 29 12.000000000000002 10.999999999999998 8.9999999999999982 44 7.9999999999999991
leaf_count=59 8 12 23 16 9 15 99 6 11 20 10 43 27 5 6 12 6 5 10 25 16 6 9 5 29 12 11 9 44 8
internal_value=-3.53402e-11 0.00821027 0.00123959 -0.0172151 0.0183375 -0.0212469 -0.00448854 0.0138892 0.0322674 -0.000416061 0.0433375 0.0136552 0.0176499 0.00384419 0.0202815 0.0211729 -0.025571 -0.0202081 0.0222517 0.0177832 -0.00804057 -0.0144678 -0.0226882 -0.0205421 -0.024242 0.0168901 0.0197561 0.0255087 -0.0119909 -0.00326398
internal_weight=576 390 231 186 159 150 159 72 40 36 19 119 76 28 44 64 113 54 21 52 37 21 48 43 34 38 32 21 60 16
internal_count=576 390 231 186 159 150 159 72 40 36 19 119 76 28 44 64 113 54 21 52 37 21 48 43 34 38 32 21 60 16
is_linear=0
shrinkage=0.1


Tree=22
num_leaves=31
num_cat=0
split_feature=7 7 0 0 3 7 0 1 0 3 7 6 1 1 1 1 3 0 2 0 7 2 1 0 1 6 6 0 6 0
split_gain=6.59439 2.23006 1.35577 1.02042 0.823476 0.693842 0.557247 0.489571 0.439335 0.417956 0.345594 0.327753 0.295016 0.278101 0.275854 0.27403 0.249925 0.263691 0.505696 0.242429 0.223094 0.220131 0.215479 0.190801 0.218878 0.22361 0.203662 0.188999 0.177063 0.210743
threshold=21.000000000000004 42.000000000000007 313.15000000000003 389.25000000000006 189.15000000000003 10.500000000000002 252.15000000000003 16.100000000000005 159.05000000000004 161.95000000000002 5.0000000000000009 697.35000000000014 43.70000000000001 118.40000000000002 51.95000000000001 202.20000000000002 194.95000000000002 252.15000000000003 98.40000000000002 214.35000000000005 95.500000000000014 132.05000000000004 94.250000000000014 339.10000000000008 75.700000000000017 690.95000000000016 669.50000000000011 191.35000000000002 777.65000000000009 219.85000000000005
decision_type=2 2 2 2 2 2 2 2 2 2 2 2 2 2 2 2 2 2 2 2 2 2 2 2 2 2 2 2 2 2
left_child=3 2 8 5 6 19 12 9 15 -4 -5 -9 20 -13 16 -2 17 -10 -19 21 -3 -1 -12 24 -6 -26 -25 -27 -7 -30
right_child=1 4 7 10 23 28 -8 11 14 -11 22 13 -14 -15 -16 -17 -18 18 -20 -21 -22 -23 -24 26 25 27 -28 -29 29 -31
leaf_value=-0.033118622982874511 -0.014346064828296611 -9.2935422435402851e-05 0.032169685885310176 -0.011328804667573423 -0.0042673378536063761 0.0016302148412380901 0.030331458337605002 0.0041904724203050137 -0.0090786474718091391 0.0012613164952823095 0.0015938809008470601 0.018464891985058778 0.027161315026191565 0.040299358889460568 0.0050709680454859227 0.0020581098703237682 -0.022931395763797421 -0.0044912183911285618 0.03386391311883926 -0.019383670543985709 0.017192492610774934 -0.016720138168470424 0.024244358390569688 0.0051330131556217851 -0.0011007187888026234 0.0084158383775502464 0.022611386875311536 0.031894515082240102 -0.02179835646723707 -0.0026358003812757408
leaf_weight=32 47 14.000000000000002 4.9999999999999991 15.999999999999998 18 13.999999999999998 47 7.9999999999999991 24 35 14.000000000000002 14.000000000000002 12.999999999999998 9.9999999999999982 52 12.999999999999998 6.9999999999999991 10.999999999999998 4.9999999999999991 70 15.999999999999998 10.999999999999998 5.9999999999999991 12.000000000000002 10.000000000000002 7.9999999999999982 14.999999999999998 6 12.000000000000002 10.999999999999998
leaf_count=32 47 14 5 16 18 14 47 8 24 35 14 14 13 10 52 13 7 11 5 70 16 11 6 12 10 8 15 6 12 11
internal_value=-1.84526e-11 0.00738925 0.00111563 -0.0154936 0.0165037 -0.0191222 0.022805 0.0125003 -0.00403969 0.00512486 -0.000374455 0.0217196 0.0145785 0.0275626 5.25171e-05 -0.0107918 -0.00549981 -0.00244928 0.00749476 -0.0230139 0.00912596 -0.0289237 0.00838902 0.00828466 0.00406844 0.0103203 0.0148432 0.0184781 -0.00723652 -0.0126337
internal_weight=576 390 231 186 159 150 90 72 159 40 36 32 43 24 99 60 47 40 16 113 30 43 20 69 42 24 27 14 37 23
internal_count=576 390 231 186 159 150 90 72 159 40 36 32 43 24 99 60 47 40 16 113 30 43 20 69 42 24 27 14 37 23
is_linear=0
shrinkage=0.1


Tree=23
num_leaves=31
num_cat=0
split_feature=0 3 4 3 1 4 0 1 0 1 5 1 4 4 3 0 1 5 3 0 5 3 3 5 3 5 3 4 1 1
split_gain=1.81635 1.00737 0.488469 0.377947 0.340757 0.379501 0.354904 0.311363 0.493981 0.238945 0.309111 0.211802 0.208569 0.197284 0.397199 0.374488 0.183348 0.171236 0.220651 0.166178 0.293606 0.222111 0.172452 0.145888 0.268503 0.130094 0.12524 0.183649 0.123882 0.164768
threshold=238.05000000000004 181.80000000000004 1.0000000180025095e-35 192.95000000000002 16.100000000000005 10.250000000000002 523.50000000000011 48.800000000000004 159.05000000000004 131.15000000000003 919.50000000000011 183.65000000000003 10.450000000000001 12.050000000000002 161.95000000000002 389.25000000000006 46.350000000000009 1057.0000000000002 157.95000000000002 333.50000000000006 1055.8000000000002 190.75000000000003 185.85000000000002 1005.9000000000001 156.90000000000003 935.70000000000016 144.85000000000002 10.850000000000003 65.000000000000014 194.75000000000003
decision_type=2 2 2 2 2 2 2 2 2 2 2 2 2 2 2 2 2 2 2 2 2 2 2 2 2 2 2 2 2 2
left_child=3 2 -2 7 6 16 19 17 12 -5 -11 -12 -9 14 26 23 -6 18 -1 21 -21 22 -3 24 -15 -17 -4 -28 -10 -30
right_child=1 4 13 9 5 -7 -8 8 28 10 11 -13 -14 15 -16 25 -18 -19 -20 20 -22 -23 -24 -25 -26 -27 27 -29 29 -31
leaf_value=0.0084006598964333542 0.038650885721047717 -0.0092271055856888908 0.010735558747546744 -0.021559851609534868 0.019791138420502345 0.03029111536840598 0.023189493045210841 -0.01232631651148426 0.017993486246892385 0.0038388094758444753 -0.029947074609143379 -0.0092791547286598126 0.0066778559769902907 0.013809901641474821 0.0078229770154706127 0.0094884937971073651 0.0010136890010191844 -0.013821055715609537 -0.008497509694493869 0.0042661502090997477 -0.011257695954512148 -0.011710469089015279 0.0075047242870953466 -0.017058993565539519 -0.0086595750485475246 0.026755006735523543 0.038771004123347129 0.019351020734757186 0.0010212101857177914 0.015996796761949858
leaf_weight=9.9999999999999982 5.9999999999999991 11.000000000000002 8.0000000000000018 23 5.9999999999999991 5.9999999999999991 4.9999999999999991 33 6.9999999999999991 12.999999999999998 7.0000000000000027 17 6.9999999999999991 9.0000000000000053 67 16.000000000000004 39 38 34 43 17 43 13.999999999999998 5.9999999999999991 12.999999999999998 5.9999999999999991 7.0000000000000027 15.999999999999998 40 8.9999999999999982
leaf_count=10 6 11 8 23 6 6 5 33 7 13 7 17 7 9 67 16 39 38 34 43 17 43 14 6 13 6 7 16 40 9
internal_value=-2.94449e-11 0.00471215 0.0106795 -0.00669204 -0.000282303 0.0066672 -0.00294715 -0.00437842 -0.000513015 -0.0135558 -0.00858029 -0.0153073 -0.00900059 0.00954557 0.0121534 0.00443413 0.00351735 -0.00890377 -0.00465702 -0.00396811 -0.000132273 -0.00735268 0.000142719 -0.00323712 0.000532484 0.0141975 0.0215128 0.0252615 0.00554954 0.00377183
internal_weight=576 338 154 238 184 51 133 178 96 60 37 24 40 148 98 50 45 82 44 128 60 68 25 28 22 22 31 23 56 49
internal_count=576 338 154 238 184 51 133 178 96 60 37 24 40 148 98 50 45 82 44 128 60 68 25 28 22 22 31 23 56 49
is_linear=0
shrinkage=0.1


Tree=24
num_leaves=31
num_cat=0
split_feature=7 7 0 7 4 0 1 1 0 1 0 0 2 0 0 0 0 7 2 1 2 1 1 5 5 0 2 5 0 4
split_gain=5.32503 1.76579 0.954946 0.820838 0.650895 0.598879 0.375753 0.34974 0.311463 0.434452 0.311444 0.319168 0.290472 0.231043 0.225491 0.21946 0.216484 0.200189 0.181631 0.181691 0.175007 0.163557 0.158487 0.32398 0.144861 0.14137 0.132126 0.125902 0.113072 0.178189
threshold=21.000000000000004 42.000000000000007 313.15000000000003 5.0000000000000009 10.250000000000002 382.25000000000006 103.55000000000001 187.35000000000002 191.35000000000002 42.150000000000013 218.55000000000004 238.05000000000004 94.350000000000009 251.60000000000005 386.00000000000006 391.45000000000005 395.00000000000006 90.500000000000014 118.45 206.75000000000003 123.40000000000002 94.250000000000014 48.800000000000004 962.30000000000007 940.30000000000007 155.30000000000004 132.55000000000004 1005.9000000000001 275.05000000000007 4.5500000000000007
decision_type=2 2 2 2 2 2 2 2 2 2 2 2 2 2 2 2 2 2 2 2 2 2 2 2 2 2 2 2 2 2
left_child=3 2 8 14 15 12 16 20 9 -2 -10 -12 25 -13 24 17 26 22 19 -11 27 -7 28 -24 -1 -5 -4 -6 29 -3
right_child=1 4 6 5 7 21 -8 -9 10 18 11 13 -14 -15 -16 -17 -18 -19 -20 -21 -22 -23 23 -25 -26 -27 -28 -29 -30 -31
leaf_value=-0.03997713476419449 -0.020812267417970459 -0.01951177860610186 -0.0027676956323177916 -0.032607010602951049 0.020284273333259314 0.00089567787945270521 0.023606217674472754 0.041982097644358875 0.016876599785279146 -0.012599067131164843 -0.016049857561786972 0.016606380014369884 -0.0046170475281542165 -0.00094518033580647573 -0.012911624917760493 0.021213572762078709 0.012984861527500606 0.013906313279827979 0.0032840367949878179 0.0018799899575801995 0.035663198431332907 0.020099971443414688 0.0010046143457293508 0.023599178614941513 -0.023515105308318626 -0.014987146218909937 0.01516824819147587 0.0024497730168513959 0.0068603288847953088 0.0027361545478925111
leaf_weight=5.9999999999999991 19 6.0000000000000027 23.000000000000004 4.9999999999999991 19.000000000000007 17.000000000000004 17 9.9999999999999982 10.999999999999998 26 11.999999999999998 8.9999999999999982 32 45 20 18 27 48 24 12.999999999999998 5.9999999999999991 5.9999999999999991 15.000000000000002 10.999999999999998 49 51 4.9999999999999991 4.9999999999999991 11.999999999999998 8.9999999999999982
leaf_count=6 19 6 23 5 19 17 17 10 11 26 12 9 32 45 20 18 27 48 24 13 6 6 15 11 49 51 5 5 12 9
internal_value=2.45766e-11 0.00664009 0.00105757 -0.0139228 0.0147505 -0.00846215 0.0106122 0.0257863 -0.00326908 -0.00755795 0.00129829 -0.00129809 -0.0122173 0.00198008 -0.0220045 0.0110411 0.00659592 0.00922814 -0.00356062 -0.00777271 0.0203876 0.00590549 0.0049913 0.0105639 -0.025311 -0.0165603 0.000435151 0.0165688 -0.000374864 -0.00616302
internal_weight=576 390 231 186 159 111 72 40 159 82 77 66 88 54 75 119 55 101 63 39 30 23 53 26 55 56 28 24 27 15
internal_count=576 390 231 186 159 111 72 40 159 82 77 66 88 54 75 119 55 101 63 39 30 23 53 26 55 56 28 24 27 15
is_linear=0
shrinkage=0.1


Tree=25
num_leaves=31
num_cat=0
split_feature=7 7 7 3 3 3 1 5 4 7 3 3 4 5 2 2 7 1 1 3 5 5 4 5 2 1 1 1 1 1
split_gain=4.31327 1.43029 0.664879 0.591986 0.398685 0.3721 0.320683 0.312893 0.249213 0.229353 0.22399 0.203982 0.190688 0.358743 0.197697 0.189449 0.157846 0.148523 0.262955 0.252848 0.348638 0.234331 0.148376 0.184196 0.14699 0.140652 0.135431 0.23178 0.127227 0.288542
threshold=21.000000000000004 42.000000000000007 5.0000000000000009 192.95000000000002 191.40000000000003 157.95000000000002 16.100000000000005 948.95000000000016 17.200000000000003 73.000000000000014 190.75000000000003 161.95000000000002 7.7000000000000002 823.00000000000011 106.85000000000001 101.75000000000001 225.00000000000003 194.75000000000003 143.50000000000003 155.20000000000002 1074.2500000000002 1067.5000000000002 5.6000000000000005 985.90000000000009 160.40000000000003 222.00000000000003 163.45000000000002 189.10000000000002 183.65000000000003 222.00000000000003
decision_type=2 2 2 2 2 2 2 2 2 2 2 2 2 2 2 2 2 2 2 2 2 2 2 2 2 2 2 2 2 2
left_child=2 4 10 6 7 -4 9 8 11 -3 22 -2 15 -14 -15 -6 -5 18 19 20 -9 24 -1 -24 -21 -8 -13 -28 -7 -30
right_child=1 3 5 16 12 28 25 17 -10 -11 -12 26 13 14 -16 -17 -18 -19 -20 21 -22 -23 23 -25 -26 -27 27 -29 29 -31
leaf_value=0.00030516318976879118 0.026152489168776407 0.0022492823100441861 0.0070313858365019166 -0.0010673963063364399 -0.004118442684522875 -0.008463838228504229 0.020599619805580005 -0.00040404374400774645 -0.0090264146216213707 0.015790252214888247 -0.027770438790321351 0.0055990548459468065 0.0050371772506170786 -0.0084471408174269704 -0.02887655910104513 0.011196776586584748 0.012569595056023295 0.012176581844687463 -0.012280168995494023 0.0057195769497067547 0.03534981600940227 -0.0098388991563727983 -0.011224126409400594 -0.023891934674854079 -0.012548048272728922 0.038131045997142794 0.032013679544130973 0.0028613257873803376 -0.032896187688623159 -0.003011286980472505
leaf_weight=4.9999999999999991 8.9999999999999982 18 14.999999999999998 29 42 83 54 5.9999999999999982 5.9999999999999991 41 24 27 9.0000000000000018 9.0000000000000018 9.9999999999999982 9.9999999999999982 11.999999999999998 9.9999999999999982 15.999999999999998 37 5 19 22 24 4.9999999999999991 4.9999999999999991 5.9999999999999982 5 6.9999999999999982 6
leaf_count=5 9 18 15 29 42 83 54 6 6 41 24 27 9 9 10 10 12 10 16 37 5 19 22 24 5 5 6 5 7 6
internal_value=-2.41926e-11 0.00597608 -0.0125305 0.0132755 0.000951809 -0.00761594 0.0168722 0.0039757 0.0101656 0.0116591 -0.019804 0.0126157 -0.00475578 -0.0114091 -0.0191995 -0.00117321 0.00292392 0.000628091 -0.000684237 0.00189264 0.0158477 -0.000623852 -0.0160551 -0.0178334 0.00354486 0.0220853 0.00940956 0.0187626 -0.00990458 -0.0191032
internal_weight=576 390 186 159 231 111 118 151 53 59 75 47 80 28 19 52 41 98 88 72 11 61 51 46 42 59 38 11 96 13
internal_count=576 390 186 159 231 111 118 151 53 59 75 47 80 28 19 52 41 98 88 72 11 61 51 46 42 59 38 11 96 13
is_linear=0
shrinkage=0.1


Tree=26
num_leaves=31
num_cat=0
split_feature=3 6 4 6 3 3 5 5 4 5 6 6 5 6 1 3 2 4 3 6 3 5 4 6 5 2 4 4 6 6
split_gain=0.669936 0.597859 0.376498 0.296085 0.237803 0.20118 0.4902 0.463503 0.250847 0.195104 0.179589 0.464516 0.179239 0.283955 0.161956 0.164847 0.152392 0.146781 0.173701 0.133591 0.123549 0.160509 0.123378 0.13677 0.119862 0.111025 0.107053 0.154187 0.235564 0.123902
threshold=156.90000000000003 782.70000000000016 2.7500000000000004 781.35000000000014 126.95 192.45000000000002 1119.5000000000002 1054.3000000000002 7.9500000000000011 877.60000000000014 642.00000000000011 774.75000000000011 962.30000000000007 655.30000000000007 48.800000000000004 175.55000000000004 94.350000000000009 8.1500000000000004 189.15000000000003 800.05000000000007 192.95000000000002 897.00000000000011 12.15 893.35000000000014 843.50000000000011 125.30000000000003 11.65 9.8000000000000025 708.45000000000016 716.95000000000016
decision_type=2 2 2 2 2 2 2 2 2 2 2 2 2 2 2 2 2 2 2 2 2 2 2 2 2 2 2 2 2 2
left_child=4 3 19 5 -1 6 7 26 12 -10 -6 -12 13 -7 17 16 -16 18 25 -3 21 -21 -13 -24 -17 -4 27 -2 -29 -28
right_child=1 2 14 -5 10 8 -8 -9 9 -11 11 22 -14 -15 15 24 -18 -19 -20 20 -22 -23 23 -25 -26 -27 29 28 -30 -31
leaf_value=-0.007639043964445591 0.0033611958188895178 -0.019422600444938459 0.0086892933241630842 0.021926775148936681 -0.0076783422008156778 -0.0051467256015166642 0.027290102792903781 -0.0081314187331978857 -0.00013564149183886386 -0.021491815505379982 0.04126524522900582 0.013441196059369866 -0.005567943963355252 0.010574153520994717 0.00092029745380083734 0.01137363941719134 0.022638718145234243 -0.0079008324071764956 -0.011395688437753255 -0.018459456288255752 -0.018009369137386481 -0.004581018460448831 0.0083435392301333573 -0.0089750849447834003 -0.0046527999852384837 -0.0060430355236998634 0.0050115973821708145 0.029234970112641652 0.0074006664599957214 -0.014571700477972625
leaf_weight=7.9999999999999991 91 13.999999999999998 19.000000000000004 6.9999999999999991 4.9999999999999991 20 7.9999999999999991 36 7.0000000000000027 10.999999999999998 4.9999999999999991 34 35 27 5.9999999999999982 6.0000000000000027 7 49 8.9999999999999982 9.9999999999999982 11.999999999999998 50 19.000000000000004 5.9999999999999991 21 6.9999999999999991 6.9999999999999982 5.9999999999999991 28 6
leaf_count=8 91 14 19 7 5 20 8 36 7 11 5 34 35 27 6 6 7 49 9 10 12 50 19 6 21 7 7 6 28 6
internal_value=3.42172e-11 -0.00133968 -0.00540026 0.00161092 0.00868181 0.00110662 0.00308647 0.00197366 -0.0024967 -0.0131866 0.0105741 0.0120001 -0.000150127 0.00388442 -0.00187404 0.00336315 0.0126148 -0.00436794 0.000578118 -0.0104846 -0.00874664 -0.00689409 0.00951996 0.00418707 -0.00109137 0.0047229 0.00460977 0.00550798 0.0112538 -0.00402685
internal_weight=576 499 210 289 77 282 182 174 100 18 69 64 82 47 124 40 13 84 35 86 72 60 59 25 27 26 138 125 34 13
internal_count=576 499 210 289 77 282 182 174 100 18 69 64 82 47 124 40 13 84 35 86 72 60 59 25 27 26 138 125 34 13
is_linear=0
shrinkage=0.1


Tree=27
num_leaves=31
num_cat=0
split_feature=7 7 0 7 3 0 0 3 2 1 1 1 2 5 1 7 2 1 3 0 5 1 0 3 7 5 0 2 1 5
split_gain=3.44543 1.14137 0.643483 0.563739 0.449036 0.3882 0.336449 0.279229 0.317847 0.314858 0.32963 0.258162 0.257166 0.347341 0.248824 0.258746 0.199202 0.16969 0.160978 0.213098 0.141401 0.138377 0.131593 0.123185 0.117037 0.118889 0.125396 0.114121 0.118969 0.113606
threshold=21.000000000000004 42.000000000000007 238.15000000000001 5.0000000000000009 192.95000000000002 382.25000000000006 357.50000000000006 181.80000000000004 114.50000000000001 157.90000000000003 141.90000000000003 42.150000000000013 41.750000000000007 852.55000000000007 222.00000000000003 90.500000000000014 94.350000000000009 187.35000000000002 199.50000000000003 433.25000000000006 1065.9000000000003 103.55000000000001 325.30000000000007 202.50000000000003 225.00000000000003 970.50000000000011 339.10000000000008 118.45 246.75000000000003 931.10000000000014
decision_type=2 2 2 2 2 2 2 2 2 2 2 2 2 2 2 2 2 2 2 2 2 2 2 2 2 2 2 2 2 2
left_child=3 2 11 18 6 16 14 8 9 10 12 -2 13 -4 15 -3 -5 -8 19 -1 27 22 23 -9 25 26 -6 28 -13 -24
right_child=1 4 7 5 24 -7 17 21 -10 -11 -12 20 -14 -15 -16 -17 -18 -19 -20 -21 -22 -23 29 -25 -26 -27 -28 -29 -30 -31
leaf_value=-0.018222119367371004 -0.012733390766661615 0.0051365945874009451 0.0027505104779265823 -0.013293748138728138 -0.010604361788584631 0.0048937719558244169 0.02069514887049221 -0.0026382927782833574 0.031012468252863204 0.026243409886956216 -0.017095791610578694 -0.0079268525319639606 -0.00017917652559631012 0.032218349701724949 0.033464345932006832 0.016384638141458616 -0.0034032206080155448 0.040810955762863164 -0.031304091960191731 0.00021540449400033271 0.012955138832330704 0.0097764537029434006 0.017435681372880926 -0.020187127590179446 0.01115196308043475 0.0097831393592059616 0.0053079812554642563 0.0025491869600955397 0.0071735988371074205 0.00092342694476246843
leaf_weight=60 30 43 7.9999999999999991 56 13.000000000000005 23 26.000000000000004 20.000000000000004 6.9999999999999991 7.9999999999999991 5.9999999999999991 40 17 7.9999999999999991 4.9999999999999991 39 32 4.9999999999999991 7.9999999999999991 6.9999999999999991 5.9999999999999991 15.999999999999998 5.0000000000000027 4.9999999999999991 11.999999999999998 7.9999999999999991 7.9999999999999991 24 5.9999999999999991 25
leaf_count=60 30 43 8 56 13 23 26 20 7 8 6 40 17 8 5 39 32 5 8 7 6 16 5 5 12 8 8 24 6 25
internal_value=1.51128e-11 0.00534115 0.000852933 -0.0111992 0.0118618 -0.00667384 0.0149943 0.0057132 0.0111327 0.00817186 0.00446488 -0.00487852 0.008385 0.0174844 0.0118069 0.0104863 -0.00969719 0.0239396 -0.0178967 -0.0162958 -0.00177791 0.00159135 -0.000789771 -0.00614806 0.00284624 -0.000590612 -0.00454252 -0.00304074 -0.00595723 0.00367547
internal_weight=576 390 231 186 159 111 118 125 54 47 39 106 33 16 87 82 88 31 75 67 76 71 55 25 41 29 21 70 46 30
internal_count=576 390 231 186 159 111 118 125 54 47 39 106 33 16 87 82 88 31 75 67 76 71 55 25 41 29 21 70 46 30
is_linear=0
shrinkage=0.1


Tree=28
num_leaves=31
num_cat=0
split_feature=7 7 0 7 4 3 0 0 4 6 3 0 6 4 4 6 6 0 4 5 6 7 3 0 6 6 3 0 5 3
split_gain=2.7908 0.924511 0.522505 0.456628 0.367042 0.358895 0.314978 0.335877 0.268806 0.200972 0.177594 0.293293 0.167376 0.218614 0.207725 0.182929 0.162234 0.160799 0.149116 0.147508 0.141341 0.138652 0.130392 0.17261 0.128591 0.19316 0.146489 0.18297 0.13312 0.127749
threshold=21.000000000000004 42.000000000000007 191.35000000000002 5.0000000000000009 10.250000000000002 182.25000000000003 368.30000000000007 345.50000000000006 12.050000000000002 782.00000000000011 192.95000000000002 391.45000000000005 801.50000000000011 7.9500000000000011 13.500000000000002 797.55000000000007 780.85000000000014 165.50000000000003 9.9500000000000011 953.20000000000016 611.90000000000009 90.500000000000014 199.50000000000003 433.25000000000006 712.10000000000014 630.50000000000011 200.15000000000003 263.25000000000006 928.60000000000002 158.20000000000002
decision_type=2 2 2 2 2 2 2 2 2 2 2 2 2 2 2 2 2 2 2 2 2 2 2 2 2 2 2 2 2 2
left_child=3 2 -2 22 10 12 7 17 9 -6 11 -3 15 -14 19 18 20 -5 -4 -15 -12 -10 23 -1 25 -7 27 -26 -29 -11
right_child=1 4 5 6 8 24 -8 -9 21 29 16 -13 13 14 -16 -17 -18 -19 -20 -21 -22 -23 -24 -25 26 -27 -28 28 -30 -31
leaf_value=-0.016399907523494527 -0.0056433528262792472 0.0084762033267432573 0.018054955534171312 -0.022123502301318307 0.04271967013676959 -0.0079626344920446426 0.0023633892298676076 -0.034481399804353711 0.0034177598628130825 0.031301260491212214 -0.0033141752666172885 0.027669607351223632 0.020205181092023839 -0.00028827877508269404 0.015805911328643559 0.030107952157656354 -0.011301774318729129 -0.0061951272286919525 0.0046045829048928094 -0.021710562705993655 0.010177670876410874 0.019687323234975337 -0.028173682838678361 0.00019386400069509234 -0.0079264231380962204 0.013482734042086773 -0.015785341816289083 0.01298200934278694 -0.00014118134635142409 0.011416239238211086
leaf_weight=60 82 69 15.999999999999998 6.9999999999999991 6.0000000000000027 6.0000000000000027 32 4.9999999999999991 11 5.9999999999999982 11.999999999999998 8.9999999999999982 6.0000000000000027 9.0000000000000018 4.9999999999999991 5.9999999999999991 6.9999999999999991 67 17 4.9999999999999991 22 10 7.9999999999999991 6.9999999999999991 21 13.999999999999998 6.9999999999999991 10.999999999999998 26 7
leaf_count=60 82 69 16 7 6 6 32 5 11 6 12 9 6 9 5 6 7 67 17 5 22 10 8 7 21 14 7 11 26 7
internal_value=1.60071e-11 0.00480703 0.00076764 -0.0100793 0.0106756 0.00429584 -0.00600646 -0.00939677 0.0189627 0.027581 0.00789001 0.0106908 0.00995185 0.00356453 -0.00169041 0.0140463 0.00256162 -0.00770187 0.011126 -0.00793909 0.00541584 0.0111652 -0.016107 -0.0146662 3.7195e-05 0.00704912 -0.00212032 -0.000471095 0.00376031 0.0205939
internal_weight=576 390 231 186 159 149 111 79 40 19 119 78 64 25 19 39 41 74 33 14 34 21 75 67 85 20 65 58 37 13
internal_count=576 390 231 186 159 149 111 79 40 19 119 78 64 25 19 39 41 74 33 14 34 21 75 67 85 20 65 58 37 13
is_linear=0
shrinkage=0.1


Tree=29
num_leaves=31
num_cat=0
split_feature=7 7 0 7 4 0 1 1 1 2 0 2 2 6 1 6 6 6 1 1 6 4 1 6 7 4 4 1 2 4
split_gain=2.26055 0.748854 0.431461 0.369869 0.313476 0.265992 0.211747 0.195189 0.293543 0.228674 0.183755 0.174408 0.148313 0.201815 0.190996 0.224988 0.147407 0.161613 0.134941 0.281873 0.134757 0.112582 0.2159 0.107501 0.106676 0.100672 0.18895 0.114431 0.115936 0.0966621
threshold=21.000000000000004 42.000000000000007 238.15000000000001 5.0000000000000009 6.2500000000000009 386.00000000000006 42.150000000000013 157.90000000000003 191.00000000000003 122.50000000000001 518.00000000000011 95.950000000000017 94.350000000000009 690.95000000000016 187.35000000000002 783.50000000000011 611.90000000000009 829.25000000000011 141.90000000000003 118.40000000000002 802.45000000000016 10.250000000000002 187.35000000000002 748.80000000000007 225.00000000000003 11.050000000000002 11.65 40.050000000000004 114.50000000000001 9.2500000000000018
decision_type=2 2 2 2 2 2 2 2 2 2 2 2 2 2 2 2 2 2 2 2 2 2 2 2 2 2 2 2 2 2
left_child=3 2 6 25 11 12 -2 9 -9 10 18 16 13 -5 15 23 -3 24 19 -4 21 -6 -23 -15 -18 27 -27 28 -1 -30
right_child=1 4 7 5 20 -7 -8 8 -10 -11 -12 -13 -14 14 -16 -17 17 -19 -20 -21 -22 22 -24 -25 -26 26 -28 -29 29 -31
leaf_value=-0.018626316988633741 -0.011116097204697631 -0.0029827576906730734 -0.00018444634707910675 0.0065798469198246794 0.013971139447487617 0.004728271209058308 -0.0011942238851732232 0.02311286485443512 -0.0057264521718025209 0.016117829092157386 0.0201406860165298 -0.0064114901364188308 -0.0023052150728062773 -0.014473649859428395 -0.026036612441142401 -0.016452788049355151 0.0097345024994241885 0.00021170399151742458 -0.012889039223747595 0.020774636311190472 0.0094855165136430199 0.015559097938239575 0.039553542931874595 0.0026081327615039692 0.021941389722956551 0.0064265553529063825 -0.014783818221517973 -0.022509550418527355 -0.0016869293610480699 -0.01845591440796852
leaf_weight=18 30 11.999999999999998 77 5.9999999999999991 27 21 76 12.000000000000002 4.9999999999999991 11.999999999999998 4.9999999999999991 10.999999999999998 32 5.0000000000000027 8.9999999999999982 24 35 14.999999999999998 6.9999999999999991 6.9999999999999991 34 9.9999999999999982 5.9999999999999991 13.999999999999998 8.9999999999999982 6.0000000000000027 13.999999999999998 21 10.999999999999998 4.9999999999999991
leaf_count=18 30 12 77 6 27 21 76 12 5 12 5 11 32 5 9 24 35 15 7 7 34 10 6 14 9 6 14 21 11 5
internal_value=1.19005e-11 0.00432633 0.000690876 -0.00907134 0.00960803 -0.00540581 -0.0040023 0.00467069 0.0146307 0.00310291 0.00147604 0.00530532 -0.00777043 -0.0107857 -0.0127894 -0.0100168 0.0071206 0.00917552 0.000450514 0.00156214 0.0141901 0.0179101 0.024557 -0.00188707 0.0122314 -0.0144963 -0.00842071 -0.0167056 -0.0131209 -0.00692724
internal_weight=576 390 231 186 159 111 106 125 17 108 96 82 90 58 52 43 71 59 91 84 77 43 16 19 44 75 20 55 34 16
internal_count=576 390 231 186 159 111 106 125 17 108 96 82 90 58 52 43 71 59 91 84 77 43 16 19 44 75 20 55 34 16
is_linear=0
shrinkage=0.1


Tree=30
num_leaves=31
num_cat=0
split_feature=0 1 0 4 4 5 1 2 0 0 6 5 0 0 6 4 0 2 4 1 6 5 4 4 0 2 6 6 6 0
split_gain=0.616946 0.270464 0.249175 0.304763 0.221454 0.236591 0.192186 0.221303 0.188798 0.144846 0.130392 0.127591 0.125055 0.113427 0.108221 0.162099 0.105765 0.113178 0.104136 0.0873128 0.0846387 0.0839459 0.0792858 0.0737996 0.0705435 0.0654303 0.0620367 0.0613186 0.103856 0.0609416
threshold=389.25000000000006 116.60000000000001 238.05000000000004 5.6000000000000005 12.050000000000002 1060.5500000000004 48.800000000000004 118.45 518.00000000000011 188.10000000000002 782.70000000000016 1005.9000000000001 495.50000000000006 201.00000000000003 888.05000000000007 13.500000000000002 170.65000000000003 169.50000000000003 6.9500000000000011 206.75000000000003 800.95000000000016 1001.9500000000002 6.8000000000000016 2.7500000000000004 412.90000000000003 95.950000000000017 780.85000000000014 630.50000000000011 701.50000000000011 295.75000000000006
decision_type=2 2 2 2 2 2 2 2 2 2 2 2 2 2 2 2 2 2 2 2 2 2 2 2 2 2 2 2 2 2
left_child=2 8 6 10 5 -5 16 9 12 19 27 14 24 -11 -6 -16 -1 25 -9 21 -12 -8 -10 26 -2 -18 -21 -4 -29 -30
right_child=1 -3 3 4 11 -7 7 18 22 13 20 -13 -14 -15 15 -17 17 -19 -20 23 -22 -23 -24 -25 -26 -27 -28 28 29 -31
leaf_value=-0.012187915022388616 0.011821310097972553 0.022072849278761585 -0.008257486165634223 0.0051158329570252037 -0.0078996099345385977 0.024201841213341273 -0.0077958700404426942 0.015130701102316381 0.019941716810519046 0.0085588090815760486 -0.015761150140315296 -0.016453158482909205 -0.0066364382308992474 -0.0030391630561401447 -0.0044006091542541986 0.017998814582824704 -0.014193019811064007 0.0038320988086828346 0.0023748390559376279 -0.015058542862534517 -0.0046979582480465376 -0.021600938141345977 0.0047545653954148299 0.0052997502187887829 0.0032119084210337507 -0.0053170175600454825 0.00069413846358656883 0.0080854366670417444 -0.0085530622137917414 0.0010960392692747215
leaf_weight=29 11.999999999999998 10.999999999999998 6.9999999999999991 90 10.000000000000005 6.9999999999999991 37 7.9999999999999991 10.999999999999998 12.999999999999998 7.9999999999999991 5.9999999999999991 10.999999999999998 24 6.9999999999999982 6 9.9999999999999982 11.999999999999998 32 5.0000000000000018 51 4.9999999999999991 4.9999999999999991 8.9999999999999982 46 49 5 17 8.9999999999999982 24
leaf_count=29 12 11 7 90 10 7 37 8 11 13 8 6 11 24 7 6 10 12 32 5 51 5 5 9 46 49 5 17 9 24
internal_value=5.73487e-12 0.00731808 -0.00146362 0.000795883 0.00420088 0.00649317 -0.00376109 -0.00134211 0.00540864 -0.00390053 -0.00290265 -0.00346643 0.00313917 0.0010358 -7.85859e-05 0.00593759 -0.00709928 -0.00502083 0.00492601 -0.00689469 -0.00619805 -0.00943933 0.0151957 -0.0012697 0.00499316 -0.00682142 -0.0071822 0.000508375 0.0017356 -0.00153553
internal_weight=576 96 480 242 126 97 238 138 85 98 116 29 69 37 23 13 100 71 40 61 59 42 16 19 58 59 10 57 50 33
internal_count=576 96 480 242 126 97 238 138 85 98 116 29 69 37 23 13 100 71 40 61 59 42 16 19 58 59 10 57 50 33
is_linear=0
shrinkage=0.1


Tree=31
num_leaves=31
num_cat=0
split_feature=7 7 7 3 3 6 3 4 6 4 3 3 4 6 3 4 1 2 6 6 4 3 6 3 4 1 4 6 3 6
split_gain=1.82744 0.592715 0.318155 0.264402 0.179089 0.194175 0.178912 0.178817 0.159551 0.154764 0.164515 0.184326 0.343274 0.168451 0.154935 0.126682 0.155605 0.149975 0.108358 0.102895 0.0958295 0.0909219 0.0872049 0.13509 0.0859017 0.082716 0.0997976 0.0803737 0.0827728 0.0996612
threshold=21.000000000000004 42.000000000000007 5.0000000000000009 192.95000000000002 157.95000000000002 783.50000000000011 182.25000000000003 11.450000000000001 829.25000000000011 12.15 161.30000000000004 144.85000000000002 9.5500000000000025 763.50000000000011 169.75000000000003 10.250000000000002 187.35000000000002 123.40000000000002 780.85000000000014 745.80000000000007 8.5500000000000025 199.50000000000003 769.15000000000009 157.45000000000002 5.4000000000000012 16.100000000000005 13.500000000000002 860.20000000000016 211.75000000000003 694.35000000000014
decision_type=2 2 2 2 2 2 2 2 2 2 2 2 2 2 2 2 2 2 2 2 2 2 2 2 2 2 2 2 2 2
left_child=2 6 21 8 -4 7 9 20 15 10 11 -2 -13 19 -15 -3 17 -17 -5 -12 -6 22 -1 25 -10 -24 -27 28 -8 -30
right_child=1 3 4 18 5 -7 27 -9 24 -11 13 12 -14 14 -16 16 -18 -19 -20 -21 -22 -23 23 -25 -26 26 -28 -29 29 -31
leaf_value=-0.0060320622190677877 -0.0030781847238540629 0.011382875053095633 0.005405086224588255 0.0040033840848242531 -0.0031158551155716519 -0.01202347701025271 -2.2051418770332728e-05 -0.020874902904033661 -0.00029661073682031466 -0.0037886911325834016 0.0038803420561764911 0.037620074301958087 0.0067406451122628318 -0.011681818976067009 0.0027528738602995875 0.00032394580543041216 0.031444264575839043 0.023774092768629389 -0.0096592149032013758 0.016804640445942907 0.0077289080247282989 -0.023263808898627759 0.0038390115648508044 -0.017998154065571727 0.0092417116180576134 -0.0023504136440654598 -0.02058934358259042 -0.009688511428733667 -0.0022350569069385529 -0.019526199251413346
leaf_weight=18 5.0000000000000027 56 14.999999999999998 34 44 37 98 4.9999999999999991 13.999999999999998 22 14.000000000000002 5.9999999999999991 8.9999999999999982 9.9999999999999982 29 5.0000000000000018 7.9999999999999991 6 6.9999999999999991 10.999999999999998 9.9999999999999982 7.9999999999999991 5.0000000000000027 32 29 5.9999999999999982 6 11.999999999999998 9.9999999999999982 4.9999999999999991
leaf_count=18 5 56 15 34 44 37 98 5 14 22 14 6 9 10 29 5 8 6 7 11 10 8 5 32 29 6 6 12 10 5
internal_value=-1.40466e-11 0.00388987 -0.00815617 0.00858879 -0.00475654 -0.00634429 0.000655543 -0.00278276 0.0109925 0.00367769 0.00563317 0.0135498 0.0190924 0.00315923 -0.000948329 0.0137768 0.0208325 0.0131149 0.00167075 0.00956703 -0.00110757 -0.0131876 -0.0119845 -0.0141711 0.00613621 -0.00696726 -0.0114699 -0.00190724 -0.00108091 -0.00799877
internal_weight=576 390 186 159 111 96 231 59 118 106 84 20 15 64 39 75 19 11 41 25 54 75 67 49 43 17 12 125 113 15
internal_count=576 390 186 159 111 96 231 59 118 106 84 20 15 64 39 75 19 11 41 25 54 75 67 49 43 17 12 125 113 15
is_linear=0
shrinkage=0.1


Tree=32
num_leaves=31
num_cat=0
split_feature=7 7 5 3 3 6 7 1 6 3 6 5 6 5 6 5 3 1 5 6 1 5 6 1 1 3 6 6 5 6
split_gain=1.49919 0.565962 0.236524 0.214166 0.182691 0.145238 0.142092 0.13428 0.192147 0.11884 0.13206 0.322916 0.259212 0.197295 0.143209 0.117488 0.153355 0.113155 0.106565 0.0968299 0.0930301 0.0886272 0.0877697 0.0861059 0.177066 0.0845351 0.101727 0.0958605 0.0827993 0.0811781
threshold=10.500000000000002 42.000000000000007 1119.5000000000002 192.95000000000002 152.45000000000002 720.50000000000011 5.0000000000000009 14.300000000000002 775.95000000000016 181.25000000000003 801.50000000000011 998.10000000000014 799.75000000000011 1055.3000000000002 844.75000000000011 1007.2500000000001 174.40000000000003 161.50000000000003 1040.3000000000002 736.10000000000014 42.150000000000013 913.60000000000014 780.85000000000014 123.35000000000001 136.35000000000002 188.55000000000004 712.10000000000014 729.65000000000009 977.30000000000007 863.10000000000014
decision_type=2 2 2 2 2 2 2 2 2 2 2 2 2 2 2 2 2 2 2 2 2 2 2 2 2 2 2 2 2 2
left_child=4 2 9 7 -1 6 28 8 -3 10 12 14 13 15 -12 21 -17 -7 23 -20 -15 -2 -5 25 -25 -11 -27 -28 -6 -29
right_child=1 3 -4 22 5 17 -8 -9 -10 18 11 -13 -14 20 -16 16 -18 -19 19 -21 -22 -23 -24 24 -26 26 27 29 -30 -31
leaf_value=0.0017860743403434753 0.01304231302014419 0.019072456359863283 0.01834538823791913 0.0036030457094859553 -0.0036672455258667451 -0.010356103668999958 0.0022558642907396834 0.01320994349041333 0.0038350767979864033 0.0023682916117832068 -0.006780069470405577 -0.017216062867505984 0.026461361199617384 -0.010603110950726727 0.0080044411735511137 0.0067498716884680692 0.027594656348228455 -0.020667938670764368 -0.020368149876594532 -0.0050136822781970966 0.004450520624717077 0.00058439338820115211 -0.0086932933357145113 0.020241329781711101 0.00030848100872301476 0.0049683586927130822 -0.02033388376235962 -0.0034336008705819648 -0.02186607453972101 -0.016175509057939054
leaf_weight=14.999999999999998 6.9999999999999991 9.9999999999999982 6.9999999999999991 34 5.0000000000000018 94 17 60 48 20 10.000000000000002 10.999999999999998 4.9999999999999991 13.000000000000002 19 12.000000000000002 4.9999999999999991 11.999999999999998 5.0000000000000027 23 5.9999999999999991 31 6.9999999999999991 4.9999999999999991 41 7.9999999999999991 4.9999999999999991 30 5 5.9999999999999991
leaf_count=15 7 10 7 34 5 94 17 60 48 20 10 11 5 13 19 12 5 12 5 23 6 31 7 5 41 8 5 30 5 6
internal_value=3.32471e-11 0.00300003 0.00020431 0.00772991 -0.00867578 -0.00985568 -0.00330803 0.00989326 0.00646221 -0.000280375 0.00205429 -0.00262733 0.00442473 0.00293577 0.00290633 0.00597062 0.0128807 -0.0115235 -0.00222321 -0.00775555 -0.00584933 0.00287927 0.00150367 -0.000876204 0.0024751 -0.0031104 -0.0053466 -0.00735928 -0.0127667 -0.00555725
internal_weight=576 428 269 159 148 133 27 118 58 262 119 40 79 74 29 55 17 106 143 28 19 38 41 115 46 69 49 41 10 36
internal_count=576 428 269 159 148 133 27 118 58 262 119 40 79 74 29 55 17 106 143 28 19 38 41 115 46 69 49 41 10 36
is_linear=0
shrinkage=0.1


Tree=33
num_leaves=31
num_cat=0
